digraph Tree {
node [shape=box, style="filled", color="black"] ;
0 [label="chemgroup1_all <= 0.5\nmse = 1.3297375746388792e+33\nsamples = 764\nvalue = 3.895280938253352e+16", fillcolor="#fcefe6"] ;
1 [label="chemgroup2_any <= 0.5\nmse = 8.611763529668037e+32\nsamples = 708\nvalue = 3.5525771237369932e+16", fillcolor="#fcf1e8"] ;
0 -> 1 [labeldistance=2.5, labelangle=45, headlabel="True"] ;
2 [label="pump_bore <= 1.375\nmse = 5.920722827968036e+32\nsamples = 522\nvalue = 3.224413134321227e+16", fillcolor="#fcf2eb"] ;
1 -> 2 ;
3 [label="AVG_PRESSURE_TUBING <= 8.954\nmse = 1.2962370176015024e+33\nsamples = 51\nvalue = 4.229005500000001e+16", fillcolor="#fbeee4"] ;
2 -> 3 ;
4 [label="AVG_LIQUID_VOLUME <= 13.161\nmse = 2.524123751822223e+32\nsamples = 15\nvalue = 1.9076533333333332e+16", fillcolor="#fdf7f3"] ;
3 -> 4 ;
5 [label="NIPPLE_SET_DEPTH <= 8612.15\nmse = 1.2949420408163266e+29\nsamples = 3\nvalue = 3739885714285714.5", fillcolor="#fffefd"] ;
4 -> 5 ;
6 [label="mse = 0.0\nsamples = 1\nvalue = 4233600000000000.0", fillcolor="#fffefd"] ;
5 -> 6 ;
7 [label="overall_max_sideload <= 352.077\nmse = 4.478976000000013e+28\nsamples = 2\nvalue = 3542400000000000.0", fillcolor="#fffefd"] ;
5 -> 7 ;
8 [label="mse = 0.0\nsamples = 1\nvalue = 3283200000000000.0", fillcolor="#fffefd"] ;
7 -> 8 ;
9 [label="mse = 0.0\nsamples = 1\nvalue = 3715200000000000.0", fillcolor="#fffefd"] ;
7 -> 9 ;
10 [label="gas_anchor_length <= 20.525\nmse = 2.2957335433440004e+32\nsamples = 12\nvalue = 2.444436e+16", fillcolor="#fdf5f0"] ;
4 -> 10 ;
11 [label="max_unguided_dls <= 1.645\nmse = 1.339563018239985e+31\nsamples = 3\nvalue = 4.790736e+16", fillcolor="#fbece0"] ;
10 -> 11 ;
12 [label="mse = 0.0\nsamples = 1\nvalue = 5.08896e+16", fillcolor="#fbeade"] ;
11 -> 12 ;
13 [label="AVG_LIQUID_VOLUME <= 48.377\nmse = 1.3749263999940752e+29\nsamples = 2\nvalue = 4.3434e+16", fillcolor="#fbede3"] ;
11 -> 13 ;
14 [label="mse = 0.0\nsamples = 1\nvalue = 4.38048e+16", fillcolor="#fbede3"] ;
13 -> 14 ;
15 [label="mse = 2.8823037615171174e+17\nsamples = 1\nvalue = 4.30632e+16", fillcolor="#fbeee4"] ;
13 -> 15 ;
16 [label="AVG_PRESS_FLOWLINE <= 30.301\nmse = 5.696043171840022e+31\nsamples = 9\nvalue = 1.662336e+16", fillcolor="#fef8f5"] ;
10 -> 16 ;
17 [label="NIPPLE_SET_DEPTH <= 8699.4\nmse = 1.9435794533553707e+31\nsamples = 6\nvalue = 1.340770909090909e+16", fillcolor="#fefaf7"] ;
16 -> 17 ;
18 [label="gas_anchor_length <= 20.63\nmse = 1.8338122137600026e+31\nsamples = 3\nvalue = 1.691712e+16", fillcolor="#fef8f4"] ;
17 -> 18 ;
19 [label="mse = 0.0\nsamples = 1\nvalue = 8380800000000000.0", fillcolor="#fefcfa"] ;
18 -> 19 ;
20 [label="max_unguided_dls <= 7.32\nmse = 1.5116544000000664e+29\nsamples = 2\nvalue = 1.90512e+16", fillcolor="#fdf7f3"] ;
18 -> 20 ;
21 [label="mse = 0.0\nsamples = 1\nvalue = 1.944e+16", fillcolor="#fdf7f3"] ;
20 -> 21 ;
22 [label="mse = -7.205759403792794e+16\nsamples = 1\nvalue = 1.86624e+16", fillcolor="#fdf8f3"] ;
20 -> 22 ;
23 [label="DESANDDEGAS_TYP <= 2.0\nmse = 1.5344639999999494e+30\nsamples = 3\nvalue = 1.04832e+16", fillcolor="#fefbf9"] ;
17 -> 23 ;
24 [label="mse = 0.0\nsamples = 1\nvalue = 9244800000000000.0", fillcolor="#fefbf9"] ;
23 -> 24 ;
25 [label="max_unguided_dls <= 11.343\nmse = 1.6588800000088454e+27\nsamples = 2\nvalue = 1.17216e+16", fillcolor="#fefaf8"] ;
23 -> 25 ;
26 [label="mse = 0.0\nsamples = 1\nvalue = 1.1664e+16", fillcolor="#fefaf8"] ;
25 -> 26 ;
27 [label="mse = 0.0\nsamples = 1\nvalue = 1.17504e+16", fillcolor="#fefaf8"] ;
25 -> 27 ;
28 [label="FAILURETYPE <= 1.5\nmse = 5.351769791999999e+31\nsamples = 3\nvalue = 2.54664e+16", fillcolor="#fdf5ef"] ;
16 -> 28 ;
29 [label="max_unguided_dls <= 1.247\nmse = 8.775475200001576e+29\nsamples = 2\nvalue = 2.9664e+16", fillcolor="#fdf3ec"] ;
28 -> 29 ;
30 [label="mse = 0.0\nsamples = 1\nvalue = 2.83392e+16", fillcolor="#fdf4ed"] ;
29 -> 30 ;
31 [label="mse = 1.4411518807585587e+17\nsamples = 1\nvalue = 3.03264e+16", fillcolor="#fcf3ec"] ;
29 -> 31 ;
32 [label="mse = 3.602879701896397e+16\nsamples = 1\nvalue = 1.28736e+16", fillcolor="#fefaf7"] ;
28 -> 32 ;
33 [label="NIPPLE_SET_DEPTH <= 9060.75\nmse = 1.414517853155959e+33\nsamples = 36\nvalue = 5.328593368421053e+16", fillcolor="#fbe9dd"] ;
3 -> 33 ;
34 [label="Fillage <= 66.185\nmse = 6.609045703100592e+32\nsamples = 7\nvalue = 1.0090246153846154e+17", fillcolor="#f6d6be"] ;
33 -> 34 ;
35 [label="overall_max_sideload <= 56.512\nmse = 4.266959471999999e+31\nsamples = 3\nvalue = 1.185732e+17", fillcolor="#f5ceb3"] ;
34 -> 35 ;
36 [label="AVG_PRESS_FLOWLINE <= 40.879\nmse = 1.36048896000042e+30\nsamples = 2\nvalue = 1.222992e+17", fillcolor="#f5cdb0"] ;
35 -> 36 ;
37 [label="mse = 0.0\nsamples = 1\nvalue = 1.234656e+17", fillcolor="#f5ccaf"] ;
36 -> 37 ;
38 [label="mse = 0.0\nsamples = 1\nvalue = 1.211328e+17", fillcolor="#f5cdb1"] ;
36 -> 38 ;
39 [label="mse = -4.611686018427388e+18\nsamples = 1\nvalue = 1.073952e+17", fillcolor="#f6d3ba"] ;
35 -> 39 ;
40 [label="bha_configuration <= 3.0\nmse = 3.510997405055992e+32\nsamples = 4\nvalue = 7.262928e+16", fillcolor="#f9e1d0"] ;
34 -> 40 ;
41 [label="DESANDDEGAS_TYP <= 3.5\nmse = 1.981863936000002e+31\nsamples = 3\nvalue = 8.76672e+16", fillcolor="#f8dbc7"] ;
40 -> 41 ;
42 [label="overall_max_sideload <= 110.047\nmse = 2.0323353600001294e+30\nsamples = 2\nvalue = 8.46288e+16", fillcolor="#f8dcc9"] ;
41 -> 42 ;
43 [label="mse = 0.0\nsamples = 1\nvalue = 8.32032e+16", fillcolor="#f8ddc9"] ;
42 -> 43 ;
44 [label="mse = 0.0\nsamples = 1\nvalue = 8.60544e+16", fillcolor="#f8dcc8"] ;
42 -> 44 ;
45 [label="mse = 1.152921504606847e+18\nsamples = 1\nvalue = 9.3744e+16", fillcolor="#f7d9c3"] ;
41 -> 45 ;
46 [label="mse = -8.646911284551352e+17\nsamples = 1\nvalue = 5.00724e+16", fillcolor="#fbebdf"] ;
40 -> 46 ;
47 [label="packer_vs_tac <= 1.5\nmse = 7.693590244580841e+32\nsamples = 29\nvalue = 3.921741409090909e+16", fillcolor="#fcefe6"] ;
33 -> 47 ;
48 [label="overall_max_sideload <= 59.248\nmse = 8.03580053330044e+32\nsamples = 17\nvalue = 4.73044425e+16", fillcolor="#fbece1"] ;
47 -> 48 ;
49 [label="AVG_PRESSURE_TUBING <= 35.459\nmse = 1.7004006310399982e+33\nsamples = 3\nvalue = 9.72952e+16", fillcolor="#f7d7c0"] ;
48 -> 49 ;
50 [label="mse = 0.0\nsamples = 1\nvalue = 1.536192e+17", fillcolor="#f2c09c"] ;
49 -> 50 ;
51 [label="AVG_PRESS_FLOWLINE <= 46.782\nmse = 1.713062145599989e+32\nsamples = 2\nvalue = 6.91332e+16", fillcolor="#f9e3d3"] ;
49 -> 51 ;
52 [label="mse = 0.0\nsamples = 1\nvalue = 8.22216e+16", fillcolor="#f8ddca"] ;
51 -> 52 ;
53 [label="mse = 5.764607523034235e+17\nsamples = 1\nvalue = 5.60448e+16", fillcolor="#fae8db"] ;
51 -> 53 ;
54 [label="NIPPLE_SET_DEPTH <= 10181.15\nmse = 2.6745044664922518e+32\nsamples = 14\nvalue = 4.016290571428571e+16", fillcolor="#fcefe5"] ;
48 -> 54 ;
55 [label="AVG_DIFFERENTIAL_PRESSURE <= -14.657\nmse = 1.957665280131912e+32\nsamples = 6\nvalue = 5.4651917142857144e+16", fillcolor="#fae9dc"] ;
54 -> 55 ;
56 [label="mse = 0.0\nsamples = 1\nvalue = 3.0033e+16", fillcolor="#fdf3ec"] ;
55 -> 56 ;
57 [label="AVG_PRESSURE_TUBING <= 63.298\nmse = 1.1054323909849988e+32\nsamples = 5\nvalue = 5.875507e+16", fillcolor="#fae7d9"] ;
55 -> 57 ;
58 [label="SecondarySetpoint <= 30.0\nmse = 3.9378762562500086e+31\nsamples = 2\nvalue = 4.585275e+16", fillcolor="#fbece2"] ;
57 -> 58 ;
59 [label="mse = 0.0\nsamples = 1\nvalue = 3.95775e+16", fillcolor="#fcefe6"] ;
58 -> 59 ;
60 [label="mse = 0.0\nsamples = 1\nvalue = 5.2128e+16", fillcolor="#fbeade"] ;
58 -> 60 ;
61 [label="AVG_DIFFERENTIAL_PRESSURE <= 77.479\nmse = 2.1273081329699134e+31\nsamples = 3\nvalue = 6.520623e+16", fillcolor="#fae4d5"] ;
57 -> 61 ;
62 [label="gas_anchor_length <= 17.13\nmse = 2.1837302841600254e+31\nsamples = 2\nvalue = 6.842406e+16", fillcolor="#f9e3d3"] ;
61 -> 62 ;
63 [label="mse = 0.0\nsamples = 1\nvalue = 6.375102e+16", fillcolor="#fae5d6"] ;
62 -> 63 ;
64 [label="mse = 0.0\nsamples = 1\nvalue = 7.30971e+16", fillcolor="#f9e1d0"] ;
62 -> 64 ;
65 [label="mse = -1.152921504606847e+18\nsamples = 1\nvalue = 6.19884e+16", fillcolor="#fae6d7"] ;
61 -> 65 ;
66 [label="AVG_PRESSURE_TUBING <= 71.947\nmse = 1.4584381683428607e+32\nsamples = 8\nvalue = 3.29184e+16", fillcolor="#fcf2ea"] ;
54 -> 66 ;
67 [label="max_unguided_dls <= 3.775\nmse = 1.1483556198749993e+32\nsamples = 6\nvalue = 3.572415e+16", fillcolor="#fcf1e8"] ;
66 -> 67 ;
68 [label="bha_configuration <= 2.5\nmse = 7.39680777818182e+31\nsamples = 5\nvalue = 3.36564e+16", fillcolor="#fcf1ea"] ;
67 -> 68 ;
69 [label="FAILURETYPE <= 1.5\nmse = 8.455882410000092e+30\nsamples = 2\nvalue = 4.30839e+16", fillcolor="#fbeee4"] ;
68 -> 69 ;
70 [label="mse = 0.0\nsamples = 1\nvalue = 4.0176e+16", fillcolor="#fcefe5"] ;
69 -> 70 ;
71 [label="mse = 0.0\nsamples = 1\nvalue = 4.59918e+16", fillcolor="#fbece2"] ;
69 -> 71 ;
72 [label="AVG_DIFFERENTIAL_PRESSURE <= 89.143\nmse = 3.1595020545306225e+31\nsamples = 3\nvalue = 2.8269257142857144e+16", fillcolor="#fdf4ed"] ;
68 -> 72 ;
73 [label="chemgroup1_any <= 0.5\nmse = 5.777910144000672e+29\nsamples = 2\nvalue = 3.180096e+16", fillcolor="#fcf2eb"] ;
72 -> 73 ;
74 [label="mse = 0.0\nsamples = 1\nvalue = 3.24216e+16", fillcolor="#fcf2ea"] ;
73 -> 74 ;
75 [label="mse = 0.0\nsamples = 1\nvalue = 3.087e+16", fillcolor="#fcf3eb"] ;
73 -> 75 ;
76 [label="mse = -7.205759403792794e+16\nsamples = 1\nvalue = 1.944e+16", fillcolor="#fdf7f3"] ;
72 -> 76 ;
77 [label="mse = -1.152921504606847e+18\nsamples = 1\nvalue = 5.84694e+16", fillcolor="#fae7da"] ;
67 -> 77 ;
78 [label="overall_max_sideload <= 170.62\nmse = 1.2595572899992925e+30\nsamples = 2\nvalue = 1.60839e+16", fillcolor="#fef9f5"] ;
66 -> 78 ;
79 [label="mse = 0.0\nsamples = 1\nvalue = 1.72062e+16", fillcolor="#fef8f4"] ;
78 -> 79 ;
80 [label="mse = 3.602879701896397e+16\nsamples = 1\nvalue = 1.49616e+16", fillcolor="#fef9f6"] ;
78 -> 80 ;
81 [label="Fillage <= 86.05\nmse = 5.556377145996022e+32\nsamples = 12\nvalue = 2.951298e+16", fillcolor="#fdf3ec"] ;
47 -> 81 ;
82 [label="AVG_PRESS_FLOWLINE <= 54.932\nmse = 5.439059298899998e+32\nsamples = 5\nvalue = 5.47317e+16", fillcolor="#fae9dc"] ;
81 -> 82 ;
83 [label="Fillage <= 74.608\nmse = 1.4905344159360012e+32\nsamples = 4\nvalue = 4.556988e+16", fillcolor="#fbece2"] ;
82 -> 83 ;
84 [label="AVG_LIQUID_VOLUME <= 45.635\nmse = 8.840171519999669e+30\nsamples = 2\nvalue = 3.65184e+16", fillcolor="#fcf0e8"] ;
83 -> 84 ;
85 [label="mse = 0.0\nsamples = 1\nvalue = 3.23136e+16", fillcolor="#fcf2ea"] ;
84 -> 85 ;
86 [label="mse = 0.0\nsamples = 1\nvalue = 3.86208e+16", fillcolor="#fcefe6"] ;
84 -> 86 ;
87 [label="FAILURETYPE <= 1.5\nmse = 5.213850849000054e+31\nsamples = 2\nvalue = 5.91471e+16", fillcolor="#fae7d9"] ;
83 -> 87 ;
88 [label="mse = 0.0\nsamples = 1\nvalue = 5.19264e+16", fillcolor="#fbeade"] ;
87 -> 88 ;
89 [label="mse = -5.764607523034235e+17\nsamples = 1\nvalue = 6.63678e+16", fillcolor="#f9e4d4"] ;
87 -> 89 ;
90 [label="mse = -2.305843009213694e+18\nsamples = 1\nvalue = 1.005408e+17", fillcolor="#f6d6be"] ;
82 -> 90 ;
91 [label="packer_vs_tac <= 3.0\nmse = 1.712877620638775e+32\nsamples = 7\nvalue = 1.8704957142857144e+16", fillcolor="#fdf8f3"] ;
81 -> 91 ;
92 [label="overall_max_sideload <= 93.782\nmse = 1.8996308484749995e+32\nsamples = 6\nvalue = 1.989255e+16", fillcolor="#fdf7f3"] ;
91 -> 92 ;
93 [label="Fillage <= 94.03\nmse = 5.537720612571427e+31\nsamples = 3\nvalue = 1.14912e+16", fillcolor="#fefbf8"] ;
92 -> 93 ;
94 [label="mse = 0.0\nsamples = 1\nvalue = 777600000000000.0", fillcolor="#ffffff"] ;
93 -> 94 ;
95 [label="AVG_PRESSURE_TUBING <= 33.206\nmse = 1.3250602598399958e+31\nsamples = 2\nvalue = 1.577664e+16", fillcolor="#fef9f5"] ;
93 -> 95 ;
96 [label="mse = 0.0\nsamples = 1\nvalue = 1.13184e+16", fillcolor="#fefbf8"] ;
95 -> 96 ;
97 [label="mse = -7.205759403792794e+16\nsamples = 1\nvalue = 1.87488e+16", fillcolor="#fdf8f3"] ;
95 -> 97 ;
98 [label="AVG_PRESSURE_TUBING <= 63.952\nmse = 1.4122550413439997e+32\nsamples = 3\nvalue = 3.165444e+16", fillcolor="#fcf2eb"] ;
92 -> 98 ;
99 [label="mse = 0.0\nsamples = 1\nvalue = 5.51232e+16", fillcolor="#fae9dc"] ;
98 -> 99 ;
100 [label="AVG_PRESS_FLOWLINE <= 65.579\nmse = 4.412287687499903e+30\nsamples = 2\nvalue = 2.578725e+16", fillcolor="#fdf5ef"] ;
98 -> 100 ;
101 [label="mse = 0.0\nsamples = 1\nvalue = 2.7e+16", fillcolor="#fdf4ee"] ;
100 -> 101 ;
102 [label="mse = 1.4411518807585587e+17\nsamples = 1\nvalue = 2.2149e+16", fillcolor="#fdf6f1"] ;
100 -> 102 ;
103 [label="mse = -3.422735716801577e+17\nsamples = 1\nvalue = 1.15794e+16", fillcolor="#fefbf8"] ;
91 -> 103 ;
104 [label="AVG_LIQUID_VOLUME <= 44.155\nmse = 4.9822644743878336e+32\nsamples = 471\nvalue = 3.1089743399067016e+16", fillcolor="#fcf2eb"] ;
2 -> 104 ;
105 [label="pump_bore <= 1.625\nmse = 3.5300583930233154e+32\nsamples = 51\nvalue = 1.901931951219512e+16", fillcolor="#fdf7f3"] ;
104 -> 105 ;
106 [label="ROUTE <= 868.5\nmse = 5.113524112263654e+32\nsamples = 22\nvalue = 2.4672980571428572e+16", fillcolor="#fdf5ef"] ;
105 -> 106 ;
107 [label="AVG_DIFFERENTIAL_PRESSURE <= 0.853\nmse = 9.140030947782149e+32\nsamples = 7\nvalue = 4.0941398181818184e+16", fillcolor="#fceee5"] ;
106 -> 107 ;
108 [label="max_unguided_dls <= 3.643\nmse = 5.9310898790400005e+32\nsamples = 6\nvalue = 3.48192e+16", fillcolor="#fcf1e9"] ;
107 -> 108 ;
109 [label="overall_max_sideload <= 65.183\nmse = 7.098460323840003e+31\nsamples = 3\nvalue = 1.498176e+16", fillcolor="#fef9f6"] ;
108 -> 109 ;
110 [label="mse = 0.0\nsamples = 1\nvalue = 4665600000000000.0", fillcolor="#fffdfc"] ;
109 -> 110 ;
111 [label="DESANDDEGAS_TYP <= 3.5\nmse = 5.971968000010226e+28\nsamples = 2\nvalue = 2.18592e+16", fillcolor="#fdf6f1"] ;
109 -> 111 ;
112 [label="mse = 0.0\nsamples = 1\nvalue = 2.16864e+16", fillcolor="#fdf6f1"] ;
111 -> 112 ;
113 [label="mse = -7.205759403792794e+16\nsamples = 1\nvalue = 2.22048e+16", fillcolor="#fdf6f1"] ;
111 -> 113 ;
114 [label="Fillage <= 76.082\nmse = 3.281853210624e+32\nsamples = 3\nvalue = 5.465664e+16", fillcolor="#fae9dc"] ;
108 -> 114 ;
115 [label="gas_anchor_length <= 30.74\nmse = 1.2182980608000005e+32\nsamples = 2\nvalue = 4.1616e+16", fillcolor="#fceee4"] ;
114 -> 115 ;
116 [label="mse = 0.0\nsamples = 1\nvalue = 4.94208e+16", fillcolor="#fbebdf"] ;
115 -> 116 ;
117 [label="mse = -1.4411518807585587e+17\nsamples = 1\nvalue = 2.60064e+16", fillcolor="#fdf5ef"] ;
115 -> 117 ;
118 [label="mse = 0.0\nsamples = 1\nvalue = 7.42176e+16", fillcolor="#f9e1cf"] ;
114 -> 118 ;
119 [label="mse = 2.305843009213694e+18\nsamples = 1\nvalue = 1.0216338e+17", fillcolor="#f6d5bd"] ;
107 -> 119 ;
120 [label="NIPPLE_SET_DEPTH <= 10087.2\nmse = 1.4990375861714376e+32\nsamples = 15\nvalue = 1.72166225e+16", fillcolor="#fef8f4"] ;
106 -> 120 ;
121 [label="max_unguided_dls <= 1.278\nmse = 1.4306984170816597e+32\nsamples = 10\nvalue = 2.157363529411765e+16", fillcolor="#fdf6f1"] ;
120 -> 121 ;
122 [label="max_unguided_dls <= 1.087\nmse = 4.353722721000001e+31\nsamples = 3\nvalue = 3.31773e+16", fillcolor="#fcf2ea"] ;
121 -> 122 ;
123 [label="mse = 0.0\nsamples = 1\nvalue = 2.1006e+16", fillcolor="#fdf7f2"] ;
122 -> 123 ;
124 [label="StrokeLength <= 144.02\nmse = 1.6690942166399846e+31\nsamples = 2\nvalue = 3.561156e+16", fillcolor="#fcf1e8"] ;
122 -> 124 ;
125 [label="mse = -1.4411518807585587e+17\nsamples = 1\nvalue = 3.22758e+16", fillcolor="#fcf2eb"] ;
124 -> 125 ;
126 [label="mse = 0.0\nsamples = 1\nvalue = 4.06152e+16", fillcolor="#fcefe5"] ;
124 -> 126 ;
127 [label="AVG_LIQUID_VOLUME <= 16.04\nmse = 8.385793284049586e+31\nsamples = 7\nvalue = 1.5244363636363636e+16", fillcolor="#fef9f6"] ;
121 -> 127 ;
128 [label="AVG_PRESSURE_TUBING <= 3.279\nmse = 2.4014900865600007e+31\nsamples = 3\nvalue = 6341580000000000.0", fillcolor="#fffdfb"] ;
127 -> 128 ;
129 [label="mse = 0.0\nsamples = 1\nvalue = 687600000000000.0", fillcolor="#ffffff"] ;
128 -> 129 ;
130 [label="AVG_DIFFERENTIAL_PRESSURE <= 1.946\nmse = 4.5054016200000004e+30\nsamples = 2\nvalue = 1.01109e+16", fillcolor="#fefbf9"] ;
128 -> 130 ;
131 [label="mse = 0.0\nsamples = 1\nvalue = 7109100000000000.0", fillcolor="#fefcfb"] ;
130 -> 131 ;
132 [label="mse = 0.0\nsamples = 1\nvalue = 1.16118e+16", fillcolor="#fefaf8"] ;
130 -> 132 ;
133 [label="ROUTE <= 885.5\nmse = 1.2636137092499963e+31\nsamples = 4\nvalue = 2.266335e+16", fillcolor="#fdf6f1"] ;
127 -> 133 ;
134 [label="AVG_LIQUID_VOLUME <= 29.223\nmse = 5.212636934399955e+30\nsamples = 3\nvalue = 2.395116e+16", fillcolor="#fdf5f0"] ;
133 -> 134 ;
135 [label="mse = 0.0\nsamples = 1\nvalue = 2.85174e+16", fillcolor="#fdf4ed"] ;
134 -> 135 ;
136 [label="mse = 0.0\nsamples = 2\nvalue = 2.28096e+16", fillcolor="#fdf6f1"] ;
134 -> 136 ;
137 [label="mse = 2.161727821137838e+17\nsamples = 1\nvalue = 1.62243e+16", fillcolor="#fef9f5"] ;
133 -> 137 ;
138 [label="gas_anchor_length <= 20.8\nmse = 8.433216433910264e+30\nsamples = 5\nvalue = 6635305714285714.0", fillcolor="#fefdfb"] ;
120 -> 138 ;
139 [label="gas_anchor_length <= 20.725\nmse = 3.7442285165000064e+30\nsamples = 4\nvalue = 7568390000000000.0", fillcolor="#fefcfb"] ;
138 -> 139 ;
140 [label="SecondarySetpoint <= 65.5\nmse = 1.5767234826750008e+30\nsamples = 3\nvalue = 6407985000000000.0", fillcolor="#fffdfb"] ;
139 -> 140 ;
141 [label="NIPPLE_SET_DEPTH <= 10395.6\nmse = 4.258168327999995e+29\nsamples = 2\nvalue = 7055380000000000.0", fillcolor="#fefcfb"] ;
140 -> 141 ;
142 [label="mse = 0.0\nsamples = 1\nvalue = 7516800000000000.0", fillcolor="#fefcfb"] ;
141 -> 142 ;
143 [label="mse = -9007199254740992.0\nsamples = 1\nvalue = 6132540000000000.0", fillcolor="#fffdfb"] ;
141 -> 143 ;
144 [label="mse = 0.0\nsamples = 1\nvalue = 4465800000000000.0", fillcolor="#fffdfd"] ;
140 -> 144 ;
145 [label="mse = 1.8014398509481984e+16\nsamples = 1\nvalue = 9889200000000000.0", fillcolor="#fefbf9"] ;
139 -> 145 ;
146 [label="mse = -3.2791834786791424e+16\nsamples = 1\nvalue = 1036800000000000.0", fillcolor="#ffffff"] ;
138 -> 146 ;
147 [label="Fillage <= 61.98\nmse = 1.9355972970764428e+32\nsamples = 29\nvalue = 1.4809146382978724e+16", fillcolor="#fef9f6"] ;
105 -> 147 ;
148 [label="gas_anchor_length <= 19.14\nmse = 1.5985140693840002e+32\nsamples = 9\nvalue = 2.228814e+16", fillcolor="#fdf6f1"] ;
147 -> 148 ;
149 [label="ROUTE <= 884.0\nmse = 4.29483882986777e+31\nsamples = 6\nvalue = 1.5545863636363636e+16", fillcolor="#fef9f5"] ;
148 -> 149 ;
150 [label="pump_bore <= 1.875\nmse = 2.7094991256734763e+31\nsamples = 4\nvalue = 1.8412842857142856e+16", fillcolor="#fdf8f4"] ;
149 -> 150 ;
151 [label="StrokeLength <= 156.735\nmse = 1.1229240239999965e+31\nsamples = 3\nvalue = 2.01192e+16", fillcolor="#fdf7f2"] ;
150 -> 151 ;
152 [label="AVG_PRESSURE_TUBING <= 33.197\nmse = 5.1322895999997885e+29\nsamples = 2\nvalue = 2.4822e+16", fillcolor="#fdf5ef"] ;
151 -> 152 ;
153 [label="mse = 0.0\nsamples = 1\nvalue = 2.41056e+16", fillcolor="#fdf5f0"] ;
152 -> 153 ;
154 [label="mse = 0.0\nsamples = 1\nvalue = 2.55384e+16", fillcolor="#fdf5ef"] ;
152 -> 154 ;
155 [label="mse = 0.0\nsamples = 1\nvalue = 1.77678e+16", fillcolor="#fef8f4"] ;
151 -> 155 ;
156 [label="mse = 2.7021597764222976e+16\nsamples = 1\nvalue = 8174700000000000.0", fillcolor="#fefcfa"] ;
150 -> 156 ;
157 [label="AVG_PRESSURE_TUBING <= 109.128\nmse = 3.1135153207500005e+31\nsamples = 2\nvalue = 1.052865e+16", fillcolor="#fefbf9"] ;
149 -> 157 ;
158 [label="mse = 0.0\nsamples = 1\nvalue = 864000000000000.0", fillcolor="#ffffff"] ;
157 -> 158 ;
159 [label="mse = 3.602879701896397e+16\nsamples = 1\nvalue = 1.37502e+16", fillcolor="#fefaf7"] ;
157 -> 159 ;
160 [label="max_unguided_dls <= 2.856\nmse = 1.2546086759999828e+31\nsamples = 3\nvalue = 4.08294e+16", fillcolor="#fceee5"] ;
148 -> 160 ;
161 [label="mse = 0.0\nsamples = 1\nvalue = 4.42368e+16", fillcolor="#fbede3"] ;
160 -> 161 ;
162 [label="overall_max_sideload <= 193.093\nmse = 1.871424000000046e+30\nsamples = 2\nvalue = 3.7422e+16", fillcolor="#fcf0e7"] ;
160 -> 162 ;
163 [label="mse = 0.0\nsamples = 1\nvalue = 3.6054e+16", fillcolor="#fcf0e8"] ;
162 -> 163 ;
164 [label="mse = 0.0\nsamples = 1\nvalue = 3.879e+16", fillcolor="#fcefe6"] ;
162 -> 164 ;
165 [label="DESANDDEGAS_TYP <= 2.0\nmse = 1.708503315974965e+32\nsamples = 20\nvalue = 1.1303368125e+16", fillcolor="#fefbf8"] ;
147 -> 165 ;
166 [label="AVG_DIFFERENTIAL_PRESSURE <= -2.087\nmse = 2.8984849156050178e+32\nsamples = 10\nvalue = 1.8031675384615384e+16", fillcolor="#fef8f4"] ;
165 -> 166 ;
167 [label="NIPPLE_SET_DEPTH <= 9611.1\nmse = 7.902697679999999e+32\nsamples = 2\nvalue = 3.36336e+16", fillcolor="#fcf1ea"] ;
166 -> 167 ;
168 [label="mse = 0.0\nsamples = 1\nvalue = 7.33896e+16", fillcolor="#f9e1d0"] ;
167 -> 168 ;
169 [label="mse = 1.4411518807585587e+17\nsamples = 1\nvalue = 1.37556e+16", fillcolor="#fefaf7"] ;
167 -> 169 ;
170 [label="ROUTE <= 885.5\nmse = 4.4788288464035915e+31\nsamples = 8\nvalue = 1.3351098e+16", fillcolor="#fefaf7"] ;
166 -> 170 ;
171 [label="Fillage <= 80.634\nmse = 2.5769537861793726e+31\nsamples = 6\nvalue = 1.57060725e+16", fillcolor="#fef9f5"] ;
170 -> 171 ;
172 [label="AVG_LIQUID_VOLUME <= 30.491\nmse = 3.592276625894403e+31\nsamples = 5\nvalue = 1.4295156e+16", fillcolor="#fef9f6"] ;
171 -> 172 ;
173 [label="AVG_DIFFERENTIAL_PRESSURE <= 2.478\nmse = 1.321666710907499e+31\nsamples = 4\nvalue = 1.1777745e+16", fillcolor="#fefaf8"] ;
172 -> 173 ;
174 [label="mse = 0.0\nsamples = 2\nvalue = 1.3824e+16", fillcolor="#fefaf6"] ;
173 -> 174 ;
175 [label="StrokeLength <= 137.161\nmse = 1.805901516809998e+31\nsamples = 2\nvalue = 9731490000000000.0", fillcolor="#fefbf9"] ;
173 -> 175 ;
176 [label="mse = 0.0\nsamples = 1\nvalue = 5481900000000000.0", fillcolor="#fffdfc"] ;
175 -> 176 ;
177 [label="mse = 0.0\nsamples = 1\nvalue = 1.398108e+16", fillcolor="#fefaf6"] ;
175 -> 177 ;
178 [label="mse = 1.4411518807585587e+17\nsamples = 1\nvalue = 2.43648e+16", fillcolor="#fdf5f0"] ;
172 -> 178 ;
179 [label="mse = 0.0\nsamples = 1\nvalue = 1.80576e+16", fillcolor="#fef8f4"] ;
171 -> 179 ;
180 [label="max_unguided_dls <= 3.024\nmse = 9.945192960000042e+30\nsamples = 2\nvalue = 3931200000000000.0", fillcolor="#fffefd"] ;
170 -> 180 ;
181 [label="mse = 0.0\nsamples = 1\nvalue = 7084800000000000.0", fillcolor="#fefcfb"] ;
180 -> 181 ;
182 [label="mse = -422212465065984.0\nsamples = 1\nvalue = 777600000000000.0", fillcolor="#ffffff"] ;
180 -> 182 ;
183 [label="NIPPLE_SET_DEPTH <= 8797.4\nmse = 3.7263309879889275e+31\nsamples = 10\nvalue = 6699789473684211.0", fillcolor="#fefdfb"] ;
165 -> 183 ;
184 [label="mse = 0.0\nsamples = 1\nvalue = 2.06496e+16", fillcolor="#fdf7f2"] ;
183 -> 184 ;
185 [label="overall_max_sideload <= 266.938\nmse = 1.6060051798754336e+31\nsamples = 9\nvalue = 5058635294117647.0", fillcolor="#fffdfc"] ;
183 -> 185 ;
186 [label="NIPPLE_SET_DEPTH <= 11074.7\nmse = 4.802281449795915e+30\nsamples = 7\nvalue = 3869485714285714.5", fillcolor="#fffefd"] ;
185 -> 186 ;
187 [label="packer_vs_tac <= 1.5\nmse = 4.124588040000001e+30\nsamples = 6\nvalue = 4329000000000000.0", fillcolor="#fffdfd"] ;
186 -> 187 ;
188 [label="NIPPLE_SET_DEPTH <= 10108.4\nmse = 3.3902719999999967e+30\nsamples = 4\nvalue = 4988800000000000.0", fillcolor="#fffdfc"] ;
187 -> 188 ;
189 [label="AVG_LIQUID_VOLUME <= 29.792\nmse = 1.3235069387754842e+29\nsamples = 3\nvalue = 4019657142857143.0", fillcolor="#fffefd"] ;
188 -> 189 ;
190 [label="max_unguided_dls <= 2.578\nmse = 6.635520000001604e+27\nsamples = 2\nvalue = 4435200000000000.0", fillcolor="#fffdfd"] ;
189 -> 190 ;
191 [label="mse = 0.0\nsamples = 1\nvalue = 4320000000000000.0", fillcolor="#fffefd"] ;
190 -> 191 ;
192 [label="mse = 2251799813685248.0\nsamples = 1\nvalue = 4492800000000000.0", fillcolor="#fffdfd"] ;
190 -> 192 ;
193 [label="mse = -2251799813685248.0\nsamples = 1\nvalue = 3708000000000000.0", fillcolor="#fffefd"] ;
189 -> 193 ;
194 [label="mse = -9007199254740992.0\nsamples = 1\nvalue = 8380800000000000.0", fillcolor="#fefcfa"] ;
188 -> 194 ;
195 [label="AVG_PRESS_FLOWLINE <= 16.645\nmse = 1.103503680000006e+30\nsamples = 2\nvalue = 2349600000000000.0", fillcolor="#fffefe"] ;
187 -> 195 ;
196 [label="mse = 0.0\nsamples = 1\nvalue = 864000000000000.0", fillcolor="#ffffff"] ;
195 -> 196 ;
197 [label="mse = 0.0\nsamples = 1\nvalue = 3092400000000000.0", fillcolor="#fffefd"] ;
195 -> 197 ;
198 [label="mse = 0.0\nsamples = 1\nvalue = 1112400000000000.0", fillcolor="#ffffff"] ;
186 -> 198 ;
199 [label="AVG_PRESSURE_TUBING <= 58.361\nmse = 3.1201840079999985e+31\nsamples = 2\nvalue = 1.0608e+16", fillcolor="#fefbf9"] ;
185 -> 199 ;
200 [label="mse = 0.0\nsamples = 1\nvalue = 1.85076e+16", fillcolor="#fdf8f3"] ;
199 -> 200 ;
201 [label="mse = 1.8014398509481984e+16\nsamples = 1\nvalue = 6658200000000000.0", fillcolor="#fefdfb"] ;
199 -> 201 ;
202 [label="gas_anchor_length <= 37.845\nmse = 4.958406332383986e+32\nsamples = 420\nvalue = 3.2614820068902936e+16", fillcolor="#fcf2ea"] ;
104 -> 202 ;
203 [label="AVG_PRESS_FLOWLINE <= 14.168\nmse = 4.848299896005802e+32\nsamples = 413\nvalue = 3.2202948645881064e+16", fillcolor="#fcf2eb"] ;
202 -> 203 ;
204 [label="gas_anchor_length <= 20.09\nmse = 3.626728068072859e+31\nsamples = 9\nvalue = 9858390000000000.0", fillcolor="#fefbf9"] ;
203 -> 204 ;
205 [label="overall_max_sideload <= 209.293\nmse = 2.659183661246282e+31\nsamples = 8\nvalue = 7810750909090909.0", fillcolor="#fefcfa"] ;
204 -> 205 ;
206 [label="NIPPLE_SET_DEPTH <= 10490.55\nmse = 1.335025958693877e+31\nsamples = 4\nvalue = 5060314285714286.0", fillcolor="#fffdfc"] ;
205 -> 206 ;
207 [label="NIPPLE_SET_DEPTH <= 9966.1\nmse = 4.494216959999999e+29\nsamples = 3\nvalue = 2777400000000000.0", fillcolor="#fffefe"] ;
206 -> 207 ;
208 [label="mse = -1125899906842624.0\nsamples = 1\nvalue = 2332800000000000.0", fillcolor="#fffefe"] ;
207 -> 208 ;
209 [label="overall_max_sideload <= 186.065\nmse = 3.822948900000009e+29\nsamples = 2\nvalue = 3444300000000000.0", fillcolor="#fffefd"] ;
207 -> 209 ;
210 [label="mse = 0.0\nsamples = 1\nvalue = 4062600000000000.0", fillcolor="#fffefd"] ;
209 -> 210 ;
211 [label="mse = 1125899906842624.0\nsamples = 1\nvalue = 2826000000000000.0", fillcolor="#fffefe"] ;
209 -> 211 ;
212 [label="mse = 0.0\nsamples = 1\nvalue = 1.07676e+16", fillcolor="#fefbf8"] ;
206 -> 212 ;
213 [label="AVG_LIQUID_VOLUME <= 83.856\nmse = 1.335850736467503e+31\nsamples = 4\nvalue = 1.2624015e+16", fillcolor="#fefaf7"] ;
205 -> 213 ;
214 [label="mse = 0.0\nsamples = 1\nvalue = 1.886886e+16", fillcolor="#fdf7f3"] ;
213 -> 214 ;
215 [label="StrokeLength <= 104.75\nmse = 4.788591199999993e+29\nsamples = 3\nvalue = 1.05424e+16", fillcolor="#fefbf9"] ;
213 -> 215 ;
216 [label="mse = 0.0\nsamples = 1\nvalue = 9676800000000000.0", fillcolor="#fefbf9"] ;
215 -> 216 ;
217 [label="AVG_PRESSURE_TUBING <= 60.54\nmse = 1.5634115999999501e+29\nsamples = 2\nvalue = 1.09752e+16", fillcolor="#fefbf8"] ;
215 -> 217 ;
218 [label="mse = 0.0\nsamples = 1\nvalue = 1.05798e+16", fillcolor="#fefbf9"] ;
217 -> 218 ;
219 [label="mse = -1.8014398509481984e+16\nsamples = 1\nvalue = 1.13706e+16", fillcolor="#fefbf8"] ;
217 -> 219 ;
220 [label="mse = 7.205759403792794e+16\nsamples = 1\nvalue = 1.73664e+16", fillcolor="#fef8f4"] ;
204 -> 220 ;
221 [label="AVG_PRESS_FLOWLINE <= 15.125\nmse = 4.83443419554101e+32\nsamples = 404\nvalue = 3.2703466759548812e+16", fillcolor="#fcf2ea"] ;
203 -> 221 ;
222 [label="mse = 0.0\nsamples = 1\nvalue = 1.871424e+17", fillcolor="#efb286"] ;
221 -> 222 ;
223 [label="gas_anchor_length <= 21.055\nmse = 4.459335412642783e+32\nsamples = 403\nvalue = 3.2455968469099364e+16", fillcolor="#fcf2ea"] ;
221 -> 223 ;
224 [label="AVG_PRESSURE_TUBING <= 168.852\nmse = 4.5164191560169595e+32\nsamples = 392\nvalue = 3.286151336317025e+16", fillcolor="#fcf2ea"] ;
223 -> 224 ;
225 [label="AVG_LIQUID_VOLUME <= 47.946\nmse = 4.582573972121794e+32\nsamples = 372\nvalue = 3.3396434616900876e+16", fillcolor="#fcf2ea"] ;
224 -> 225 ;
226 [label="gas_anchor_length <= 20.37\nmse = 9.192430815799999e+32\nsamples = 6\nvalue = 6.93178e+16", fillcolor="#f9e3d2"] ;
225 -> 226 ;
227 [label="NIPPLE_SET_DEPTH <= 9662.55\nmse = 6.564884347223997e+32\nsamples = 3\nvalue = 4.977684e+16", fillcolor="#fbebdf"] ;
226 -> 227 ;
228 [label="mse = 0.0\nsamples = 1\nvalue = 7.992e+16", fillcolor="#f8decc"] ;
227 -> 228 ;
229 [label="bha_configuration <= 2.5\nmse = 8.45806192200002e+31\nsamples = 2\nvalue = 2.96814e+16", fillcolor="#fdf3ec"] ;
227 -> 229 ;
230 [label="mse = 0.0\nsamples = 1\nvalue = 3.61845e+16", fillcolor="#fcf0e8"] ;
229 -> 230 ;
231 [label="mse = -1.8014398509481984e+17\nsamples = 1\nvalue = 1.66752e+16", fillcolor="#fef8f5"] ;
229 -> 231 ;
232 [label="Fillage <= 67.303\nmse = 1.737357465599995e+32\nsamples = 3\nvalue = 9.3744e+16", fillcolor="#f7d9c3"] ;
226 -> 232 ;
233 [label="mse = 0.0\nsamples = 1\nvalue = 1.15344e+17", fillcolor="#f5d0b5"] ;
232 -> 233 ;
234 [label="AVG_PRESSURE_TUBING <= 52.967\nmse = 2.4287662079999027e+31\nsamples = 2\nvalue = 8.6544e+16", fillcolor="#f8dcc7"] ;
232 -> 234 ;
235 [label="mse = 0.0\nsamples = 1\nvalue = 7.95744e+16", fillcolor="#f8decc"] ;
234 -> 235 ;
236 [label="mse = 1.152921504606847e+18\nsamples = 1\nvalue = 9.00288e+16", fillcolor="#f7dac5"] ;
234 -> 236 ;
237 [label="Fillage <= 85.374\nmse = 4.300831354002479e+32\nsamples = 366\nvalue = 3.2825246828123676e+16", fillcolor="#fcf2ea"] ;
225 -> 237 ;
238 [label="bha_configuration <= 4.5\nmse = 4.5697310930051455e+32\nsamples = 187\nvalue = 3.740826020539855e+16", fillcolor="#fcf0e7"] ;
237 -> 238 ;
239 [label="max_unguided_dls <= 0.992\nmse = 4.298425241414023e+32\nsamples = 186\nvalue = 3.693839933098541e+16", fillcolor="#fcf0e7"] ;
238 -> 239 ;
240 [label="max_unguided_dls <= 0.927\nmse = 5.980290036623996e+32\nsamples = 22\nvalue = 4.374636e+16", fillcolor="#fbede3"] ;
239 -> 240 ;
241 [label="DESANDDEGAS_TYP <= 0.5\nmse = 3.3057627830265296e+32\nsamples = 20\nvalue = 3.929078571428571e+16", fillcolor="#fcefe6"] ;
240 -> 241 ;
242 [label="AVG_PRESSURE_TUBING <= 32.066\nmse = 1.5522339225599993e+33\nsamples = 2\nvalue = 7.49088e+16", fillcolor="#f9e0cf"] ;
241 -> 242 ;
243 [label="mse = 0.0\nsamples = 1\nvalue = 3.55104e+16", fillcolor="#fcf1e8"] ;
242 -> 243 ;
244 [label="mse = 0.0\nsamples = 1\nvalue = 1.143072e+17", fillcolor="#f5d0b5"] ;
242 -> 244 ;
245 [label="ROUTE <= 874.5\nmse = 1.3150793180236642e+32\nsamples = 18\nvalue = 3.655093846153846e+16", fillcolor="#fcf0e8"] ;
241 -> 245 ;
246 [label="AVG_LIQUID_VOLUME <= 74.442\nmse = 6.924296090975219e+31\nsamples = 8\nvalue = 2.8226454545454544e+16", fillcolor="#fdf4ed"] ;
245 -> 246 ;
247 [label="overall_max_sideload <= 76.69\nmse = 2.289637914749995e+31\nsamples = 3\nvalue = 3.737655e+16", fillcolor="#fcf0e7"] ;
246 -> 247 ;
248 [label="DESANDDEGAS_TYP <= 2.5\nmse = 8.128512000009115e+28\nsamples = 2\nvalue = 3.46176e+16", fillcolor="#fcf1e9"] ;
247 -> 248 ;
249 [label="mse = 0.0\nsamples = 1\nvalue = 3.42144e+16", fillcolor="#fcf1e9"] ;
248 -> 249 ;
250 [label="mse = 0.0\nsamples = 1\nvalue = 3.48192e+16", fillcolor="#fcf1e9"] ;
248 -> 250 ;
251 [label="mse = -5.764607523034235e+17\nsamples = 1\nvalue = 4.56534e+16", fillcolor="#fbece2"] ;
247 -> 251 ;
252 [label="NIPPLE_SET_DEPTH <= 9035.7\nmse = 2.0545765582040965e+31\nsamples = 5\nvalue = 2.2997828571428572e+16", fillcolor="#fdf6f1"] ;
246 -> 252 ;
253 [label="mse = 0.0\nsamples = 1\nvalue = 3.29184e+16", fillcolor="#fcf2ea"] ;
252 -> 253 ;
254 [label="AVG_LIQUID_VOLUME <= 107.812\nmse = 4.833277559999985e+30\nsamples = 4\nvalue = 2.13444e+16", fillcolor="#fdf6f2"] ;
252 -> 254 ;
255 [label="SecondarySetpoint <= 62.5\nmse = 5.94208507499991e+29\nsamples = 2\nvalue = 2.282265e+16", fillcolor="#fdf6f1"] ;
254 -> 255 ;
256 [label="mse = 7.205759403792794e+16\nsamples = 1\nvalue = 2.23776e+16", fillcolor="#fdf6f1"] ;
255 -> 256 ;
257 [label="mse = -7.205759403792794e+16\nsamples = 1\nvalue = 2.41578e+16", fillcolor="#fdf5f0"] ;
255 -> 257 ;
258 [label="pump_bore <= 1.75\nmse = 2.0007729000024807e+29\nsamples = 2\nvalue = 1.83879e+16", fillcolor="#fdf8f4"] ;
254 -> 258 ;
259 [label="mse = 0.0\nsamples = 1\nvalue = 1.88352e+16", fillcolor="#fdf8f3"] ;
258 -> 259 ;
260 [label="mse = -7.205759403792794e+16\nsamples = 1\nvalue = 1.79406e+16", fillcolor="#fef8f4"] ;
258 -> 260 ;
261 [label="StrokeLength <= 144.12\nmse = 8.908468251839963e+31\nsamples = 10\nvalue = 4.265556e+16", fillcolor="#fbeee4"] ;
245 -> 261 ;
262 [label="AVG_PRESS_FLOWLINE <= 64.709\nmse = 9.344054724750013e+31\nsamples = 8\nvalue = 4.433385e+16", fillcolor="#fbede3"] ;
261 -> 262 ;
263 [label="max_unguided_dls <= 0.279\nmse = 6.168663114247938e+31\nsamples = 7\nvalue = 4.616525454545454e+16", fillcolor="#fbece2"] ;
262 -> 263 ;
264 [label="mse = 0.0\nsamples = 1\nvalue = 6.64614e+16", fillcolor="#f9e4d4"] ;
263 -> 264 ;
265 [label="Fillage <= 73.434\nmse = 2.2542607022400052e+31\nsamples = 6\nvalue = 4.413564e+16", fillcolor="#fbede3"] ;
263 -> 265 ;
266 [label="AVG_PRESS_FLOWLINE <= 37.938\nmse = 1.645417152000001e+31\nsamples = 3\nvalue = 4.87512e+16", fillcolor="#fbebe0"] ;
265 -> 266 ;
267 [label="AVG_PRESSURE_TUBING <= 84.059\nmse = 1.1064936959999744e+31\nsamples = 2\nvalue = 5.2056e+16", fillcolor="#fbeade"] ;
266 -> 267 ;
268 [label="mse = 0.0\nsamples = 1\nvalue = 5.53824e+16", fillcolor="#fae8dc"] ;
267 -> 268 ;
269 [label="mse = -2.8823037615171174e+17\nsamples = 1\nvalue = 4.87296e+16", fillcolor="#fbebe0"] ;
267 -> 269 ;
270 [label="mse = 0.0\nsamples = 1\nvalue = 4.54464e+16", fillcolor="#fbede2"] ;
266 -> 270 ;
271 [label="NIPPLE_SET_DEPTH <= 9985.1\nmse = 2.9311261200001085e+30\nsamples = 3\nvalue = 4.10586e+16", fillcolor="#fceee5"] ;
265 -> 271 ;
272 [label="Fillage <= 77.05\nmse = 1.4808614399787747e+28\nsamples = 2\nvalue = 4.182264e+16", fillcolor="#fbeee4"] ;
271 -> 272 ;
273 [label="mse = 0.0\nsamples = 1\nvalue = 4.16736e+16", fillcolor="#fceee4"] ;
272 -> 273 ;
274 [label="mse = 0.0\nsamples = 1\nvalue = 4.1922e+16", fillcolor="#fbeee4"] ;
272 -> 274 ;
275 [label="mse = 0.0\nsamples = 1\nvalue = 3.72384e+16", fillcolor="#fcf0e7"] ;
271 -> 275 ;
276 [label="mse = 7.205759403792794e+16\nsamples = 1\nvalue = 2.41884e+16", fillcolor="#fdf5f0"] ;
262 -> 276 ;
277 [label="pump_bore <= 1.875\nmse = 1.5328077119999008e+31\nsamples = 2\nvalue = 3.59424e+16", fillcolor="#fcf0e8"] ;
261 -> 277 ;
278 [label="mse = 0.0\nsamples = 1\nvalue = 3.87108e+16", fillcolor="#fcefe6"] ;
277 -> 278 ;
279 [label="mse = 1.4411518807585587e+17\nsamples = 1\nvalue = 3.04056e+16", fillcolor="#fcf3ec"] ;
277 -> 279 ;
280 [label="gas_anchor_length <= 18.22\nmse = 1.7341729344000072e+32\nsamples = 2\nvalue = 1.061244e+17", fillcolor="#f6d3bb"] ;
240 -> 280 ;
281 [label="mse = 0.0\nsamples = 1\nvalue = 9.29556e+16", fillcolor="#f7d9c3"] ;
280 -> 281 ;
282 [label="mse = 0.0\nsamples = 1\nvalue = 1.192932e+17", fillcolor="#f5ceb2"] ;
280 -> 282 ;
283 [label="AVG_PRESSURE_TUBING <= 71.486\nmse = 4.027646504158564e+32\nsamples = 164\nvalue = 3.6101354986434424e+16", fillcolor="#fcf0e8"] ;
239 -> 283 ;
284 [label="NIPPLE_SET_DEPTH <= 10196.2\nmse = 3.803417553332376e+32\nsamples = 59\nvalue = 3.1140297371701148e+16", fillcolor="#fcf2eb"] ;
283 -> 284 ;
285 [label="overall_max_sideload <= 94.587\nmse = 4.108414327503183e+32\nsamples = 52\nvalue = 3.304286447754054e+16", fillcolor="#fcf2ea"] ;
284 -> 285 ;
286 [label="max_unguided_dls <= 1.048\nmse = 3.023143004475e+32\nsamples = 7\nvalue = 4.972635e+16", fillcolor="#fbebdf"] ;
285 -> 286 ;
287 [label="mse = 0.0\nsamples = 1\nvalue = 6.53466e+16", fillcolor="#f9e4d5"] ;
286 -> 287 ;
288 [label="Fillage <= 64.151\nmse = 2.9464475168000013e+32\nsamples = 6\nvalue = 4.45196e+16", fillcolor="#fbede3"] ;
286 -> 288 ;
289 [label="packer_vs_tac <= 2.0\nmse = 2.824013030400003e+32\nsamples = 2\nvalue = 5.52528e+16", fillcolor="#fae8dc"] ;
288 -> 289 ;
290 [label="mse = 0.0\nsamples = 1\nvalue = 7.20576e+16", fillcolor="#f9e2d1"] ;
289 -> 290 ;
291 [label="mse = 0.0\nsamples = 1\nvalue = 3.8448e+16", fillcolor="#fcefe7"] ;
289 -> 291 ;
292 [label="AVG_LIQUID_VOLUME <= 100.33\nmse = 2.1436528931999985e+32\nsamples = 4\nvalue = 3.9153e+16", fillcolor="#fcefe6"] ;
288 -> 292 ;
293 [label="bha_configuration <= 2.0\nmse = 5.221218563999993e+31\nsamples = 2\nvalue = 5.1981e+16", fillcolor="#fbeade"] ;
292 -> 293 ;
294 [label="mse = 0.0\nsamples = 1\nvalue = 4.47552e+16", fillcolor="#fbede2"] ;
293 -> 294 ;
295 [label="mse = 0.0\nsamples = 1\nvalue = 5.92068e+16", fillcolor="#fae7d9"] ;
293 -> 295 ;
296 [label="packer_vs_tac <= 0.5\nmse = 4.740322499999975e+31\nsamples = 2\nvalue = 2.6325e+16", fillcolor="#fdf4ee"] ;
292 -> 296 ;
297 [label="mse = 0.0\nsamples = 1\nvalue = 3.321e+16", fillcolor="#fcf2ea"] ;
296 -> 297 ;
298 [label="mse = -7.205759403792794e+16\nsamples = 1\nvalue = 1.944e+16", fillcolor="#fdf7f3"] ;
296 -> 298 ;
299 [label="gas_anchor_length <= 20.755\nmse = 3.861687564101998e+32\nsamples = 45\nvalue = 3.102062380815151e+16", fillcolor="#fcf2eb"] ;
285 -> 299 ;
300 [label="ROUTE <= 895.0\nmse = 3.6230456972897515e+32\nsamples = 39\nvalue = 2.8056917345321428e+16", fillcolor="#fdf4ed"] ;
299 -> 300 ;
301 [label="AVG_PRESS_FLOWLINE <= 60.636\nmse = 3.5776668673305595e+32\nsamples = 38\nvalue = 2.850263584250909e+16", fillcolor="#fdf4ed"] ;
300 -> 301 ;
302 [label="AVG_LIQUID_VOLUME <= 57.176\nmse = 3.0111637736017005e+32\nsamples = 30\nvalue = 2.483976863576744e+16", fillcolor="#fdf5ef"] ;
301 -> 302 ;
303 [label="AVG_PRESS_FLOWLINE <= 52.543\nmse = 1.25650845e+33\nsamples = 2\nvalue = 5.67864e+16", fillcolor="#fae8db"] ;
302 -> 303 ;
304 [label="mse = 0.0\nsamples = 1\nvalue = 3.17214e+16", fillcolor="#fcf2eb"] ;
303 -> 304 ;
305 [label="mse = 0.0\nsamples = 1\nvalue = 1.069164e+17", fillcolor="#f6d3ba"] ;
303 -> 305 ;
306 [label="Fillage <= 66.869\nmse = 1.4717712443570795e+32\nsamples = 28\nvalue = 2.244377128345e+16", fillcolor="#fdf6f1"] ;
302 -> 306 ;
307 [label="FAILURETYPE <= 1.5\nmse = 3.7988248581371015e+31\nsamples = 5\nvalue = 1.436283141725e+16", fillcolor="#fef9f6"] ;
306 -> 307 ;
308 [label="ROUTE <= 878.0\nmse = 1.1649827277383913e+31\nsamples = 2\nvalue = 8563415668999999.0", fillcolor="#fefcfa"] ;
307 -> 308 ;
309 [label="mse = 0.0\nsamples = 1\nvalue = 1.19766e+16", fillcolor="#fefaf8"] ;
308 -> 309 ;
310 [label="mse = -9007199254740992.0\nsamples = 1\nvalue = 5150231338000000.0", fillcolor="#fffdfc"] ;
308 -> 310 ;
311 [label="overall_max_sideload <= 332.142\nmse = 3.1819623228899993e+31\nsamples = 3\nvalue = 1.629597e+16", fillcolor="#fef9f5"] ;
307 -> 311 ;
312 [label="SecondarySetpoint <= 62.5\nmse = 4.757806152000006e+31\nsamples = 2\nvalue = 1.91298e+16", fillcolor="#fdf7f3"] ;
311 -> 312 ;
313 [label="mse = 0.0\nsamples = 1\nvalue = 1.42524e+16", fillcolor="#fef9f6"] ;
312 -> 313 ;
314 [label="mse = -1.4411518807585587e+17\nsamples = 1\nvalue = 2.88846e+16", fillcolor="#fdf3ed"] ;
312 -> 314 ;
315 [label="mse = 7.205759403792794e+16\nsamples = 1\nvalue = 1.346214e+16", fillcolor="#fefaf7"] ;
311 -> 315 ;
316 [label="AVG_PRESS_FLOWLINE <= 37.938\nmse = 1.540675967989356e+32\nsamples = 23\nvalue = 2.446400625e+16", fillcolor="#fdf5f0"] ;
306 -> 316 ;
317 [label="AVG_LIQUID_VOLUME <= 62.543\nmse = 1.5775558133759992e+32\nsamples = 6\nvalue = 3.539808e+16", fillcolor="#fcf1e8"] ;
316 -> 317 ;
318 [label="mse = 0.0\nsamples = 1\nvalue = 1.28736e+16", fillcolor="#fefaf7"] ;
317 -> 318 ;
319 [label="NIPPLE_SET_DEPTH <= 8652.05\nmse = 1.1264790527999987e+32\nsamples = 5\nvalue = 3.79008e+16", fillcolor="#fcf0e7"] ;
317 -> 319 ;
320 [label="mse = 0.0\nsamples = 1\nvalue = 5.86656e+16", fillcolor="#fae7d9"] ;
319 -> 320 ;
321 [label="overall_max_sideload <= 124.027\nmse = 6.609463919999975e+31\nsamples = 4\nvalue = 3.53052e+16", fillcolor="#fcf1e9"] ;
319 -> 321 ;
322 [label="NIPPLE_SET_DEPTH <= 9798.9\nmse = 8.587750922448994e+30\nsamples = 3\nvalue = 3.2412342857142856e+16", fillcolor="#fcf2ea"] ;
321 -> 322 ;
323 [label="AVG_LIQUID_VOLUME <= 157.012\nmse = 8.778792960000044e+30\nsamples = 2\nvalue = 3.14496e+16", fillcolor="#fcf2eb"] ;
322 -> 323 ;
324 [label="mse = 0.0\nsamples = 1\nvalue = 2.78208e+16", fillcolor="#fdf4ed"] ;
323 -> 324 ;
325 [label="mse = 0.0\nsamples = 1\nvalue = 3.38688e+16", fillcolor="#fcf1e9"] ;
323 -> 325 ;
326 [label="mse = 0.0\nsamples = 1\nvalue = 3.48192e+16", fillcolor="#fcf1e9"] ;
322 -> 326 ;
327 [label="mse = 5.764607523034235e+17\nsamples = 1\nvalue = 5.55552e+16", fillcolor="#fae8db"] ;
321 -> 327 ;
328 [label="AVG_PRESS_FLOWLINE <= 49.531\nmse = 7.334729389594693e+31\nsamples = 17\nvalue = 1.949397272727273e+16", fillcolor="#fdf7f3"] ;
316 -> 328 ;
329 [label="AVG_PRESS_FLOWLINE <= 47.38\nmse = 4.750988573387758e+31\nsamples = 6\nvalue = 1.1424857142857142e+16", fillcolor="#fefbf8"] ;
328 -> 329 ;
330 [label="max_unguided_dls <= 1.921\nmse = 5.011840980000001e+31\nsamples = 5\nvalue = 1.22958e+16", fillcolor="#fefaf7"] ;
329 -> 330 ;
331 [label="gas_anchor_length <= 20.205\nmse = 1.5288238080000004e+31\nsamples = 2\nvalue = 6220800000000000.0", fillcolor="#fffdfb"] ;
330 -> 331 ;
332 [label="mse = 0.0\nsamples = 1\nvalue = 691200000000000.0", fillcolor="#ffffff"] ;
331 -> 332 ;
333 [label="mse = 0.0\nsamples = 1\nvalue = 8985600000000000.0", fillcolor="#fefcfa"] ;
331 -> 333 ;
334 [label="overall_max_sideload <= 135.58\nmse = 1.1137331519999953e+31\nsamples = 3\nvalue = 1.83708e+16", fillcolor="#fdf8f4"] ;
330 -> 334 ;
335 [label="mse = 0.0\nsamples = 1\nvalue = 2.29824e+16", fillcolor="#fdf6f1"] ;
334 -> 335 ;
336 [label="SecondarySetpoint <= 62.5\nmse = 7.55856360000071e+29\nsamples = 2\nvalue = 1.6065e+16", fillcolor="#fef9f5"] ;
334 -> 336 ;
337 [label="mse = 0.0\nsamples = 1\nvalue = 1.69344e+16", fillcolor="#fef8f4"] ;
336 -> 337 ;
338 [label="mse = -3.602879701896397e+16\nsamples = 1\nvalue = 1.51956e+16", fillcolor="#fef9f6"] ;
336 -> 338 ;
339 [label="mse = -2.7021597764222976e+16\nsamples = 1\nvalue = 6199200000000000.0", fillcolor="#fffdfb"] ;
329 -> 339 ;
340 [label="pump_bore <= 1.875\nmse = 4.084014458288002e+31\nsamples = 11\nvalue = 2.325956e+16", fillcolor="#fdf6f0"] ;
328 -> 340 ;
341 [label="overall_max_sideload <= 212.303\nmse = 1.936718954810002e+31\nsamples = 9\nvalue = 2.576255e+16", fillcolor="#fdf5ef"] ;
340 -> 341 ;
342 [label="AVG_DIFFERENTIAL_PRESSURE <= 17.381\nmse = 2.1143279607840146e+31\nsamples = 5\nvalue = 2.913636e+16", fillcolor="#fdf3ed"] ;
341 -> 342 ;
343 [label="AVG_PRESS_FLOWLINE <= 56.316\nmse = 1.3070619922400039e+31\nsamples = 3\nvalue = 2.6204e+16", fillcolor="#fdf4ee"] ;
342 -> 343 ;
344 [label="mse = 0.0\nsamples = 1\nvalue = 3.085914e+16", fillcolor="#fcf3eb"] ;
343 -> 344 ;
345 [label="NIPPLE_SET_DEPTH <= 10005.2\nmse = 3.3531835688999144e+30\nsamples = 2\nvalue = 2.387643e+16", fillcolor="#fdf5f0"] ;
343 -> 345 ;
346 [label="mse = 0.0\nsamples = 1\nvalue = 2.204526e+16", fillcolor="#fdf6f1"] ;
345 -> 346 ;
347 [label="mse = -1.4411518807585587e+17\nsamples = 1\nvalue = 2.57076e+16", fillcolor="#fdf5ef"] ;
345 -> 347 ;
348 [label="AVG_PRESS_FLOWLINE <= 54.921\nmse = 1.0070122500004465e+30\nsamples = 2\nvalue = 3.35349e+16", fillcolor="#fcf1ea"] ;
342 -> 348 ;
349 [label="mse = 0.0\nsamples = 1\nvalue = 3.25314e+16", fillcolor="#fcf2ea"] ;
348 -> 349 ;
350 [label="mse = 0.0\nsamples = 1\nvalue = 3.45384e+16", fillcolor="#fcf1e9"] ;
348 -> 350 ;
351 [label="AVG_PRESSURE_TUBING <= 60.912\nmse = 4.1606836897958994e+30\nsamples = 4\nvalue = 2.3352685714285716e+16", fillcolor="#fdf6f0"] ;
341 -> 351 ;
352 [label="mse = 0.0\nsamples = 1\nvalue = 1.9008e+16", fillcolor="#fdf7f3"] ;
351 -> 352 ;
353 [label="AVG_LIQUID_VOLUME <= 107.508\nmse = 1.1837404799998968e+30\nsamples = 3\nvalue = 2.40768e+16", fillcolor="#fdf5f0"] ;
351 -> 353 ;
354 [label="mse = 0.0\nsamples = 1\nvalue = 2.56104e+16", fillcolor="#fdf5ef"] ;
353 -> 354 ;
355 [label="AVG_DIFFERENTIAL_PRESSURE <= 10.797\nmse = 1.1664000000046994e+28\nsamples = 2\nvalue = 2.331e+16", fillcolor="#fdf6f0"] ;
353 -> 355 ;
356 [label="mse = 0.0\nsamples = 1\nvalue = 2.3418e+16", fillcolor="#fdf6f0"] ;
355 -> 356 ;
357 [label="mse = 7.205759403792794e+16\nsamples = 1\nvalue = 2.3202e+16", fillcolor="#fdf6f0"] ;
355 -> 357 ;
358 [label="overall_max_sideload <= 842.505\nmse = 1.4327859200002003e+30\nsamples = 2\nvalue = 1.32476e+16", fillcolor="#fefaf7"] ;
340 -> 358 ;
359 [label="mse = 0.0\nsamples = 1\nvalue = 1.4094e+16", fillcolor="#fef9f6"] ;
358 -> 359 ;
360 [label="mse = 1.8014398509481984e+16\nsamples = 1\nvalue = 1.15548e+16", fillcolor="#fefbf8"] ;
358 -> 360 ;
361 [label="FAILURETYPE <= 1.5\nmse = 3.404146706522975e+32\nsamples = 8\nvalue = 4.162791e+16", fillcolor="#fceee4"] ;
301 -> 361 ;
362 [label="ROUTE <= 878.5\nmse = 3.535559748899997e+32\nsamples = 4\nvalue = 5.31057e+16", fillcolor="#fbe9dd"] ;
361 -> 362 ;
363 [label="mse = 0.0\nsamples = 1\nvalue = 9.41328e+16", fillcolor="#f7d8c2"] ;
362 -> 363 ;
364 [label="overall_max_sideload <= 307.39\nmse = 2.0293665609599826e+31\nsamples = 3\nvalue = 4.490028e+16", fillcolor="#fbede2"] ;
362 -> 364 ;
365 [label="max_unguided_dls <= 1.632\nmse = 1.4905800000020124e+29\nsamples = 2\nvalue = 4.12302e+16", fillcolor="#fceee5"] ;
364 -> 365 ;
366 [label="mse = 0.0\nsamples = 1\nvalue = 4.17762e+16", fillcolor="#fceee4"] ;
365 -> 366 ;
367 [label="mse = 0.0\nsamples = 1\nvalue = 4.09572e+16", fillcolor="#fceee5"] ;
365 -> 367 ;
368 [label="mse = 2.8823037615171174e+17\nsamples = 1\nvalue = 5.04054e+16", fillcolor="#fbeadf"] ;
364 -> 368 ;
369 [label="max_unguided_dls <= 2.35\nmse = 6.379403984640003e+31\nsamples = 4\nvalue = 3.015012e+16", fillcolor="#fcf3ec"] ;
361 -> 369 ;
370 [label="mse = 0.0\nsamples = 1\nvalue = 1.80972e+16", fillcolor="#fef8f4"] ;
369 -> 370 ;
371 [label="AVG_DIFFERENTIAL_PRESSURE <= 8.769\nmse = 4.168735648934407e+31\nsamples = 3\nvalue = 3.2560704e+16", fillcolor="#fcf2ea"] ;
369 -> 371 ;
372 [label="mse = 0.0\nsamples = 1\nvalue = 4.45122e+16", fillcolor="#fbede3"] ;
371 -> 372 ;
373 [label="NIPPLE_SET_DEPTH <= 9720.45\nmse = 7.472240412299898e+30\nsamples = 2\nvalue = 2.957283e+16", fillcolor="#fdf3ec"] ;
371 -> 373 ;
374 [label="mse = 0.0\nsamples = 1\nvalue = 2.48382e+16", fillcolor="#fdf5ef"] ;
373 -> 374 ;
375 [label="mse = 0.0\nsamples = 1\nvalue = 3.115104e+16", fillcolor="#fcf2eb"] ;
373 -> 375 ;
376 [label="mse = 2.8836548414053286e+19\nsamples = 1\nvalue = 3542400000000000.0", fillcolor="#fffefd"] ;
300 -> 376 ;
377 [label="Fillage <= 65.251\nmse = 1.9516797214560064e+32\nsamples = 6\nvalue = 4.761738e+16", fillcolor="#fbece1"] ;
299 -> 377 ;
378 [label="AVG_LIQUID_VOLUME <= 105.41\nmse = 5.58047232000014e+30\nsamples = 2\nvalue = 5.96448e+16", fillcolor="#fae7d9"] ;
377 -> 378 ;
379 [label="mse = 0.0\nsamples = 1\nvalue = 6.29856e+16", fillcolor="#fae5d7"] ;
378 -> 379 ;
380 [label="mse = 0.0\nsamples = 1\nvalue = 5.79744e+16", fillcolor="#fae7da"] ;
378 -> 380 ;
381 [label="AVG_DIFFERENTIAL_PRESSURE <= 16.647\nmse = 1.878531260363259e+32\nsamples = 4\nvalue = 4.246277142857143e+16", fillcolor="#fbeee4"] ;
377 -> 381 ;
382 [label="gas_anchor_length <= 20.92\nmse = 7.897927679999977e+30\nsamples = 2\nvalue = 2.73888e+16", fillcolor="#fdf4ee"] ;
381 -> 382 ;
383 [label="mse = 0.0\nsamples = 1\nvalue = 2.34144e+16", fillcolor="#fdf6f0"] ;
382 -> 383 ;
384 [label="mse = -1.4411518807585587e+17\nsamples = 1\nvalue = 2.9376e+16", fillcolor="#fdf3ec"] ;
382 -> 384 ;
385 [label="packer_vs_tac <= 1.0\nmse = 2.458721810249961e+31\nsamples = 2\nvalue = 5.376825e+16", fillcolor="#fae9dd"] ;
381 -> 385 ;
386 [label="mse = 0.0\nsamples = 1\nvalue = 5.87268e+16", fillcolor="#fae7d9"] ;
385 -> 386 ;
387 [label="mse = -5.764607523034235e+17\nsamples = 1\nvalue = 4.88097e+16", fillcolor="#fbebe0"] ;
385 -> 387 ;
388 [label="AVG_PRESSURE_TUBING <= 59.744\nmse = 6.883456713230737e+31\nsamples = 7\nvalue = 2.03103e+16", fillcolor="#fdf7f2"] ;
284 -> 388 ;
389 [label="FAILURETYPE <= 0.5\nmse = 7.2479917192500005e+31\nsamples = 4\nvalue = 1.567575e+16", fillcolor="#fef9f5"] ;
388 -> 389 ;
390 [label="mse = 0.0\nsamples = 1\nvalue = 4112100000000000.0", fillcolor="#fffefd"] ;
389 -> 390 ;
391 [label="overall_max_sideload <= 114.107\nmse = 5.488358031359999e+31\nsamples = 3\nvalue = 1.798848e+16", fillcolor="#fef8f4"] ;
389 -> 391 ;
392 [label="packer_vs_tac <= 0.5\nmse = 1.484920512e+31\nsamples = 2\nvalue = 1.47096e+16", fillcolor="#fef9f6"] ;
391 -> 392 ;
393 [label="mse = 0.0\nsamples = 1\nvalue = 1.69344e+16", fillcolor="#fef8f4"] ;
392 -> 393 ;
394 [label="mse = 1.8014398509481984e+16\nsamples = 1\nvalue = 8035200000000000.0", fillcolor="#fefcfa"] ;
392 -> 394 ;
395 [label="mse = -1.4411518807585587e+17\nsamples = 1\nvalue = 3.1104e+16", fillcolor="#fcf2eb"] ;
391 -> 395 ;
396 [label="AVG_LIQUID_VOLUME <= 87.976\nmse = 3.151883465632638e+31\nsamples = 3\nvalue = 2.4282771428571428e+16", fillcolor="#fdf5f0"] ;
388 -> 396 ;
397 [label="mse = 0.0\nsamples = 1\nvalue = 3.8034e+16", fillcolor="#fcf0e7"] ;
396 -> 397 ;
398 [label="bha_configuration <= 3.5\nmse = 3.2512500000607624e+27\nsamples = 2\nvalue = 2.19909e+16", fillcolor="#fdf6f1"] ;
396 -> 398 ;
399 [label="mse = 0.0\nsamples = 1\nvalue = 2.19654e+16", fillcolor="#fdf6f1"] ;
398 -> 399 ;
400 [label="mse = 1.4411518807585587e+17\nsamples = 1\nvalue = 2.21184e+16", fillcolor="#fdf6f1"] ;
398 -> 400 ;
401 [label="max_unguided_dls <= 1.281\nmse = 3.939938613784537e+32\nsamples = 105\nvalue = 3.8850476085044584e+16", fillcolor="#fcefe6"] ;
283 -> 401 ;
402 [label="AVG_DIFFERENTIAL_PRESSURE <= -25.953\nmse = 2.2266078976574385e+32\nsamples = 17\nvalue = 2.5528637500000004e+16", fillcolor="#fdf5ef"] ;
401 -> 402 ;
403 [label="DESANDDEGAS_TYP <= 2.0\nmse = 5.188392523687499e+31\nsamples = 5\nvalue = 1.2961125e+16", fillcolor="#fefaf7"] ;
402 -> 403 ;
404 [label="mse = 0.0\nsamples = 1\nvalue = 2.45376e+16", fillcolor="#fdf5f0"] ;
403 -> 404 ;
405 [label="AVG_LIQUID_VOLUME <= 73.577\nmse = 9.616445459999969e+30\nsamples = 4\nvalue = 9102300000000000.0", fillcolor="#fefcfa"] ;
403 -> 405 ;
406 [label="mse = 0.0\nsamples = 1\nvalue = 4929300000000000.0", fillcolor="#fffdfc"] ;
405 -> 406 ;
407 [label="AVG_LIQUID_VOLUME <= 156.18\nmse = 1.364221439999994e+30\nsamples = 3\nvalue = 1.11888e+16", fillcolor="#fefbf8"] ;
405 -> 407 ;
408 [label="pump_bore <= 1.625\nmse = 1.1214028799999987e+30\nsamples = 2\nvalue = 1.07712e+16", fillcolor="#fefbf8"] ;
407 -> 408 ;
409 [label="mse = 0.0\nsamples = 1\nvalue = 1.22688e+16", fillcolor="#fefaf7"] ;
408 -> 409 ;
410 [label="mse = 0.0\nsamples = 1\nvalue = 1.00224e+16", fillcolor="#fefbf9"] ;
408 -> 410 ;
411 [label="mse = -3.602879701896397e+16\nsamples = 1\nvalue = 1.24416e+16", fillcolor="#fefaf7"] ;
407 -> 411 ;
412 [label="FAILURETYPE <= 0.5\nmse = 1.8959244420193614e+32\nsamples = 12\nvalue = 3.181239375e+16", fillcolor="#fcf2eb"] ;
402 -> 412 ;
413 [label="AVG_PRESS_FLOWLINE <= 58.448\nmse = 1.1931497640000003e+31\nsamples = 2\nvalue = 8987400000000000.0", fillcolor="#fefcfa"] ;
412 -> 413 ;
414 [label="mse = 0.0\nsamples = 1\nvalue = 5533200000000000.0", fillcolor="#fffdfc"] ;
413 -> 414 ;
415 [label="mse = 0.0\nsamples = 1\nvalue = 1.24416e+16", fillcolor="#fefaf7"] ;
413 -> 415 ;
416 [label="AVG_LIQUID_VOLUME <= 188.837\nmse = 1.2991456478220601e+32\nsamples = 10\nvalue = 3.5073107142857144e+16", fillcolor="#fcf1e9"] ;
412 -> 416 ;
417 [label="ROUTE <= 900.5\nmse = 1.0465155489171588e+32\nsamples = 7\nvalue = 3.9671382e+16", fillcolor="#fcefe6"] ;
416 -> 417 ;
418 [label="AVG_PRESSURE_TUBING <= 113.42\nmse = 3.825408176640005e+31\nsamples = 4\nvalue = 4.766904e+16", fillcolor="#fbece1"] ;
417 -> 418 ;
419 [label="packer_vs_tac <= 0.5\nmse = 3.9119875199998333e+30\nsamples = 3\nvalue = 4.27764e+16", fillcolor="#fbeee4"] ;
418 -> 419 ;
420 [label="mse = 0.0\nsamples = 1\nvalue = 4.54716e+16", fillcolor="#fbede2"] ;
419 -> 420 ;
421 [label="NIPPLE_SET_DEPTH <= 9813.2\nmse = 4.199039999996742e+29\nsamples = 2\nvalue = 4.14288e+16", fillcolor="#fceee5"] ;
419 -> 421 ;
422 [label="mse = 0.0\nsamples = 1\nvalue = 4.07808e+16", fillcolor="#fceee5"] ;
421 -> 422 ;
423 [label="mse = 0.0\nsamples = 1\nvalue = 4.20768e+16", fillcolor="#fbeee4"] ;
421 -> 423 ;
424 [label="mse = 0.0\nsamples = 1\nvalue = 5.5008e+16", fillcolor="#fae9dc"] ;
418 -> 424 ;
425 [label="gas_anchor_length <= 19.12\nmse = 4.31239610471039e+31\nsamples = 3\nvalue = 3.1673724e+16", fillcolor="#fcf2eb"] ;
417 -> 425 ;
426 [label="mse = 0.0\nsamples = 1\nvalue = 1.857342e+16", fillcolor="#fdf8f3"] ;
425 -> 426 ;
427 [label="AVG_LIQUID_VOLUME <= 88.033\nmse = 2.7433728000007344e+29\nsamples = 2\nvalue = 3.49488e+16", fillcolor="#fcf1e9"] ;
425 -> 427 ;
428 [label="mse = 0.0\nsamples = 1\nvalue = 3.5856e+16", fillcolor="#fcf0e8"] ;
427 -> 428 ;
429 [label="mse = 0.0\nsamples = 1\nvalue = 3.46464e+16", fillcolor="#fcf1e9"] ;
427 -> 429 ;
430 [label="Fillage <= 75.85\nmse = 8.060937467400543e+30\nsamples = 3\nvalue = 2.357742e+16", fillcolor="#fdf6f0"] ;
416 -> 430 ;
431 [label="mse = 0.0\nsamples = 1\nvalue = 1.88352e+16", fillcolor="#fdf8f3"] ;
430 -> 431 ;
432 [label="packer_vs_tac <= 1.0\nmse = 7.529608328001686e+29\nsamples = 2\nvalue = 2.515816e+16", fillcolor="#fdf5ef"] ;
430 -> 432 ;
433 [label="mse = 0.0\nsamples = 1\nvalue = 2.577174e+16", fillcolor="#fdf5ef"] ;
432 -> 433 ;
434 [label="mse = 7.205759403792794e+16\nsamples = 1\nvalue = 2.3931e+16", fillcolor="#fdf5f0"] ;
432 -> 434 ;
435 [label="AVG_PRESSURE_TUBING <= 71.936\nmse = 3.8710726475717225e+32\nsamples = 88\nvalue = 4.1254416882345864e+16", fillcolor="#fceee5"] ;
401 -> 435 ;
436 [label="AVG_LIQUID_VOLUME <= 106.575\nmse = 1.4550873129e+32\nsamples = 2\nvalue = 7.97427e+16", fillcolor="#f8decc"] ;
435 -> 436 ;
437 [label="mse = 0.0\nsamples = 1\nvalue = 6.768e+16", fillcolor="#f9e3d4"] ;
436 -> 437 ;
438 [label="mse = 1.152921504606847e+18\nsamples = 1\nvalue = 9.18054e+16", fillcolor="#f7d9c4"] ;
436 -> 438 ;
439 [label="FAILURETYPE <= 0.5\nmse = 3.472411353539909e+32\nsamples = 86\nvalue = 4.006098174691473e+16", fillcolor="#fcefe5"] ;
435 -> 439 ;
440 [label="AVG_LIQUID_VOLUME <= 98.452\nmse = 4.570993851097963e+32\nsamples = 6\nvalue = 6.667958571428571e+16", fillcolor="#f9e4d4"] ;
439 -> 440 ;
441 [label="max_unguided_dls <= 2.698\nmse = 3.6850263119999804e+31\nsamples = 3\nvalue = 8.001e+16", fillcolor="#f8decc"] ;
440 -> 441 ;
442 [label="AVG_PRESS_FLOWLINE <= 58.753\nmse = 1.3911120000005487e+30\nsamples = 2\nvalue = 8.34648e+16", fillcolor="#f8ddc9"] ;
441 -> 442 ;
443 [label="mse = 0.0\nsamples = 1\nvalue = 8.26308e+16", fillcolor="#f8ddca"] ;
442 -> 443 ;
444 [label="mse = 1.152921504606847e+18\nsamples = 1\nvalue = 8.51328e+16", fillcolor="#f8dcc8"] ;
442 -> 444 ;
445 [label="mse = -5.764607523034235e+17\nsamples = 1\nvalue = 6.96456e+16", fillcolor="#f9e3d2"] ;
441 -> 445 ;
446 [label="NIPPLE_SET_DEPTH <= 9921.8\nmse = 4.6458727433999955e+32\nsamples = 3\nvalue = 4.89057e+16", fillcolor="#fbebe0"] ;
440 -> 446 ;
447 [label="mse = 0.0\nsamples = 1\nvalue = 7.90812e+16", fillcolor="#f8dfcc"] ;
446 -> 447 ;
448 [label="Fillage <= 40.725\nmse = 1.3960311322500244e+31\nsamples = 2\nvalue = 3.381795e+16", fillcolor="#fcf1ea"] ;
446 -> 448 ;
449 [label="mse = 0.0\nsamples = 1\nvalue = 3.00816e+16", fillcolor="#fcf3ec"] ;
448 -> 449 ;
450 [label="mse = 0.0\nsamples = 1\nvalue = 3.75543e+16", fillcolor="#fcf0e7"] ;
448 -> 450 ;
451 [label="gas_anchor_length <= 20.885\nmse = 2.979506445600148e+32\nsamples = 80\nvalue = 3.853368479796721e+16", fillcolor="#fcefe6"] ;
439 -> 451 ;
452 [label="max_unguided_dls <= 1.305\nmse = 2.7376601981397462e+32\nsamples = 77\nvalue = 3.743282366682758e+16", fillcolor="#fcf0e7"] ;
451 -> 452 ;
453 [label="mse = 0.0\nsamples = 1\nvalue = 6.843282e+16", fillcolor="#f9e3d3"] ;
452 -> 453 ;
454 [label="ROUTE <= 904.5\nmse = 2.5484353252698274e+32\nsamples = 76\nvalue = 3.6609814914619464e+16", fillcolor="#fcf0e8"] ;
452 -> 454 ;
455 [label="ROUTE <= 872.5\nmse = 2.455782926113601e+32\nsamples = 74\nvalue = 3.7554413753259256e+16", fillcolor="#fcf0e7"] ;
454 -> 455 ;
456 [label="Fillage <= 73.688\nmse = 2.886398629353765e+32\nsamples = 14\nvalue = 4.5032667972416664e+16", fillcolor="#fbede2"] ;
455 -> 456 ;
457 [label="max_unguided_dls <= 4.886\nmse = 3.818727472888865e+31\nsamples = 5\nvalue = 6.0651866666666664e+16", fillcolor="#fae6d8"] ;
456 -> 457 ;
458 [label="AVG_PRESSURE_TUBING <= 96.143\nmse = 1.6083199147500334e+31\nsamples = 4\nvalue = 5.892375e+16", fillcolor="#fae7d9"] ;
457 -> 458 ;
459 [label="AVG_PRESS_FLOWLINE <= 44.305\nmse = 1.2262461696001399e+30\nsamples = 2\nvalue = 6.120288e+16", fillcolor="#fae6d8"] ;
458 -> 459 ;
460 [label="mse = 0.0\nsamples = 1\nvalue = 6.34176e+16", fillcolor="#fae5d6"] ;
459 -> 460 ;
461 [label="mse = 0.0\nsamples = 1\nvalue = 6.06492e+16", fillcolor="#fae6d8"] ;
459 -> 461 ;
462 [label="FAILURETYPE <= 1.5\nmse = 1.7758416080001139e+31\nsamples = 2\nvalue = 5.51252e+16", fillcolor="#fae9dc"] ;
458 -> 462 ;
463 [label="mse = 0.0\nsamples = 1\nvalue = 6.10848e+16", fillcolor="#fae6d8"] ;
462 -> 463 ;
464 [label="mse = 0.0\nsamples = 1\nvalue = 5.21454e+16", fillcolor="#fbeade"] ;
462 -> 464 ;
465 [label="mse = -4.611686018427388e+18\nsamples = 1\nvalue = 7.44768e+16", fillcolor="#f9e1cf"] ;
457 -> 465 ;
466 [label="AVG_LIQUID_VOLUME <= 96.107\nmse = 2.0471042272282642e+32\nsamples = 9\nvalue = 3.5661148755866668e+16", fillcolor="#fcf1e8"] ;
456 -> 466 ;
467 [label="bha_configuration <= 2.5\nmse = 2.2588790672276922e+32\nsamples = 3\nvalue = 5.06171662676e+16", fillcolor="#fbeadf"] ;
466 -> 467 ;
468 [label="AVG_LIQUID_VOLUME <= 69.862\nmse = 1.0452576604680106e+32\nsamples = 2\nvalue = 3.4000415669e+16", fillcolor="#fcf1e9"] ;
467 -> 468 ;
469 [label="mse = 0.0\nsamples = 1\nvalue = 2.3776631338e+16", fillcolor="#fdf5f0"] ;
468 -> 469 ;
470 [label="mse = 0.0\nsamples = 1\nvalue = 4.42242e+16", fillcolor="#fbede3"] ;
468 -> 470 ;
471 [label="mse = 0.0\nsamples = 1\nvalue = 6.1695e+16", fillcolor="#fae6d7"] ;
467 -> 471 ;
472 [label="AVG_PRESSURE_TUBING <= 77.336\nmse = 2.635983586439996e+31\nsamples = 6\nvalue = 2.818314e+16", fillcolor="#fdf4ed"] ;
466 -> 472 ;
473 [label="mse = 0.0\nsamples = 1\nvalue = 3.37896e+16", fillcolor="#fcf1ea"] ;
472 -> 473 ;
474 [label="gas_anchor_length <= 19.25\nmse = 2.312717178937509e+31\nsamples = 5\nvalue = 2.6781525e+16", fillcolor="#fdf4ee"] ;
472 -> 474 ;
475 [label="max_unguided_dls <= 1.88\nmse = 3.7517214600000106e+30\nsamples = 3\nvalue = 2.07771e+16", fillcolor="#fdf7f2"] ;
474 -> 475 ;
476 [label="AVG_PRESS_FLOWLINE <= 30.502\nmse = 1.980071122500073e+30\nsamples = 2\nvalue = 1.967445e+16", fillcolor="#fdf7f3"] ;
475 -> 476 ;
477 [label="mse = 0.0\nsamples = 1\nvalue = 2.10816e+16", fillcolor="#fdf7f2"] ;
476 -> 477 ;
478 [label="mse = 7.205759403792794e+16\nsamples = 1\nvalue = 1.82673e+16", fillcolor="#fef8f4"] ;
476 -> 478 ;
479 [label="mse = 0.0\nsamples = 1\nvalue = 2.29824e+16", fillcolor="#fdf6f1"] ;
475 -> 479 ;
480 [label="AVG_PRESSURE_TUBING <= 118.444\nmse = 1.414471896001081e+29\nsamples = 2\nvalue = 3.038418e+16", fillcolor="#fcf3ec"] ;
474 -> 480 ;
481 [label="mse = 0.0\nsamples = 1\nvalue = 3.00771e+16", fillcolor="#fcf3ec"] ;
480 -> 481 ;
482 [label="mse = 1.4411518807585587e+17\nsamples = 1\nvalue = 3.08448e+16", fillcolor="#fcf3eb"] ;
480 -> 482 ;
483 [label="AVG_PRESSURE_TUBING <= 121.553\nmse = 2.1273137147808543e+32\nsamples = 60\nvalue = 3.5417769690642852e+16", fillcolor="#fcf1e8"] ;
455 -> 483 ;
484 [label="AVG_PRESSURE_TUBING <= 106.609\nmse = 1.99745938837776e+32\nsamples = 52\nvalue = 3.4006080964027024e+16", fillcolor="#fcf1e9"] ;
483 -> 484 ;
485 [label="AVG_LIQUID_VOLUME <= 196.39\nmse = 1.9058607378747363e+32\nsamples = 46\nvalue = 3.5878292899060604e+16", fillcolor="#fcf0e8"] ;
484 -> 485 ;
486 [label="max_unguided_dls <= 1.562\nmse = 1.669547115007211e+32\nsamples = 39\nvalue = 3.7355497041017544e+16", fillcolor="#fcf0e7"] ;
485 -> 486 ;
487 [label="max_unguided_dls <= 1.447\nmse = 5.871848974728904e+31\nsamples = 7\nvalue = 2.6774013333333332e+16", fillcolor="#fdf4ee"] ;
486 -> 487 ;
488 [label="AVG_DIFFERENTIAL_PRESSURE <= 42.587\nmse = 2.605636448125714e+31\nsamples = 5\nvalue = 2.888178e+16", fillcolor="#fdf3ed"] ;
487 -> 488 ;
489 [label="overall_max_sideload <= 113.805\nmse = 1.9827381329999999e+31\nsamples = 4\nvalue = 3.01107e+16", fillcolor="#fcf3ec"] ;
488 -> 489 ;
490 [label="mse = 0.0\nsamples = 1\nvalue = 3.95406e+16", fillcolor="#fcefe6"] ;
489 -> 490 ;
491 [label="AVG_PRESS_FLOWLINE <= 60.562\nmse = 2.4513342335999802e+30\nsamples = 3\nvalue = 2.822472e+16", fillcolor="#fdf4ed"] ;
489 -> 491 ;
492 [label="pump_bore <= 1.625\nmse = 3.136319999999666e+29\nsamples = 2\nvalue = 2.69964e+16", fillcolor="#fdf4ee"] ;
491 -> 492 ;
493 [label="mse = 0.0\nsamples = 1\nvalue = 2.77884e+16", fillcolor="#fdf4ed"] ;
492 -> 493 ;
494 [label="mse = 0.0\nsamples = 1\nvalue = 2.66004e+16", fillcolor="#fdf4ee"] ;
492 -> 494 ;
495 [label="mse = -1.4411518807585587e+17\nsamples = 1\nvalue = 3.00672e+16", fillcolor="#fcf3ec"] ;
491 -> 495 ;
496 [label="mse = 0.0\nsamples = 1\nvalue = 2.150826e+16", fillcolor="#fdf6f1"] ;
488 -> 496 ;
497 [label="Fillage <= 50.085\nmse = 1.0306371312090015e+32\nsamples = 2\nvalue = 1.939683e+16", fillcolor="#fdf7f3"] ;
487 -> 497 ;
498 [label="mse = 0.0\nsamples = 1\nvalue = 2.954886e+16", fillcolor="#fdf3ec"] ;
497 -> 498 ;
499 [label="mse = 7.205759403792794e+16\nsamples = 1\nvalue = 9244800000000000.0", fillcolor="#fefbf9"] ;
497 -> 499 ;
500 [label="StrokeLength <= 144.02\nmse = 1.6231867317718028e+32\nsamples = 32\nvalue = 3.933952523620833e+16", fillcolor="#fcefe6"] ;
486 -> 500 ;
501 [label="ROUTE <= 885.5\nmse = 1.8502310774011582e+32\nsamples = 19\nvalue = 4.3489659701310344e+16", fillcolor="#fbede3"] ;
500 -> 501 ;
502 [label="AVG_DIFFERENTIAL_PRESSURE <= -29.103\nmse = 1.6180349461374453e+32\nsamples = 12\nvalue = 4.171156480726316e+16", fillcolor="#fceee4"] ;
501 -> 502 ;
503 [label="mse = 0.0\nsamples = 1\nvalue = 2.6271e+16", fillcolor="#fdf4ee"] ;
502 -> 503 ;
504 [label="AVG_LIQUID_VOLUME <= 150.538\nmse = 1.390579413798532e+32\nsamples = 11\nvalue = 4.4606670708625e+16", fillcolor="#fbede3"] ;
502 -> 504 ;
505 [label="overall_max_sideload <= 125.105\nmse = 1.2364466096641023e+32\nsamples = 10\nvalue = 4.250670938128571e+16", fillcolor="#fbeee4"] ;
504 -> 505 ;
506 [label="mse = 1.4887698462085256e+32\nsamples = 2\nvalue = 5.9289515669e+16", fillcolor="#fae7d9"] ;
505 -> 506 ;
507 [label="mse = 6.467154846187567e+31\nsamples = 8\nvalue = 3.970957500000001e+16", fillcolor="#fcefe6"] ;
505 -> 507 ;
508 [label="mse = -2.8823037615171174e+18\nsamples = 1\nvalue = 5.93064e+16", fillcolor="#fae7d9"] ;
504 -> 508 ;
509 [label="pump_bore <= 1.625\nmse = 2.1171983847839844e+32\nsamples = 7\nvalue = 4.686804e+16", fillcolor="#fbece1"] ;
501 -> 509 ;
510 [label="max_unguided_dls <= 2.361\nmse = 4.658883402239985e+31\nsamples = 3\nvalue = 3.496824e+16", fillcolor="#fcf1e9"] ;
509 -> 510 ;
511 [label="mse = 0.0\nsamples = 1\nvalue = 2.66112e+16", fillcolor="#fdf4ee"] ;
510 -> 511 ;
512 [label="gas_anchor_length <= 20.0\nmse = 4.792607999997548e+28\nsamples = 2\nvalue = 4.05396e+16", fillcolor="#fcefe5"] ;
510 -> 512 ;
513 [label="mse = 0.0\nsamples = 1\nvalue = 4.023e+16", fillcolor="#fcefe5"] ;
512 -> 513 ;
514 [label="mse = 0.0\nsamples = 1\nvalue = 4.06944e+16", fillcolor="#fceee5"] ;
512 -> 514 ;
515 [label="AVG_PRESSURE_TUBING <= 89.636\nmse = 9.364036285440043e+31\nsamples = 4\nvalue = 5.876784e+16", fillcolor="#fae7d9"] ;
509 -> 515 ;
516 [label="AVG_LIQUID_VOLUME <= 143.585\nmse = 5.017343148000014e+31\nsamples = 3\nvalue = 5.51106e+16", fillcolor="#fae9dc"] ;
515 -> 516 ;
517 [label="mse = 1.73426687999997e+30\nsamples = 2\nvalue = 5.10744e+16", fillcolor="#fbeade"] ;
516 -> 517 ;
518 [label="mse = 1.7293822569102705e+18\nsamples = 1\nvalue = 6.72192e+16", fillcolor="#f9e4d4"] ;
516 -> 518 ;
519 [label="mse = -2.305843009213694e+18\nsamples = 1\nvalue = 7.33968e+16", fillcolor="#f9e1d0"] ;
515 -> 519 ;
520 [label="SecondarySetpoint <= 67.5\nmse = 6.125103598784789e+31\nsamples = 13\nvalue = 3.3005109473684212e+16", fillcolor="#fcf2ea"] ;
500 -> 520 ;
521 [label="StrokeLength <= 144.04\nmse = 3.560570005338868e+31\nsamples = 12\nvalue = 3.4241576666666668e+16", fillcolor="#fcf1e9"] ;
520 -> 521 ;
522 [label="mse = 0.0\nsamples = 1\nvalue = 2.40156e+16", fillcolor="#fdf5f0"] ;
521 -> 522 ;
523 [label="AVG_PRESS_FLOWLINE <= 64.338\nmse = 2.535117210561084e+31\nsamples = 11\nvalue = 3.551982375e+16", fillcolor="#fcf1e8"] ;
521 -> 523 ;
524 [label="AVG_PRESSURE_TUBING <= 72.762\nmse = 1.7182239504799903e+31\nsamples = 9\nvalue = 3.755254e+16", fillcolor="#fcf0e7"] ;
523 -> 524 ;
525 [label="mse = 0.0\nsamples = 1\nvalue = 2.68362e+16", fillcolor="#fdf4ee"] ;
524 -> 525 ;
526 [label="mse = 7.355176022201701e+30\nsamples = 8\nvalue = 3.852675272727273e+16", fillcolor="#fcefe6"] ;
524 -> 526 ;
527 [label="chemgroup1_any <= 0.5\nmse = 2.74745671874952e+29\nsamples = 2\nvalue = 2.9421675e+16", fillcolor="#fdf3ec"] ;
523 -> 527 ;
528 [label="mse = 0.0\nsamples = 1\nvalue = 2.85138e+16", fillcolor="#fdf4ed"] ;
527 -> 528 ;
529 [label="mse = 1.4411518807585587e+17\nsamples = 1\nvalue = 2.97243e+16", fillcolor="#fdf3ec"] ;
527 -> 529 ;
530 [label="mse = -1.6753390613818245e+18\nsamples = 1\nvalue = 1.07487e+16", fillcolor="#fefbf8"] ;
520 -> 530 ;
531 [label="FAILURETYPE <= 1.5\nmse = 2.3890345624888913e+32\nsamples = 7\nvalue = 2.6522666666666668e+16", fillcolor="#fdf4ee"] ;
485 -> 531 ;
532 [label="packer_vs_tac <= 1.0\nmse = 1.4978061022499996e+31\nsamples = 2\nvalue = 8197050000000000.0", fillcolor="#fefcfa"] ;
531 -> 532 ;
533 [label="mse = 0.0\nsamples = 1\nvalue = 1.20672e+16", fillcolor="#fefaf8"] ;
532 -> 533 ;
534 [label="mse = -1.5762598695796736e+16\nsamples = 1\nvalue = 4326900000000000.0", fillcolor="#fffdfd"] ;
532 -> 534 ;
535 [label="max_unguided_dls <= 2.05\nmse = 1.7951666974530615e+32\nsamples = 5\nvalue = 3.1758557142857144e+16", fillcolor="#fcf2eb"] ;
531 -> 535 ;
536 [label="bha_configuration <= 2.5\nmse = 1.495066319999998e+30\nsamples = 2\nvalue = 1.90938e+16", fillcolor="#fdf7f3"] ;
535 -> 536 ;
537 [label="mse = 0.0\nsamples = 1\nvalue = 1.99584e+16", fillcolor="#fdf7f3"] ;
536 -> 537 ;
538 [label="mse = 3.602879701896397e+16\nsamples = 1\nvalue = 1.73646e+16", fillcolor="#fef8f4"] ;
536 -> 538 ;
539 [label="ROUTE <= 884.0\nmse = 1.0251302586187493e+32\nsamples = 3\nvalue = 4.125712499999999e+16", fillcolor="#fceee5"] ;
535 -> 539 ;
540 [label="mse = 0.0\nsamples = 1\nvalue = 2.42055e+16", fillcolor="#fdf5f0"] ;
539 -> 540 ;
541 [label="AVG_PRESS_FLOWLINE <= 70.623\nmse = 7.458294419999813e+30\nsamples = 2\nvalue = 4.6941e+16", fillcolor="#fbece1"] ;
539 -> 541 ;
542 [label="mse = 0.0\nsamples = 1\nvalue = 4.50099e+16", fillcolor="#fbede2"] ;
541 -> 542 ;
543 [label="mse = -2.8823037615171174e+17\nsamples = 1\nvalue = 5.08032e+16", fillcolor="#fbeadf"] ;
541 -> 543 ;
544 [label="AVG_PRESSURE_TUBING <= 113.534\nmse = 7.825965268896196e+30\nsamples = 6\nvalue = 1.8560332499999996e+16", fillcolor="#fdf8f3"] ;
484 -> 544 ;
545 [label="chemgroup1_any <= 0.5\nmse = 6.78695868899967e+29\nsamples = 2\nvalue = 2.285583e+16", fillcolor="#fdf6f1"] ;
544 -> 545 ;
546 [label="mse = 0.0\nsamples = 1\nvalue = 2.2032e+16", fillcolor="#fdf6f1"] ;
545 -> 546 ;
547 [label="mse = 0.0\nsamples = 1\nvalue = 2.367966e+16", fillcolor="#fdf6f0"] ;
545 -> 547 ;
548 [label="NIPPLE_SET_DEPTH <= 9686.55\nmse = 2.007811169999951e+30\nsamples = 4\nvalue = 1.71285e+16", fillcolor="#fef8f4"] ;
544 -> 548 ;
549 [label="chemgroup1_any <= 0.5\nmse = 7.310249999999954e+29\nsamples = 2\nvalue = 1.64574e+16", fillcolor="#fef8f5"] ;
548 -> 549 ;
550 [label="mse = 0.0\nsamples = 1\nvalue = 1.56024e+16", fillcolor="#fef9f5"] ;
549 -> 550 ;
551 [label="mse = 0.0\nsamples = 1\nvalue = 1.73124e+16", fillcolor="#fef8f4"] ;
549 -> 551 ;
552 [label="gas_anchor_length <= 20.72\nmse = 1.8591322500000246e+30\nsamples = 2\nvalue = 1.84707e+16", fillcolor="#fdf8f3"] ;
548 -> 552 ;
553 [label="mse = 0.0\nsamples = 1\nvalue = 1.98342e+16", fillcolor="#fdf7f3"] ;
552 -> 553 ;
554 [label="mse = 3.602879701896397e+16\nsamples = 1\nvalue = 1.71072e+16", fillcolor="#fef8f4"] ;
552 -> 554 ;
555 [label="AVG_PRESSURE_TUBING <= 153.41\nmse = 1.8494708083367517e+32\nsamples = 8\nvalue = 4.58642662676e+16", fillcolor="#fbece2"] ;
483 -> 555 ;
556 [label="AVG_LIQUID_VOLUME <= 157.486\nmse = 9.011224416692765e+31\nsamples = 7\nvalue = 4.926109585288889e+16", fillcolor="#fbebe0"] ;
555 -> 556 ;
557 [label="StrokeLength <= 144.1\nmse = 2.069371437773691e+31\nsamples = 3\nvalue = 5.6663315669e+16", fillcolor="#fae8db"] ;
556 -> 557 ;
558 [label="mse = 0.0\nsamples = 1\nvalue = 4.99392e+16", fillcolor="#fbebdf"] ;
557 -> 558 ;
559 [label="FAILURETYPE <= 1.5\nmse = 7.496627379164994e+30\nsamples = 2\nvalue = 5.8904687558666664e+16", fillcolor="#fae7d9"] ;
557 -> 559 ;
560 [label="mse = 0.0\nsamples = 1\nvalue = 6.27768e+16", fillcolor="#fae5d7"] ;
559 -> 560 ;
561 [label="mse = -5.764607523034235e+17\nsamples = 1\nvalue = 5.6968631338e+16", fillcolor="#fae8db"] ;
559 -> 561 ;
562 [label="SecondarySetpoint <= 62.5\nmse = 6.674535218159924e+31\nsamples = 4\nvalue = 4.333932e+16", fillcolor="#fbede3"] ;
556 -> 562 ;
563 [label="NIPPLE_SET_DEPTH <= 10152.8\nmse = 6.20601122250013e+30\nsamples = 3\nvalue = 4.726935e+16", fillcolor="#fbece1"] ;
562 -> 563 ;
564 [label="max_unguided_dls <= 2.16\nmse = 2.4935921999984703e+29\nsamples = 2\nvalue = 4.86858e+16", fillcolor="#fbebe0"] ;
563 -> 564 ;
565 [label="mse = 0.0\nsamples = 1\nvalue = 4.9392e+16", fillcolor="#fbebdf"] ;
564 -> 565 ;
566 [label="mse = 0.0\nsamples = 1\nvalue = 4.83327e+16", fillcolor="#fbebe0"] ;
564 -> 566 ;
567 [label="mse = 5.764607523034235e+17\nsamples = 1\nvalue = 4.302e+16", fillcolor="#fbeee4"] ;
563 -> 567 ;
568 [label="mse = -1.152921504606847e+18\nsamples = 1\nvalue = 2.76192e+16", fillcolor="#fdf4ee"] ;
562 -> 568 ;
569 [label="mse = -3.242591731706757e+17\nsamples = 1\nvalue = 1.52928e+16", fillcolor="#fef9f6"] ;
555 -> 569 ;
570 [label="overall_max_sideload <= 276.375\nmse = 1.9403672601603178e+31\nsamples = 2\nvalue = 1.620648e+16", fillcolor="#fef9f5"] ;
454 -> 570 ;
571 [label="mse = 0.0\nsamples = 1\nvalue = 2.50164e+16", fillcolor="#fdf5ef"] ;
570 -> 571 ;
572 [label="mse = -3.602879701896397e+16\nsamples = 1\nvalue = 1.4004e+16", fillcolor="#fefaf6"] ;
570 -> 572 ;
573 [label="AVG_LIQUID_VOLUME <= 89.479\nmse = 2.891105758800063e+32\nsamples = 3\nvalue = 5.9817e+16", fillcolor="#fae7d9"] ;
451 -> 573 ;
574 [label="AVG_PRESS_FLOWLINE <= 27.768\nmse = 4.085970946559938e+31\nsamples = 2\nvalue = 6.695928e+16", fillcolor="#f9e4d4"] ;
573 -> 574 ;
575 [label="mse = 0.0\nsamples = 1\nvalue = 6.37632e+16", fillcolor="#fae5d6"] ;
574 -> 575 ;
576 [label="mse = -1.152921504606847e+18\nsamples = 1\nvalue = 7.97436e+16", fillcolor="#f8decc"] ;
574 -> 576 ;
577 [label="mse = 1.5852670688344146e+18\nsamples = 1\nvalue = 2.41056e+16", fillcolor="#fdf5f0"] ;
573 -> 577 ;
578 [label="mse = -1.5795024613113804e+20\nsamples = 1\nvalue = 1.017792e+17", fillcolor="#f6d5bd"] ;
238 -> 578 ;
579 [label="FAILURETYPE <= 0.5\nmse = 3.654762841561792e+32\nsamples = 179\nvalue = 2.8463482372510344e+16", fillcolor="#fdf4ed"] ;
237 -> 579 ;
580 [label="StrokeLength <= 169.415\nmse = 7.013027630361705e+32\nsamples = 25\nvalue = 3.3379396076457144e+16", fillcolor="#fcf2ea"] ;
579 -> 580 ;
581 [label="max_unguided_dls <= 0.683\nmse = 3.905435651180117e+32\nsamples = 23\nvalue = 2.8470223833625e+16", fillcolor="#fdf4ed"] ;
580 -> 581 ;
582 [label="mse = 0.0\nsamples = 1\nvalue = 8.7035831338e+16", fillcolor="#f8dbc7"] ;
581 -> 582 ;
583 [label="AVG_PRESSURE_TUBING <= 121.436\nmse = 2.8892970276967683e+32\nsamples = 22\nvalue = 2.658101068832258e+16", fillcolor="#fdf4ee"] ;
581 -> 583 ;
584 [label="StrokeLength <= 168.12\nmse = 2.4989413203600174e+32\nsamples = 19\nvalue = 2.3638282642148148e+16", fillcolor="#fdf6f0"] ;
583 -> 584 ;
585 [label="NIPPLE_SET_DEPTH <= 9860.75\nmse = 2.1908472414102253e+32\nsamples = 15\nvalue = 2.91343715669e+16", fillcolor="#fdf3ed"] ;
584 -> 585 ;
586 [label="AVG_PRESS_FLOWLINE <= 62.559\nmse = 3.1306196942892157e+31\nsamples = 3\nvalue = 1.4327366267599998e+16", fillcolor="#fef9f6"] ;
585 -> 586 ;
587 [label="AVG_LIQUID_VOLUME <= 124.957\nmse = 6.41634230249999e+30\nsamples = 2\nvalue = 1.688535e+16", fillcolor="#fef8f4"] ;
586 -> 587 ;
588 [label="mse = 0.0\nsamples = 1\nvalue = 1.94184e+16", fillcolor="#fdf7f3"] ;
587 -> 588 ;
589 [label="mse = 0.0\nsamples = 1\nvalue = 1.43523e+16", fillcolor="#fef9f6"] ;
587 -> 589 ;
590 [label="mse = 5.62949953421312e+16\nsamples = 1\nvalue = 4095431338000000.0", fillcolor="#fffefd"] ;
586 -> 590 ;
591 [label="max_unguided_dls <= 1.915\nmse = 1.842342750144e+32\nsamples = 12\nvalue = 3.407004e+16", fillcolor="#fcf1e9"] ;
585 -> 591 ;
592 [label="ROUTE <= 904.5\nmse = 1.523778550874999e+32\nsamples = 6\nvalue = 4.287015e+16", fillcolor="#fbeee4"] ;
591 -> 592 ;
593 [label="StrokeLength <= 144.02\nmse = 2.2693031279999993e+31\nsamples = 5\nvalue = 4.72212e+16", fillcolor="#fbece1"] ;
592 -> 593 ;
594 [label="max_unguided_dls <= 1.672\nmse = 1.0535076719999862e+31\nsamples = 3\nvalue = 4.23084e+16", fillcolor="#fbeee4"] ;
593 -> 594 ;
595 [label="mse = 0.0\nsamples = 1\nvalue = 3.80898e+16", fillcolor="#fcf0e7"] ;
594 -> 595 ;
596 [label="SecondarySetpoint <= 65.0\nmse = 2.4551756100001858e+30\nsamples = 2\nvalue = 4.44177e+16", fillcolor="#fbede3"] ;
594 -> 596 ;
597 [label="mse = 0.0\nsamples = 1\nvalue = 4.28508e+16", fillcolor="#fbeee4"] ;
596 -> 597 ;
598 [label="mse = -2.8823037615171174e+17\nsamples = 1\nvalue = 4.59846e+16", fillcolor="#fbece2"] ;
596 -> 598 ;
599 [label="NIPPLE_SET_DEPTH <= 9921.8\nmse = 1.3351716000014325e+29\nsamples = 2\nvalue = 5.09058e+16", fillcolor="#fbeade"] ;
593 -> 599 ;
600 [label="mse = 0.0\nsamples = 1\nvalue = 5.05404e+16", fillcolor="#fbeadf"] ;
599 -> 600 ;
601 [label="mse = 5.764607523034235e+17\nsamples = 1\nvalue = 5.12712e+16", fillcolor="#fbeade"] ;
599 -> 601 ;
602 [label="mse = -1.2970366926827028e+18\nsamples = 1\nvalue = 1.24128e+16", fillcolor="#fefaf7"] ;
592 -> 602 ;
603 [label="packer_vs_tac <= 3.0\nmse = 3.098789122775544e+31\nsamples = 6\nvalue = 2.4012771428571428e+16", fillcolor="#fdf5f0"] ;
591 -> 603 ;
604 [label="AVG_PRESSURE_TUBING <= 63.506\nmse = 1.6009825409999994e+31\nsamples = 5\nvalue = 2.57091e+16", fillcolor="#fdf5ef"] ;
603 -> 604 ;
605 [label="AVG_DIFFERENTIAL_PRESSURE <= -26.929\nmse = 7.299723240000011e+30\nsamples = 2\nvalue = 2.08458e+16", fillcolor="#fdf7f2"] ;
604 -> 605 ;
606 [label="mse = 0.0\nsamples = 1\nvalue = 2.35476e+16", fillcolor="#fdf6f0"] ;
605 -> 606 ;
607 [label="mse = -7.205759403792794e+16\nsamples = 1\nvalue = 1.8144e+16", fillcolor="#fef8f4"] ;
605 -> 607 ;
608 [label="StrokeLength <= 156.0\nmse = 2.6261113274999324e+30\nsamples = 3\nvalue = 2.814075e+16", fillcolor="#fdf4ed"] ;
604 -> 608 ;
609 [label="bha_configuration <= 3.5\nmse = 2.7766151999991137e+29\nsamples = 2\nvalue = 2.7243e+16", fillcolor="#fdf4ee"] ;
608 -> 609 ;
610 [label="mse = 0.0\nsamples = 1\nvalue = 2.68704e+16", fillcolor="#fdf4ee"] ;
609 -> 610 ;
611 [label="mse = 0.0\nsamples = 1\nvalue = 2.79882e+16", fillcolor="#fdf4ed"] ;
609 -> 611 ;
612 [label="mse = -1.4411518807585587e+17\nsamples = 1\nvalue = 3.0834e+16", fillcolor="#fcf3eb"] ;
608 -> 612 ;
613 [label="mse = 1.8014398509481984e+17\nsamples = 1\nvalue = 1.38348e+16", fillcolor="#fefaf6"] ;
603 -> 613 ;
614 [label="overall_max_sideload <= 297.818\nmse = 5.027614324897728e+30\nsamples = 4\nvalue = 7935171428571429.0", fillcolor="#fefcfa"] ;
584 -> 614 ;
615 [label="AVG_DIFFERENTIAL_PRESSURE <= 146.786\nmse = 1.331711999999895e+28\nsamples = 2\nvalue = 5425800000000000.0", fillcolor="#fffdfc"] ;
614 -> 615 ;
616 [label="mse = 0.0\nsamples = 1\nvalue = 5589000000000000.0", fillcolor="#fffdfc"] ;
615 -> 616 ;
617 [label="mse = 0.0\nsamples = 1\nvalue = 5344200000000000.0", fillcolor="#fffdfc"] ;
615 -> 617 ;
618 [label="SecondarySetpoint <= 62.5\nmse = 5.235969599999846e+29\nsamples = 2\nvalue = 9817200000000000.0", fillcolor="#fefbf9"] ;
614 -> 618 ;
619 [label="mse = 0.0\nsamples = 1\nvalue = 1.05408e+16", fillcolor="#fefbf9"] ;
618 -> 619 ;
620 [label="mse = -1.8014398509481984e+16\nsamples = 1\nvalue = 9093600000000000.0", fillcolor="#fefcfa"] ;
618 -> 620 ;
621 [label="NIPPLE_SET_DEPTH <= 9889.1\nmse = 9.941195071687734e+31\nsamples = 3\nvalue = 4.644442499999999e+16", fillcolor="#fbece1"] ;
583 -> 621 ;
622 [label="mse = 0.0\nsamples = 1\nvalue = 2.97414e+16", fillcolor="#fdf3ec"] ;
621 -> 622 ;
623 [label="pump_bore <= 1.875\nmse = 8.553247999999612e+30\nsamples = 2\nvalue = 5.20121e+16", fillcolor="#fbeade"] ;
621 -> 623 ;
624 [label="mse = 0.0\nsamples = 1\nvalue = 5.40801e+16", fillcolor="#fae9dc"] ;
623 -> 624 ;
625 [label="mse = -2.8823037615171174e+17\nsamples = 1\nvalue = 4.78761e+16", fillcolor="#fbece0"] ;
623 -> 625 ;
626 [label="pump_bore <= 1.875\nmse = 1.0169599005e+33\nsamples = 2\nvalue = 8.57439e+16", fillcolor="#f8dcc8"] ;
580 -> 626 ;
627 [label="mse = 0.0\nsamples = 1\nvalue = 1.082934e+17", fillcolor="#f6d3b9"] ;
626 -> 627 ;
628 [label="mse = 5.764607523034235e+17\nsamples = 1\nvalue = 4.06449e+16", fillcolor="#fcefe5"] ;
626 -> 628 ;
629 [label="AVG_PRESS_FLOWLINE <= 57.944\nmse = 3.1561025831101217e+32\nsamples = 154\nvalue = 2.778874911902745e+16", fillcolor="#fdf4ed"] ;
579 -> 629 ;
630 [label="gas_anchor_length <= 17.245\nmse = 2.079725156399721e+32\nsamples = 91\nvalue = 2.4028188071651004e+16", fillcolor="#fdf5f0"] ;
629 -> 630 ;
631 [label="max_unguided_dls <= 0.886\nmse = 3.1670433956029473e+32\nsamples = 39\nvalue = 2.80253900418125e+16", fillcolor="#fdf4ed"] ;
630 -> 631 ;
632 [label="mse = 0.0\nsamples = 1\nvalue = 8.41269e+16", fillcolor="#f8ddc9"] ;
631 -> 632 ;
633 [label="bha_configuration <= 3.5\nmse = 1.6987822979908008e+32\nsamples = 38\nvalue = 2.5266299388131148e+16", fillcolor="#fdf5ef"] ;
631 -> 633 ;
634 [label="AVG_PRESS_FLOWLINE <= 55.487\nmse = 1.952579642124624e+32\nsamples = 23\nvalue = 2.892347750451282e+16", fillcolor="#fdf3ed"] ;
633 -> 634 ;
635 [label="overall_max_sideload <= 168.655\nmse = 1.6871437772861167e+32\nsamples = 20\nvalue = 3.1132378933600004e+16", fillcolor="#fcf2eb"] ;
634 -> 635 ;
636 [label="gas_anchor_length <= 17.21\nmse = 8.736787542414379e+31\nsamples = 11\nvalue = 2.1602431764705884e+16", fillcolor="#fdf6f1"] ;
635 -> 636 ;
637 [label="AVG_LIQUID_VOLUME <= 157.681\nmse = 5.851736868037509e+31\nsamples = 10\nvalue = 2.0181765e+16", fillcolor="#fdf7f2"] ;
636 -> 637 ;
638 [label="AVG_PRESS_FLOWLINE <= 44.592\nmse = 1.9582014507592862e+31\nsamples = 8\nvalue = 1.7063926153846154e+16", fillcolor="#fef8f4"] ;
637 -> 638 ;
639 [label="Fillage <= 96.64\nmse = 1.0220734890000012e+31\nsamples = 3\nvalue = 1.99029e+16", fillcolor="#fdf7f3"] ;
638 -> 639 ;
640 [label="AVG_PRESS_FLOWLINE <= 39.101\nmse = 5.135970239994964e+28\nsamples = 2\nvalue = 2.132964e+16", fillcolor="#fdf6f2"] ;
639 -> 640 ;
641 [label="mse = 0.0\nsamples = 1\nvalue = 2.16072e+16", fillcolor="#fdf6f1"] ;
640 -> 641 ;
642 [label="mse = -7.205759403792794e+16\nsamples = 1\nvalue = 2.11446e+16", fillcolor="#fdf7f2"] ;
640 -> 642 ;
643 [label="mse = -7.205759403792794e+16\nsamples = 1\nvalue = 1.27692e+16", fillcolor="#fefaf7"] ;
639 -> 643 ;
644 [label="AVG_DIFFERENTIAL_PRESSURE <= -19.766\nmse = 1.4776126528114236e+31\nsamples = 5\nvalue = 1.463052e+16", fillcolor="#fef9f6"] ;
638 -> 644 ;
645 [label="overall_max_sideload <= 158.445\nmse = 2.593250910675018e+30\nsamples = 3\nvalue = 1.7779935e+16", fillcolor="#fef8f4"] ;
644 -> 645 ;
646 [label="AVG_DIFFERENTIAL_PRESSURE <= -120.72\nmse = 1.8273060089995465e+29\nsamples = 2\nvalue = 1.936167e+16", fillcolor="#fdf7f3"] ;
645 -> 646 ;
647 [label="mse = 0.0\nsamples = 1\nvalue = 1.89342e+16", fillcolor="#fdf7f3"] ;
646 -> 647 ;
648 [label="mse = -7.205759403792794e+16\nsamples = 1\nvalue = 1.978914e+16", fillcolor="#fdf7f3"] ;
646 -> 648 ;
649 [label="mse = 7.205759403792794e+16\nsamples = 1\nvalue = 1.61982e+16", fillcolor="#fef9f5"] ;
645 -> 649 ;
650 [label="AVG_PRESSURE_TUBING <= 67.067\nmse = 1.6142561999998995e+29\nsamples = 2\nvalue = 1.04313e+16", fillcolor="#fefbf9"] ;
644 -> 650 ;
651 [label="mse = 0.0\nsamples = 1\nvalue = 9863100000000000.0", fillcolor="#fefbf9"] ;
650 -> 651 ;
652 [label="mse = -1.8014398509481984e+16\nsamples = 1\nvalue = 1.07154e+16", fillcolor="#fefbf8"] ;
650 -> 652 ;
653 [label="AVG_PRESSURE_TUBING <= 82.057\nmse = 2.5759960200003916e+30\nsamples = 2\nvalue = 3.36924e+16", fillcolor="#fcf1ea"] ;
637 -> 653 ;
654 [label="mse = 0.0\nsamples = 1\nvalue = 3.14226e+16", fillcolor="#fcf2eb"] ;
653 -> 654 ;
655 [label="mse = 0.0\nsamples = 1\nvalue = 3.48273e+16", fillcolor="#fcf1e9"] ;
653 -> 655 ;
656 [label="mse = -2.305843009213694e+18\nsamples = 1\nvalue = 4.43331e+16", fillcolor="#fbede3"] ;
636 -> 656 ;
657 [label="AVG_PRESS_FLOWLINE <= 24.598\nmse = 7.8758184349688325e+31\nsamples = 9\nvalue = 4.013288459311111e+16", fillcolor="#fcefe5"] ;
635 -> 657 ;
658 [label="AVG_PRESS_FLOWLINE <= 15.841\nmse = 1.4133238736400078e+31\nsamples = 2\nvalue = 2.567352e+16", fillcolor="#fdf5ef"] ;
657 -> 658 ;
659 [label="mse = 0.0\nsamples = 1\nvalue = 2.943294e+16", fillcolor="#fdf3ec"] ;
658 -> 659 ;
660 [label="mse = 0.0\nsamples = 1\nvalue = 2.19141e+16", fillcolor="#fdf6f1"] ;
658 -> 660 ;
661 [label="bha_configuration <= 0.5\nmse = 2.0420045548234455e+31\nsamples = 7\nvalue = 4.426413161971429e+16", fillcolor="#fbede3"] ;
657 -> 661 ;
662 [label="mse = 0.0\nsamples = 1\nvalue = 5.3606231338e+16", fillcolor="#fae9dd"] ;
661 -> 662 ;
663 [label="AVG_PRESS_FLOWLINE <= 45.056\nmse = 6.85328119447491e+30\nsamples = 6\nvalue = 4.270711500000001e+16", fillcolor="#fbeee4"] ;
661 -> 663 ;
664 [label="overall_max_sideload <= 225.953\nmse = 4.0142997359990206e+29\nsamples = 2\nvalue = 4.441428e+16", fillcolor="#fbede3"] ;
663 -> 664 ;
665 [label="mse = 0.0\nsamples = 1\nvalue = 4.36383e+16", fillcolor="#fbede3"] ;
664 -> 665 ;
666 [label="mse = -2.8823037615171174e+17\nsamples = 1\nvalue = 4.49316e+16", fillcolor="#fbede2"] ;
664 -> 666 ;
667 [label="overall_max_sideload <= 185.61\nmse = 7.893078184212031e+30\nsamples = 4\nvalue = 4.148771142857143e+16", fillcolor="#fceee5"] ;
663 -> 667 ;
668 [label="mse = 0.0\nsamples = 1\nvalue = 3.588318e+16", fillcolor="#fcf0e8"] ;
667 -> 668 ;
669 [label="NIPPLE_SET_DEPTH <= 9667.3\nmse = 3.1009410000002904e+30\nsamples = 3\nvalue = 4.24218e+16", fillcolor="#fbeee4"] ;
667 -> 669 ;
670 [label="max_unguided_dls <= 2.847\nmse = 5.299562700002287e+29\nsamples = 2\nvalue = 4.12497e+16", fillcolor="#fceee5"] ;
669 -> 670 ;
671 [label="mse = 0.0\nsamples = 1\nvalue = 4.167e+16", fillcolor="#fceee4"] ;
670 -> 671 ;
672 [label="mse = 5.764607523034235e+17\nsamples = 1\nvalue = 3.99888e+16", fillcolor="#fcefe6"] ;
670 -> 672 ;
673 [label="mse = 2.8823037615171174e+17\nsamples = 1\nvalue = 4.4766e+16", fillcolor="#fbede2"] ;
669 -> 673 ;
674 [label="StrokeLength <= 144.02\nmse = 1.1253712229100383e+31\nsamples = 3\nvalue = 9595590000000000.0", fillcolor="#fefbf9"] ;
634 -> 674 ;
675 [label="pump_bore <= 1.625\nmse = 1.1464004211200004e+31\nsamples = 2\nvalue = 8654720000000000.0", fillcolor="#fefcfa"] ;
674 -> 675 ;
676 [label="mse = 0.0\nsamples = 1\nvalue = 3866400000000000.0", fillcolor="#fffefd"] ;
675 -> 676 ;
677 [label="mse = 0.0\nsamples = 1\nvalue = 1.104888e+16", fillcolor="#fefbf8"] ;
675 -> 677 ;
678 [label="mse = -3.602879701896397e+16\nsamples = 1\nvalue = 1.24182e+16", fillcolor="#fefaf7"] ;
674 -> 678 ;
679 [label="StrokeLength <= 167.07\nmse = 5.914512566836322e+31\nsamples = 15\nvalue = 1.878312e+16", fillcolor="#fdf8f3"] ;
633 -> 679 ;
680 [label="AVG_PRESSURE_TUBING <= 90.136\nmse = 5.453751447249784e+31\nsamples = 11\nvalue = 2.1257288571428572e+16", fillcolor="#fdf7f2"] ;
679 -> 680 ;
681 [label="AVG_DIFFERENTIAL_PRESSURE <= 6.109\nmse = 2.542389436879991e+31\nsamples = 8\nvalue = 2.57283e+16", fillcolor="#fdf5ef"] ;
680 -> 681 ;
682 [label="gas_anchor_length <= 17.115\nmse = 2.567573755280003e+31\nsamples = 3\nvalue = 2.115178e+16", fillcolor="#fdf7f2"] ;
681 -> 682 ;
683 [label="mse = 0.0\nsamples = 1\nvalue = 2.77128e+16", fillcolor="#fdf4ed"] ;
682 -> 683 ;
684 [label="AVG_DIFFERENTIAL_PRESSURE <= -39.607\nmse = 6.228368748900036e+30\nsamples = 2\nvalue = 1.787127e+16", fillcolor="#fef8f4"] ;
682 -> 684 ;
685 [label="mse = 0.0\nsamples = 1\nvalue = 2.036694e+16", fillcolor="#fdf7f2"] ;
684 -> 685 ;
686 [label="mse = -7.205759403792794e+16\nsamples = 1\nvalue = 1.53756e+16", fillcolor="#fef9f5"] ;
684 -> 686 ;
687 [label="pump_bore <= 1.625\nmse = 9.589571294000093e+30\nsamples = 5\nvalue = 2.801656e+16", fillcolor="#fdf4ed"] ;
681 -> 687 ;
688 [label="ROUTE <= 890.0\nmse = 6.8186306249989e+29\nsamples = 2\nvalue = 3.183075e+16", fillcolor="#fcf2eb"] ;
687 -> 688 ;
689 [label="mse = 0.0\nsamples = 1\nvalue = 3.26565e+16", fillcolor="#fcf2ea"] ;
688 -> 689 ;
690 [label="mse = -1.4411518807585587e+17\nsamples = 1\nvalue = 3.1005e+16", fillcolor="#fcf2eb"] ;
688 -> 690 ;
691 [label="Fillage <= 89.702\nmse = 3.1323913926749956e+30\nsamples = 3\nvalue = 2.6109465e+16", fillcolor="#fdf5ef"] ;
687 -> 691 ;
692 [label="mse = 0.0\nsamples = 1\nvalue = 2.338566e+16", fillcolor="#fdf6f0"] ;
691 -> 692 ;
693 [label="StrokeLength <= 144.02\nmse = 8.791379999998281e+29\nsamples = 2\nvalue = 2.70174e+16", fillcolor="#fdf4ee"] ;
691 -> 693 ;
694 [label="mse = 0.0\nsamples = 1\nvalue = 2.56914e+16", fillcolor="#fdf5ef"] ;
693 -> 694 ;
695 [label="mse = -1.4411518807585587e+17\nsamples = 1\nvalue = 2.76804e+16", fillcolor="#fdf4ed"] ;
693 -> 695 ;
696 [label="overall_max_sideload <= 305.358\nmse = 6.192716959295759e+30\nsamples = 3\nvalue = 1.3209468e+16", fillcolor="#fefaf7"] ;
680 -> 696 ;
697 [label="max_unguided_dls <= 2.769\nmse = 4.7162808899999953e+30\nsamples = 2\nvalue = 1.24317e+16", fillcolor="#fefaf7"] ;
696 -> 697 ;
698 [label="mse = 0.0\nsamples = 1\nvalue = 1.46034e+16", fillcolor="#fef9f6"] ;
697 -> 698 ;
699 [label="mse = 0.0\nsamples = 1\nvalue = 1.026e+16", fillcolor="#fefbf9"] ;
697 -> 699 ;
700 [label="mse = -3.602879701896397e+16\nsamples = 1\nvalue = 1.632054e+16", fillcolor="#fef9f5"] ;
696 -> 700 ;
701 [label="AVG_LIQUID_VOLUME <= 151.377\nmse = 3.7748677809375215e+31\nsamples = 4\nvalue = 1.4453325e+16", fillcolor="#fef9f6"] ;
679 -> 701 ;
702 [label="Fillage <= 98.5\nmse = 1.4871331889999995e+31\nsamples = 3\nvalue = 1.14759e+16", fillcolor="#fefbf8"] ;
701 -> 702 ;
703 [label="AVG_PRESS_FLOWLINE <= 41.835\nmse = 4.456609113600009e+30\nsamples = 2\nvalue = 1.296972e+16", fillcolor="#fefaf7"] ;
702 -> 703 ;
704 [label="mse = 0.0\nsamples = 1\nvalue = 1.03842e+16", fillcolor="#fefbf9"] ;
703 -> 704 ;
705 [label="mse = 0.0\nsamples = 1\nvalue = 1.46934e+16", fillcolor="#fef9f6"] ;
703 -> 705 ;
706 [label="mse = -4.728779608739021e+16\nsamples = 1\nvalue = 4006800000000000.0", fillcolor="#fffefd"] ;
702 -> 706 ;
707 [label="mse = -7.205759403792794e+16\nsamples = 1\nvalue = 2.33856e+16", fillcolor="#fdf6f0"] ;
701 -> 707 ;
708 [label="overall_max_sideload <= 78.06\nmse = 1.050155965142554e+32\nsamples = 52\nvalue = 2.101853011764706e+16", fillcolor="#fdf7f2"] ;
630 -> 708 ;
709 [label="AVG_LIQUID_VOLUME <= 159.48\nmse = 5.2182268898823515e+31\nsamples = 10\nvalue = 1.51506e+16", fillcolor="#fef9f6"] ;
708 -> 709 ;
710 [label="NIPPLE_SET_DEPTH <= 10349.3\nmse = 2.499812535621302e+31\nsamples = 7\nvalue = 1.2833861538461538e+16", fillcolor="#fefaf7"] ;
709 -> 710 ;
711 [label="overall_max_sideload <= 58.845\nmse = 3.0956255999999955e+30\nsamples = 5\nvalue = 9374400000000000.0", fillcolor="#fefbf9"] ;
710 -> 711 ;
712 [label="NIPPLE_SET_DEPTH <= 10083.55\nmse = 1.4436403199999917e+30\nsamples = 2\nvalue = 1.11744e+16", fillcolor="#fefbf8"] ;
711 -> 712 ;
713 [label="mse = 0.0\nsamples = 1\nvalue = 1.28736e+16", fillcolor="#fefaf7"] ;
712 -> 713 ;
714 [label="mse = 0.0\nsamples = 1\nvalue = 1.03248e+16", fillcolor="#fefbf9"] ;
712 -> 714 ;
715 [label="NIPPLE_SET_DEPTH <= 10114.05\nmse = 9.764167680000091e+29\nsamples = 3\nvalue = 8294400000000000.0", fillcolor="#fefcfa"] ;
711 -> 715 ;
716 [label="Fillage <= 94.713\nmse = 9.555148799999969e+29\nsamples = 2\nvalue = 8812800000000000.0", fillcolor="#fefcfa"] ;
715 -> 716 ;
717 [label="mse = 0.0\nsamples = 1\nvalue = 1.01952e+16", fillcolor="#fefbf9"] ;
716 -> 717 ;
718 [label="mse = 0.0\nsamples = 1\nvalue = 8121600000000000.0", fillcolor="#fefcfa"] ;
716 -> 718 ;
719 [label="mse = 9007199254740992.0\nsamples = 1\nvalue = 7516800000000000.0", fillcolor="#fefcfb"] ;
715 -> 719 ;
720 [label="AVG_PRESSURE_TUBING <= 71.011\nmse = 1.0255768560000012e+31\nsamples = 2\nvalue = 1.8369e+16", fillcolor="#fdf8f4"] ;
710 -> 720 ;
721 [label="mse = 0.0\nsamples = 1\nvalue = 2.22912e+16", fillcolor="#fdf6f1"] ;
720 -> 721 ;
722 [label="mse = 7.205759403792794e+16\nsamples = 1\nvalue = 1.57542e+16", fillcolor="#fef9f5"] ;
720 -> 722 ;
723 [label="AVG_DIFFERENTIAL_PRESSURE <= 30.341\nmse = 6.639522048000002e+31\nsamples = 3\nvalue = 2.268e+16", fillcolor="#fdf6f1"] ;
709 -> 723 ;
724 [label="mse = 0.0\nsamples = 1\nvalue = 3.52512e+16", fillcolor="#fcf1e9"] ;
723 -> 724 ;
725 [label="AVG_LIQUID_VOLUME <= 183.595\nmse = 1.8289152000000042e+31\nsamples = 2\nvalue = 1.84896e+16", fillcolor="#fdf8f3"] ;
723 -> 725 ;
726 [label="mse = 0.0\nsamples = 1\nvalue = 2.15136e+16", fillcolor="#fdf6f1"] ;
725 -> 726 ;
727 [label="mse = 3.602879701896397e+16\nsamples = 1\nvalue = 1.24416e+16", fillcolor="#fefaf7"] ;
725 -> 727 ;
728 [label="overall_max_sideload <= 189.303\nmse = 1.0746373971011664e+32\nsamples = 42\nvalue = 2.2485512647058824e+16", fillcolor="#fdf6f1"] ;
708 -> 728 ;
729 [label="Fillage <= 85.892\nmse = 1.0129231253000018e+32\nsamples = 21\nvalue = 2.61113e+16", fillcolor="#fdf5ef"] ;
728 -> 729 ;
730 [label="mse = 0.0\nsamples = 1\nvalue = 1.46898e+16", fillcolor="#fef9f6"] ;
729 -> 730 ;
731 [label="AVG_PRESS_FLOWLINE <= 47.414\nmse = 1.0035272648718378e+32\nsamples = 20\nvalue = 2.6437628571428572e+16", fillcolor="#fdf4ee"] ;
729 -> 731 ;
732 [label="overall_max_sideload <= 162.812\nmse = 9.200314579359373e+31\nsamples = 18\nvalue = 2.5288537500000004e+16", fillcolor="#fdf5ef"] ;
731 -> 732 ;
733 [label="overall_max_sideload <= 93.585\nmse = 7.895844187455632e+31\nsamples = 13\nvalue = 2.6948492307692308e+16", fillcolor="#fdf4ee"] ;
732 -> 733 ;
734 [label="overall_max_sideload <= 79.157\nmse = 9.679708085760004e+31\nsamples = 6\nvalue = 2.096568e+16", fillcolor="#fdf7f2"] ;
733 -> 734 ;
735 [label="mse = 0.0\nsamples = 1\nvalue = 4.24224e+16", fillcolor="#fbeee4"] ;
734 -> 735 ;
736 [label="Fillage <= 90.383\nmse = 5.071393759999999e+31\nsamples = 5\nvalue = 1.85816e+16", fillcolor="#fdf8f3"] ;
734 -> 736 ;
737 [label="mse = 0.0\nsamples = 1\nvalue = 3.0654e+16", fillcolor="#fcf3ec"] ;
736 -> 737 ;
738 [label="overall_max_sideload <= 79.207\nmse = 1.1665447288163202e+31\nsamples = 4\nvalue = 1.5132342857142858e+16", fillcolor="#fef9f6"] ;
736 -> 738 ;
739 [label="mse = 0.0\nsamples = 1\nvalue = 2.0304e+16", fillcolor="#fdf7f2"] ;
738 -> 739 ;
740 [label="ROUTE <= 893.0\nmse = 1.3538451456000023e+30\nsamples = 3\nvalue = 1.306368e+16", fillcolor="#fefaf7"] ;
738 -> 740 ;
741 [label="AVG_PRESSURE_TUBING <= 89.479\nmse = 1.6796159999992732e+28\nsamples = 2\nvalue = 1.24848e+16", fillcolor="#fefaf7"] ;
740 -> 741 ;
742 [label="mse = 0.0\nsamples = 1\nvalue = 1.23552e+16", fillcolor="#fefaf7"] ;
741 -> 742 ;
743 [label="mse = -1.8014398509481984e+16\nsamples = 1\nvalue = 1.26144e+16", fillcolor="#fefaf7"] ;
741 -> 743 ;
744 [label="mse = 3.602879701896397e+16\nsamples = 1\nvalue = 1.53792e+16", fillcolor="#fef9f5"] ;
740 -> 744 ;
745 [label="bha_configuration <= 2.0\nmse = 3.145596747750017e+31\nsamples = 7\nvalue = 3.068775e+16", fillcolor="#fcf3ec"] ;
733 -> 745 ;
746 [label="gas_anchor_length <= 20.455\nmse = 1.6888021977600151e+31\nsamples = 6\nvalue = 3.170832e+16", fillcolor="#fcf2eb"] ;
745 -> 746 ;
747 [label="gas_anchor_length <= 19.975\nmse = 1.5454333440000054e+31\nsamples = 2\nvalue = 2.85552e+16", fillcolor="#fdf4ed"] ;
746 -> 747 ;
748 [label="mse = 0.0\nsamples = 1\nvalue = 3.24864e+16", fillcolor="#fcf2ea"] ;
747 -> 748 ;
749 [label="mse = 1.4411518807585587e+17\nsamples = 1\nvalue = 2.4624e+16", fillcolor="#fdf5ef"] ;
747 -> 749 ;
750 [label="AVG_LIQUID_VOLUME <= 199.109\nmse = 6.796963520000026e+30\nsamples = 4\nvalue = 3.38104e+16", fillcolor="#fcf1ea"] ;
746 -> 750 ;
751 [label="AVG_DIFFERENTIAL_PRESSURE <= 92.849\nmse = 1.634770350000103e+30\nsamples = 3\nvalue = 3.29931e+16", fillcolor="#fcf2ea"] ;
750 -> 751 ;
752 [label="max_unguided_dls <= 2.581\nmse = 3.285360000001347e+29\nsamples = 2\nvalue = 3.39192e+16", fillcolor="#fcf1e9"] ;
751 -> 752 ;
753 [label="mse = 0.0\nsamples = 1\nvalue = 3.32172e+16", fillcolor="#fcf2ea"] ;
752 -> 753 ;
754 [label="mse = 2.8823037615171174e+17\nsamples = 1\nvalue = 3.43872e+16", fillcolor="#fcf1e9"] ;
752 -> 754 ;
755 [label="mse = 0.0\nsamples = 1\nvalue = 3.14496e+16", fillcolor="#fcf2eb"] ;
751 -> 755 ;
756 [label="mse = 2.8823037615171174e+17\nsamples = 1\nvalue = 4.03488e+16", fillcolor="#fcefe5"] ;
750 -> 756 ;
757 [label="mse = -3.7109660929532887e+18\nsamples = 1\nvalue = 1.53792e+16", fillcolor="#fef9f5"] ;
745 -> 757 ;
758 [label="Fillage <= 91.409\nmse = 8.484868583999934e+31\nsamples = 5\nvalue = 1.80954e+16", fillcolor="#fef8f4"] ;
732 -> 758 ;
759 [label="mse = 0.0\nsamples = 1\nvalue = 2.97072e+16", fillcolor="#fdf3ec"] ;
758 -> 759 ;
760 [label="gas_anchor_length <= 20.74\nmse = 6.945828719040006e+31\nsamples = 4\nvalue = 1.577304e+16", fillcolor="#fef9f5"] ;
758 -> 760 ;
761 [label="ROUTE <= 892.5\nmse = 4.007643560999999e+31\nsamples = 3\nvalue = 1.88307e+16", fillcolor="#fdf8f3"] ;
760 -> 761 ;
762 [label="mse = 0.0\nsamples = 1\nvalue = 1.2519e+16", fillcolor="#fefaf7"] ;
761 -> 762 ;
763 [label="AVG_PRESS_FLOWLINE <= 30.301\nmse = 4.7775744000002545e+29\nsamples = 2\nvalue = 2.51424e+16", fillcolor="#fdf5ef"] ;
761 -> 763 ;
764 [label="mse = 0.0\nsamples = 1\nvalue = 2.58336e+16", fillcolor="#fdf5ef"] ;
763 -> 764 ;
765 [label="mse = -7.205759403792794e+16\nsamples = 1\nvalue = 2.44512e+16", fillcolor="#fdf5f0"] ;
763 -> 765 ;
766 [label="mse = 1.3510798882111488e+16\nsamples = 1\nvalue = 3542400000000000.0", fillcolor="#fffefd"] ;
760 -> 766 ;
767 [label="SecondarySetpoint <= 62.5\nmse = 2.509719551999916e+31\nsamples = 2\nvalue = 3.86946e+16", fillcolor="#fcefe6"] ;
731 -> 767 ;
768 [label="mse = 0.0\nsamples = 1\nvalue = 4.2237e+16", fillcolor="#fbeee4"] ;
767 -> 768 ;
769 [label="mse = 0.0\nsamples = 1\nvalue = 3.16098e+16", fillcolor="#fcf2eb"] ;
767 -> 769 ;
770 [label="NIPPLE_SET_DEPTH <= 9800.4\nmse = 8.297864073933383e+31\nsamples = 21\nvalue = 1.8406501875e+16", fillcolor="#fdf8f4"] ;
728 -> 770 ;
771 [label="max_unguided_dls <= 2.157\nmse = 5.080888843346937e+31\nsamples = 8\nvalue = 1.2100028571428572e+16", fillcolor="#fefaf8"] ;
770 -> 771 ;
772 [label="overall_max_sideload <= 263.807\nmse = 4.113859631040001e+31\nsamples = 4\nvalue = 9389040000000000.0", fillcolor="#fefbf9"] ;
771 -> 772 ;
773 [label="SecondarySetpoint <= 62.5\nmse = 1.1047552008888883e+31\nsamples = 3\nvalue = 7527266666666667.0", fillcolor="#fefcfb"] ;
772 -> 773 ;
774 [label="pump_bore <= 1.625\nmse = 3.256352000000002e+30\nsamples = 2\nvalue = 9634000000000000.0", fillcolor="#fefbf9"] ;
773 -> 774 ;
775 [label="mse = 0.0\nsamples = 1\nvalue = 1.2186e+16", fillcolor="#fefaf8"] ;
774 -> 775 ;
776 [label="mse = 0.0\nsamples = 1\nvalue = 8358000000000000.0", fillcolor="#fefcfa"] ;
774 -> 776 ;
777 [label="mse = 4503599627370496.0\nsamples = 1\nvalue = 3313800000000000.0", fillcolor="#fffefd"] ;
773 -> 777 ;
778 [label="mse = 0.0\nsamples = 1\nvalue = 2.6145e+16", fillcolor="#fdf4ee"] ;
772 -> 778 ;
779 [label="ROUTE <= 873.5\nmse = 1.0676852189999994e+31\nsamples = 4\nvalue = 1.88775e+16", fillcolor="#fdf7f3"] ;
771 -> 779 ;
780 [label="mse = 0.0\nsamples = 1\nvalue = 1.3824e+16", fillcolor="#fefaf6"] ;
779 -> 780 ;
781 [label="Fillage <= 92.35\nmse = 2.8856419200000504e+30\nsamples = 3\nvalue = 2.0562e+16", fillcolor="#fdf7f2"] ;
779 -> 781 ;
782 [label="max_unguided_dls <= 3.826\nmse = 3.0140100000006593e+29\nsamples = 2\nvalue = 2.17206e+16", fillcolor="#fdf6f1"] ;
781 -> 782 ;
783 [label="mse = 0.0\nsamples = 1\nvalue = 2.22696e+16", fillcolor="#fdf6f1"] ;
782 -> 783 ;
784 [label="mse = 7.205759403792794e+16\nsamples = 1\nvalue = 2.11716e+16", fillcolor="#fdf7f2"] ;
782 -> 784 ;
785 [label="mse = 0.0\nsamples = 1\nvalue = 1.82448e+16", fillcolor="#fef8f4"] ;
781 -> 785 ;
786 [label="max_unguided_dls <= 3.006\nmse = 5.30067219252555e+31\nsamples = 13\nvalue = 2.3311536666666668e+16", fillcolor="#fdf6f0"] ;
770 -> 786 ;
787 [label="AVG_PRESSURE_TUBING <= 60.0\nmse = 1.0752649344843772e+31\nsamples = 5\nvalue = 2.0572537500000004e+16", fillcolor="#fdf7f2"] ;
786 -> 787 ;
788 [label="mse = 0.0\nsamples = 1\nvalue = 2.55744e+16", fillcolor="#fdf5ef"] ;
787 -> 788 ;
789 [label="AVG_PRESS_FLOWLINE <= 28.403\nmse = 3.217475362500007e+30\nsamples = 4\nvalue = 1.890525e+16", fillcolor="#fdf7f3"] ;
787 -> 789 ;
790 [label="mse = 0.0\nsamples = 1\nvalue = 1.64304e+16", fillcolor="#fef9f5"] ;
789 -> 790 ;
791 [label="chemgroup1_any <= 0.5\nmse = 2.32551151874994e+29\nsamples = 3\nvalue = 2.0142675e+16", fillcolor="#fdf7f2"] ;
789 -> 791 ;
792 [label="NIPPLE_SET_DEPTH <= 11069.75\nmse = 3.5820224999411246e+27\nsamples = 2\nvalue = 2.062305e+16", fillcolor="#fdf7f2"] ;
791 -> 792 ;
793 [label="mse = 0.0\nsamples = 1\nvalue = 2.05632e+16", fillcolor="#fdf7f2"] ;
792 -> 793 ;
794 [label="mse = -7.205759403792794e+16\nsamples = 1\nvalue = 2.06829e+16", fillcolor="#fdf7f2"] ;
792 -> 794 ;
795 [label="mse = 0.0\nsamples = 1\nvalue = 1.96623e+16", fillcolor="#fdf7f3"] ;
791 -> 795 ;
796 [label="ROUTE <= 892.0\nmse = 7.600693232318418e+31\nsamples = 8\nvalue = 2.5502736e+16", fillcolor="#fdf5ef"] ;
786 -> 796 ;
797 [label="AVG_PRESS_FLOWLINE <= 51.281\nmse = 4.5786325657155655e+31\nsamples = 7\nvalue = 2.3536373333333332e+16", fillcolor="#fdf6f0"] ;
796 -> 797 ;
798 [label="overall_max_sideload <= 276.55\nmse = 1.1529440009999984e+31\nsamples = 5\nvalue = 2.78832e+16", fillcolor="#fdf4ed"] ;
797 -> 798 ;
799 [label="ROUTE <= 879.0\nmse = 8.934400080000108e+30\nsamples = 3\nvalue = 3.05358e+16", fillcolor="#fcf3ec"] ;
798 -> 799 ;
800 [label="max_unguided_dls <= 3.65\nmse = 4.199040000001065e+29\nsamples = 2\nvalue = 3.2616e+16", fillcolor="#fcf2ea"] ;
799 -> 800 ;
801 [label="mse = 0.0\nsamples = 1\nvalue = 3.3264e+16", fillcolor="#fcf2ea"] ;
800 -> 801 ;
802 [label="mse = 1.4411518807585587e+17\nsamples = 1\nvalue = 3.1968e+16", fillcolor="#fcf2eb"] ;
800 -> 802 ;
803 [label="mse = 2.8823037615171174e+17\nsamples = 1\nvalue = 2.63754e+16", fillcolor="#fdf4ee"] ;
799 -> 803 ;
804 [label="max_unguided_dls <= 6.875\nmse = 5.190641999983452e+28\nsamples = 2\nvalue = 2.52306e+16", fillcolor="#fdf5ef"] ;
798 -> 804 ;
805 [label="mse = 0.0\nsamples = 1\nvalue = 2.49084e+16", fillcolor="#fdf5ef"] ;
804 -> 805 ;
806 [label="mse = 7.205759403792794e+16\nsamples = 1\nvalue = 2.53917e+16", fillcolor="#fdf5ef"] ;
804 -> 806 ;
807 [label="NIPPLE_SET_DEPTH <= 9916.15\nmse = 9.306845312001532e+29\nsamples = 2\nvalue = 1.484272e+16", fillcolor="#fef9f6"] ;
797 -> 807 ;
808 [label="mse = 0.0\nsamples = 1\nvalue = 1.34784e+16", fillcolor="#fefaf7"] ;
807 -> 808 ;
809 [label="mse = 0.0\nsamples = 1\nvalue = 1.552488e+16", fillcolor="#fef9f5"] ;
807 -> 809 ;
810 [label="mse = -1.4411518807585587e+18\nsamples = 1\nvalue = 4.32e+16", fillcolor="#fbede3"] ;
796 -> 810 ;
811 [label="AVG_DIFFERENTIAL_PRESSURE <= 189.499\nmse = 4.190912195057136e+32\nsamples = 63\nvalue = 3.307482077996226e+16", fillcolor="#fcf2ea"] ;
629 -> 811 ;
812 [label="StrokeLength <= 145.976\nmse = 3.653264199563615e+32\nsamples = 59\nvalue = 3.1815657759546388e+16", fillcolor="#fcf2eb"] ;
811 -> 812 ;
813 [label="DESANDDEGAS_TYP <= 3.5\nmse = 1.79276038968996e+32\nsamples = 28\nvalue = 2.6395002e+16", fillcolor="#fdf4ee"] ;
812 -> 813 ;
814 [label="AVG_PRESS_FLOWLINE <= 66.201\nmse = 6.214235237187502e+31\nsamples = 17\nvalue = 2.3539675e+16", fillcolor="#fdf6f0"] ;
813 -> 814 ;
