digraph Tree {
node [shape=box, style="filled", color="black"] ;
0 [label="SecondarySetpoint <= 52.5\nmse = 1.2251865372417247e+33\nsamples = 776\nvalue = 3.97740584159304e+16", fillcolor="#fcf0e8"] ;
1 [label="chemgroup2_all <= 0.5\nmse = 6.677527131422504e+33\nsamples = 47\nvalue = 8.419152106474627e+16", fillcolor="#f9e0ce"] ;
0 -> 1 [labeldistance=2.5, labelangle=45, headlabel="True"] ;
2 [label="NIPPLE_SET_DEPTH <= 8815.8\nmse = 2.1189495315570397e+33\nsamples = 31\nvalue = 5.189480111604347e+16", fillcolor="#fbece1"] ;
1 -> 2 ;
3 [label="mse = 0.0\nsamples = 1\nvalue = 2.256768e+17", fillcolor="#eeaa7a"] ;
2 -> 3 ;
4 [label="MAX_INCLINATION <= 3.45\nmse = 7.801327496642209e+32\nsamples = 30\nvalue = 4.3995619348590904e+16", fillcolor="#fcefe5"] ;
2 -> 4 ;
5 [label="StrokeLength <= 141.5\nmse = 6.1497731915616445e+32\nsamples = 26\nvalue = 4.0706329521487176e+16", fillcolor="#fcf0e7"] ;
4 -> 5 ;
6 [label="mse = 0.0\nsamples = 1\nvalue = 1.01574e+16", fillcolor="#fefbf9"] ;
5 -> 6 ;
7 [label="chemgroup1_any <= 0.5\nmse = 5.950473178520525e+32\nsamples = 25\nvalue = 4.235762300913513e+16", fillcolor="#fcefe6"] ;
5 -> 7 ;
8 [label="AVG_LIQUID_VOLUME <= 33.269\nmse = 3.9039634010498023e+31\nsamples = 5\nvalue = 2.7187868571428572e+16", fillcolor="#fdf5ef"] ;
7 -> 8 ;
9 [label="mse = 0.0\nsamples = 1\nvalue = 3.95775e+16", fillcolor="#fcf0e8"] ;
8 -> 9 ;
10 [label="StrokeLength <= 144.025\nmse = 1.569844055249996e+31\nsamples = 4\nvalue = 2.512293e+16", fillcolor="#fdf6f1"] ;
8 -> 10 ;
11 [label="AVG_PRESSURE_TUBING <= 77.715\nmse = 1.045653034319994e+31\nsamples = 2\nvalue = 2.835846e+16", fillcolor="#fdf5ef"] ;
10 -> 11 ;
12 [label="mse = 0.0\nsamples = 1\nvalue = 3.0645e+16", fillcolor="#fdf4ed"] ;
11 -> 12 ;
13 [label="mse = -7.205759403792794e+16\nsamples = 1\nvalue = 2.378538e+16", fillcolor="#fdf6f1"] ;
11 -> 13 ;
14 [label="StrokeLength <= 144.125\nmse = 3.0420000000452826e+27\nsamples = 2\nvalue = 2.18874e+16", fillcolor="#fdf7f2"] ;
10 -> 14 ;
15 [label="mse = 0.0\nsamples = 1\nvalue = 2.19654e+16", fillcolor="#fdf7f2"] ;
14 -> 15 ;
16 [label="mse = 0.0\nsamples = 1\nvalue = 2.18484e+16", fillcolor="#fdf7f2"] ;
14 -> 16 ;
17 [label="AVG_LIQUID_VOLUME <= 74.666\nmse = 6.585586046679903e+32\nsamples = 20\nvalue = 4.589723237793333e+16", fillcolor="#fbeee4"] ;
7 -> 17 ;
18 [label="rod_make <= 1.0\nmse = 7.514111681546704e+32\nsamples = 12\nvalue = 5.382769954410526e+16", fillcolor="#fbebe0"] ;
17 -> 18 ;
19 [label="mse = 0.0\nsamples = 1\nvalue = 7.27704e+16", fillcolor="#f9e4d4"] ;
18 -> 19 ;
20 [label="packer_vs_tac <= 0.5\nmse = 8.124059327617176e+32\nsamples = 11\nvalue = 5.0275943208625e+16", fillcolor="#fbece2"] ;
18 -> 20 ;
21 [label="AVG_PRESSURE_CASING <= 67.09\nmse = 1.2571578889454535e+33\nsamples = 7\nvalue = 6.277056141725e+16", fillcolor="#fae8da"] ;
20 -> 21 ;
22 [label="gas_anchor_length <= 19.3\nmse = 2.316486815999991e+31\nsamples = 3\nvalue = 2.5578e+16", fillcolor="#fdf6f0"] ;
21 -> 22 ;
23 [label="mse = 0.0\nsamples = 1\nvalue = 1.9476e+16", fillcolor="#fef8f4"] ;
22 -> 23 ;
24 [label="AVG_PRESS_FLOWLINE <= 36.179\nmse = 6.821499239999886e+30\nsamples = 2\nvalue = 2.8629e+16", fillcolor="#fdf4ee"] ;
22 -> 24 ;
25 [label="mse = 0.0\nsamples = 1\nvalue = 3.12408e+16", fillcolor="#fdf4ed"] ;
24 -> 25 ;
26 [label="mse = 0.0\nsamples = 1\nvalue = 2.60172e+16", fillcolor="#fdf5f0"] ;
24 -> 26 ;
27 [label="overall_max_sideload <= 49.71\nmse = 6.695985416318479e+32\nsamples = 4\nvalue = 8.50860982676e+16", fillcolor="#f8dfcd"] ;
21 -> 27 ;
28 [label="mse = 0.0\nsamples = 1\nvalue = 4.1915231338e+16", fillcolor="#fcefe7"] ;
27 -> 28 ;
29 [label="rod_has_guides <= 0.5\nmse = 2.5458450471067387e+32\nsamples = 3\nvalue = 9.5878815e+16", fillcolor="#f8dbc7"] ;
27 -> 29 ;
30 [label="StrokeLength <= 144.1\nmse = 9.475912742490016e+31\nsamples = 2\nvalue = 1.1027343000000002e+17", fillcolor="#f6d6be"] ;
29 -> 30 ;
31 [label="mse = 0.0\nsamples = 1\nvalue = 1.2000786e+17", fillcolor="#f6d2b8"] ;
30 -> 31 ;
32 [label="mse = -2.305843009213694e+18\nsamples = 1\nvalue = 1.00539e+17", fillcolor="#f7d9c4"] ;
30 -> 32 ;
33 [label="mse = 0.0\nsamples = 1\nvalue = 8.14842e+16", fillcolor="#f9e1cf"] ;
29 -> 33 ;
34 [label="ROUTE <= 884.0\nmse = 5.542300821937479e+31\nsamples = 4\nvalue = 3.778132499999999e+16", fillcolor="#fcf1e9"] ;
20 -> 34 ;
35 [label="Fillage <= 60.85\nmse = 3.2563374569999904e+31\nsamples = 3\nvalue = 4.09959e+16", fillcolor="#fcf0e7"] ;
34 -> 35 ;
36 [label="mse = 0.0\nsamples = 1\nvalue = 3.32424e+16", fillcolor="#fcf3ec"] ;
35 -> 36 ;
37 [label="max_unguided_dls <= 1.232\nmse = 3.7574901674998414e+30\nsamples = 2\nvalue = 4.487265e+16", fillcolor="#fceee5"] ;
35 -> 37 ;
38 [label="mse = 0.0\nsamples = 1\nvalue = 4.15152e+16", fillcolor="#fcf0e7"] ;
37 -> 38 ;
39 [label="mse = 0.0\nsamples = 1\nvalue = 4.59918e+16", fillcolor="#fbeee4"] ;
37 -> 39 ;
40 [label="mse = -1.4411518807585587e+17\nsamples = 1\nvalue = 2.81376e+16", fillcolor="#fdf5ef"] ;
34 -> 40 ;
41 [label="bha_configuration <= 3.5\nmse = 2.0190734707507372e+32\nsamples = 8\nvalue = 3.219915272727273e+16", fillcolor="#fdf3ec"] ;
17 -> 41 ;
42 [label="ROUTE <= 903.5\nmse = 1.6084727985262016e+32\nsamples = 6\nvalue = 3.8186897142857144e+16", fillcolor="#fcf1e9"] ;
41 -> 42 ;
43 [label="AVG_LIQUID_VOLUME <= 253.731\nmse = 8.454790385999994e+31\nsamples = 5\nvalue = 3.434898e+16", fillcolor="#fcf2eb"] ;
42 -> 43 ;
44 [label="AVG_PRESSURE_CASING <= 145.316\nmse = 7.607996198870402e+31\nsamples = 4\nvalue = 3.6405576e+16", fillcolor="#fcf2ea"] ;
43 -> 44 ;
45 [label="AVG_PRESSURE_TUBING <= 66.723\nmse = 1.870312219919988e+31\nsamples = 3\nvalue = 2.982996e+16", fillcolor="#fdf4ee"] ;
44 -> 45 ;
46 [label="mse = 0.0\nsamples = 1\nvalue = 2.6046e+16", fillcolor="#fdf5f0"] ;
45 -> 46 ;
47 [label="overall_max_sideload <= 195.155\nmse = 1.7315918337599996e+31\nsamples = 2\nvalue = 3.172194e+16", fillcolor="#fdf3ed"] ;
45 -> 47 ;
48 [label="mse = 0.0\nsamples = 1\nvalue = 3.588318e+16", fillcolor="#fcf2ea"] ;
47 -> 48 ;
49 [label="mse = 0.0\nsamples = 1\nvalue = 2.75607e+16", fillcolor="#fdf5ef"] ;
47 -> 49 ;
50 [label="mse = -2.8823037615171174e+17\nsamples = 1\nvalue = 4.6269e+16", fillcolor="#fbeee4"] ;
44 -> 50 ;
51 [label="mse = 7.205759403792794e+17\nsamples = 1\nvalue = 2.4066e+16", fillcolor="#fdf6f1"] ;
43 -> 51 ;
52 [label="mse = 0.0\nsamples = 1\nvalue = 6.12144e+16", fillcolor="#fae8db"] ;
42 -> 52 ;
53 [label="AVG_PRESSURE_CASING <= 104.72\nmse = 1.0121950188000011e+32\nsamples = 2\nvalue = 2.17206e+16", fillcolor="#fdf7f3"] ;
41 -> 53 ;
54 [label="mse = 3.602879701896397e+16\nsamples = 1\nvalue = 1.5912e+16", fillcolor="#fef9f6"] ;
53 -> 54 ;
55 [label="mse = -2.8823037615171174e+17\nsamples = 1\nvalue = 3.91464e+16", fillcolor="#fcf1e8"] ;
53 -> 55 ;
56 [label="AVG_LIQUID_VOLUME <= 115.245\nmse = 1.3256995994495966e+33\nsamples = 4\nvalue = 6.965208e+16", fillcolor="#fae5d6"] ;
4 -> 56 ;
57 [label="MAX_INCLINATION <= 5.24\nmse = 2.530710028799999e+32\nsamples = 2\nvalue = 9.56676e+16", fillcolor="#f8dbc7"] ;
56 -> 57 ;
58 [label="mse = 0.0\nsamples = 1\nvalue = 1.069164e+17", fillcolor="#f7d7c0"] ;
57 -> 58 ;
59 [label="mse = 1.152921504606847e+18\nsamples = 1\nvalue = 7.317e+16", fillcolor="#f9e4d4"] ;
57 -> 59 ;
60 [label="gas_anchor_length <= 19.25\nmse = 3.966151910400006e+32\nsamples = 2\nvalue = 3.06288e+16", fillcolor="#fdf4ed"] ;
56 -> 60 ;
61 [label="mse = 0.0\nsamples = 1\nvalue = 1.07136e+16", fillcolor="#fefbf9"] ;
60 -> 61 ;
62 [label="mse = 2.8823037615171174e+17\nsamples = 1\nvalue = 5.0544e+16", fillcolor="#fbece2"] ;
60 -> 62 ;
63 [label="Fillage <= 57.119\nmse = 9.373262272784734e+33\nsamples = 16\nvalue = 1.5493671714285715e+17", fillcolor="#f3c5a4"] ;
1 -> 63 ;
64 [label="bha_configuration <= 2.0\nmse = 5.603331299220002e+33\nsamples = 4\nvalue = 8.81055e+16", fillcolor="#f8decb"] ;
63 -> 64 ;
65 [label="mse = 0.0\nsamples = 1\nvalue = 2.520684e+17", fillcolor="#eba06a"] ;
64 -> 65 ;
66 [label="overall_max_sideload <= 72.81\nmse = 2.718777407256006e+32\nsamples = 3\nvalue = 5.531292e+16", fillcolor="#fbeadf"] ;
64 -> 66 ;
67 [label="mse = 0.0\nsamples = 1\nvalue = 8.14248e+16", fillcolor="#f9e1cf"] ;
66 -> 67 ;
68 [label="rod_apigrade <= 2.5\nmse = 1.2677521430250031e+32\nsamples = 2\nvalue = 4.878495e+16", fillcolor="#fbede3"] ;
66 -> 68 ;
69 [label="mse = 0.0\nsamples = 1\nvalue = 6.00444e+16", fillcolor="#fae9dc"] ;
68 -> 69 ;
70 [label="mse = 0.0\nsamples = 1\nvalue = 3.75255e+16", fillcolor="#fcf1e9"] ;
68 -> 70 ;
71 [label="ROUTE <= 880.5\nmse = 8.380044174725027e+33\nsamples = 12\nvalue = 1.8166920399999997e+17", fillcolor="#f1bb94"] ;
63 -> 71 ;
72 [label="bha_configuration <= 2.5\nmse = 6.665424820954884e+33\nsamples = 8\nvalue = 2.24447226e+17", fillcolor="#eeab7b"] ;
71 -> 72 ;
73 [label="bha_configuration <= 1.5\nmse = 1.0940560070106194e+33\nsamples = 6\nvalue = 2.6997377142857142e+17", fillcolor="#ea9a60"] ;
72 -> 73 ;
74 [label="max_unguided_dls <= 6.121\nmse = 4.2936756436799515e+32\nsamples = 4\nvalue = 2.55051e+17", fillcolor="#eb9f69"] ;
73 -> 74 ;
75 [label="AVG_LIQUID_VOLUME <= 26.4\nmse = 6.72870936600022e+31\nsamples = 3\nvalue = 2.453616e+17", fillcolor="#eca36e"] ;
74 -> 75 ;
76 [label="Fillage <= 75.441\nmse = 2.759650631998713e+31\nsamples = 2\nvalue = 2.493024e+17", fillcolor="#eca16c"] ;
75 -> 76 ;
77 [label="mse = 0.0\nsamples = 1\nvalue = 2.418732e+17", fillcolor="#eca470"] ;
76 -> 77 ;
78 [label="mse = -9.223372036854776e+18\nsamples = 1\nvalue = 2.53017e+17", fillcolor="#eba06a"] ;
76 -> 78 ;
79 [label="mse = 2.7670116110564327e+19\nsamples = 1\nvalue = 2.335392e+17", fillcolor="#eda775"] ;
75 -> 79 ;
80 [label="mse = -3.6893488147419103e+19\nsamples = 1\nvalue = 2.938086e+17", fillcolor="#e89152"] ;
74 -> 80 ;
81 [label="AVG_LIQUID_VOLUME <= 17.645\nmse = 8.072474264100236e+32\nsamples = 2\nvalue = 3.072807e+17", fillcolor="#e78c4a"] ;
73 -> 81 ;
82 [label="mse = 0.0\nsamples = 1\nvalue = 2.788686e+17", fillcolor="#e9965b"] ;
81 -> 82 ;
83 [label="mse = 1.8446744073709552e+19\nsamples = 1\nvalue = 3.356928e+17", fillcolor="#e58139"] ;
81 -> 83 ;
84 [label="overall_max_sideload <= 43.005\nmse = 3.544547197248812e+33\nsamples = 2\nvalue = 1.1821862e+17", fillcolor="#f6d3ba"] ;
72 -> 84 ;
85 [label="mse = 0.0\nsamples = 1\nvalue = 3.402186e+16", fillcolor="#fcf2eb"] ;
84 -> 85 ;
86 [label="mse = 0.0\nsamples = 1\nvalue = 1.60317e+17", fillcolor="#f3c3a1"] ;
84 -> 86 ;
87 [label="AVG_PRESSURE_CASING <= 110.12\nmse = 8.295278848703995e+32\nsamples = 4\nvalue = 9.611316e+16", fillcolor="#f8dbc7"] ;
71 -> 87 ;
88 [label="overall_max_sideload <= 183.8\nmse = 1.567850353199995e+32\nsamples = 3\nvalue = 1.093806e+17", fillcolor="#f7d6bf"] ;
87 -> 88 ;
89 [label="Fillage <= 88.656\nmse = 1.296830591999942e+31\nsamples = 2\nvalue = 1.023792e+17", fillcolor="#f7d9c3"] ;
88 -> 89 ;
90 [label="mse = 0.0\nsamples = 1\nvalue = 1.049256e+17", fillcolor="#f7d8c1"] ;
89 -> 90 ;
91 [label="mse = -1.152921504606847e+18\nsamples = 1\nvalue = 9.72864e+16", fillcolor="#f8dbc6"] ;
89 -> 91 ;
92 [label="mse = 4.611686018427388e+18\nsamples = 1\nvalue = 1.303848e+17", fillcolor="#f5ceb2"] ;
88 -> 92 ;
93 [label="mse = -6.052837899185947e+18\nsamples = 1\nvalue = 4.30434e+16", fillcolor="#fcefe6"] ;
87 -> 93 ;
94 [label="chemgroup1_all <= 0.5\nmse = 7.819754620763236e+32\nsamples = 729\nvalue = 3.716355841814913e+16", fillcolor="#fcf1e9"] ;
0 -> 94 [labeldistance=2.5, labelangle=-45, headlabel="False"] ;
95 [label="AVG_PRESSURE_CASING <= 44.962\nmse = 6.705834534549523e+32\nsamples = 695\nvalue = 3.5920129353575388e+16", fillcolor="#fcf2ea"] ;
94 -> 95 ;
96 [label="AVG_LIQUID_VOLUME <= 13.376\nmse = 7.071022246589924e+32\nsamples = 112\nvalue = 2.8274044864788572e+16", fillcolor="#fdf5ef"] ;
95 -> 96 ;
97 [label="DESANDDEGAS_TYP <= 0.5\nmse = 2.8534294541716425e+32\nsamples = 29\nvalue = 1.27761072e+16", fillcolor="#fefaf8"] ;
96 -> 97 ;
98 [label="manual_scale <= 0.5\nmse = 5.650354195200004e+32\nsamples = 6\nvalue = 3.74328e+16", fillcolor="#fcf1e9"] ;
97 -> 98 ;
99 [label="MAX_INCLINATION <= 2.34\nmse = 6.143699404800002e+32\nsamples = 3\nvalue = 5.26176e+16", fillcolor="#fbebe0"] ;
98 -> 99 ;
100 [label="mse = 0.0\nsamples = 1\nvalue = 7.42176e+16", fillcolor="#f9e3d4"] ;
99 -> 100 ;
101 [label="NIPPLE_SET_DEPTH <= 9776.55\nmse = 2.9561988095999964e+32\nsamples = 2\nvalue = 3.10176e+16", fillcolor="#fdf4ed"] ;
99 -> 101 ;
102 [label="mse = 0.0\nsamples = 1\nvalue = 1.3824e+16", fillcolor="#fefaf7"] ;
101 -> 102 ;
103 [label="mse = 0.0\nsamples = 1\nvalue = 4.82112e+16", fillcolor="#fbede3"] ;
101 -> 103 ;
104 [label="bha_configuration <= 4.0\nmse = 5.454459648000063e+31\nsamples = 3\nvalue = 2.2248e+16", fillcolor="#fdf7f2"] ;
98 -> 104 ;
105 [label="wellbore_category <= 2.0\nmse = 4.246732799999996e+31\nsamples = 2\nvalue = 1.94976e+16", fillcolor="#fef8f4"] ;
104 -> 105 ;
106 [label="mse = 0.0\nsamples = 1\nvalue = 1.02816e+16", fillcolor="#fefbf9"] ;
105 -> 106 ;
107 [label="mse = 0.0\nsamples = 1\nvalue = 2.41056e+16", fillcolor="#fdf6f1"] ;
105 -> 107 ;
108 [label="mse = 0.0\nsamples = 1\nvalue = 3.04992e+16", fillcolor="#fdf4ed"] ;
104 -> 108 ;
109 [label="gas_anchor_length <= 10.015\nmse = 9.421047873236744e+31\nsamples = 23\nvalue = 8079594285714286.0", fillcolor="#fefcfb"] ;
97 -> 109 ;
110 [label="overall_max_sideload <= 39.925\nmse = 2.9216381183999993e+32\nsamples = 2\nvalue = 3.8952e+16", fillcolor="#fcf1e8"] ;
109 -> 110 ;
111 [label="mse = 0.0\nsamples = 1\nvalue = 2.18592e+16", fillcolor="#fdf7f2"] ;
110 -> 111 ;
112 [label="mse = -5.764607523034235e+17\nsamples = 1\nvalue = 5.60448e+16", fillcolor="#fbeade"] ;
110 -> 112 ;
113 [label="ROUTE <= 877.5\nmse = 3.4274776761143975e+31\nsamples = 21\nvalue = 6535974000000000.0", fillcolor="#fffdfc"] ;
109 -> 113 ;
114 [label="gas_anchor_length <= 30.63\nmse = 3.408489115021698e+31\nsamples = 13\nvalue = 9484972173913044.0", fillcolor="#fefcfa"] ;
113 -> 114 ;
115 [label="bha_configuration <= 2.5\nmse = 1.4929850703151258e+31\nsamples = 10\nvalue = 7875745263157895.0", fillcolor="#fefcfb"] ;
114 -> 115 ;
116 [label="pump_bore <= 1.625\nmse = 5.512126464e+29\nsamples = 4\nvalue = 3576960000000000.0", fillcolor="#fffefd"] ;
115 -> 116 ;
117 [label="AVG_PRESSURE_CASING <= 15.915\nmse = 3.334348800000035e+29\nsamples = 3\nvalue = 4060800000000000.0", fillcolor="#fffefd"] ;
116 -> 117 ;
118 [label="pump_bore <= 1.375\nmse = 4.665600000000333e+28\nsamples = 2\nvalue = 4449600000000000.0", fillcolor="#fffefd"] ;
117 -> 118 ;
119 [label="mse = 0.0\nsamples = 1\nvalue = 4233600000000000.0", fillcolor="#fffefd"] ;
118 -> 119 ;
120 [label="mse = 0.0\nsamples = 1\nvalue = 4665600000000000.0", fillcolor="#fffefd"] ;
118 -> 120 ;
121 [label="mse = 2251799813685248.0\nsamples = 1\nvalue = 3283200000000000.0", fillcolor="#fffefd"] ;
117 -> 121 ;
122 [label="mse = 0.0\nsamples = 1\nvalue = 2851200000000000.0", fillcolor="#fffefe"] ;
116 -> 122 ;
123 [label="max_unguided_dls <= 1.44\nmse = 1.1108151538824515e+31\nsamples = 6\nvalue = 9411025714285714.0", fillcolor="#fefcfa"] ;
115 -> 123 ;
124 [label="overall_max_sideload <= 42.575\nmse = 4.028824979999995e+30\nsamples = 2\nvalue = 5689800000000000.0", fillcolor="#fffdfc"] ;
123 -> 124 ;
125 [label="mse = 0.0\nsamples = 1\nvalue = 2851200000000000.0", fillcolor="#fffefe"] ;
124 -> 125 ;
126 [label="mse = 0.0\nsamples = 1\nvalue = 7109100000000000.0", fillcolor="#fffdfb"] ;
124 -> 126 ;
127 [label="NIPPLE_SET_DEPTH <= 9671.4\nmse = 8.232299490406627e+30\nsamples = 4\nvalue = 1.0425905454545454e+16", fillcolor="#fefbf9"] ;
123 -> 127 ;
128 [label="AVG_PRESS_FLOWLINE <= 19.162\nmse = 1.1035048124159932e+30\nsamples = 2\nvalue = 1.2694512e+16", fillcolor="#fefaf8"] ;
127 -> 128 ;
129 [label="mse = 1.8014398509481984e+16\nsamples = 1\nvalue = 1.18368e+16", fillcolor="#fefbf8"] ;
128 -> 129 ;
130 [label="mse = -3.602879701896397e+16\nsamples = 1\nvalue = 1.398108e+16", fillcolor="#fefaf7"] ;
128 -> 130 ;
131 [label="bha_configuration <= 3.5\nmse = 6.310137799999999e+30\nsamples = 2\nvalue = 8535400000000000.0", fillcolor="#fefcfa"] ;
127 -> 131 ;
132 [label="mse = 0.0\nsamples = 1\nvalue = 2918400000000000.0", fillcolor="#fffefe"] ;
131 -> 132 ;
133 [label="mse = 0.0\nsamples = 1\nvalue = 9658800000000000.0", fillcolor="#fefcfa"] ;
131 -> 133 ;
134 [label="MAX_INCLINATION <= 2.585\nmse = 5.434257599999971e+31\nsamples = 3\nvalue = 1.71288e+16", fillcolor="#fef9f5"] ;
114 -> 134 ;
135 [label="mse = 0.0\nsamples = 1\nvalue = 4492800000000000.0", fillcolor="#fffefd"] ;
134 -> 135 ;
136 [label="max_unguided_dls <= 2.33\nmse = 1.4929920000000345e+30\nsamples = 2\nvalue = 2.13408e+16", fillcolor="#fdf7f3"] ;
134 -> 136 ;
137 [label="mse = 0.0\nsamples = 1\nvalue = 1.96128e+16", fillcolor="#fef8f4"] ;
136 -> 137 ;
138 [label="mse = 7.205759403792794e+16\nsamples = 1\nvalue = 2.22048e+16", fillcolor="#fdf7f2"] ;
136 -> 138 ;
139 [label="AVG_LIQUID_VOLUME <= 11.18\nmse = 6.847033724844322e+30\nsamples = 8\nvalue = 2546152941176470.5", fillcolor="#fffefe"] ;
113 -> 139 ;
140 [label="AVG_DIFFERENTIAL_PRESSURE <= 0.818\nmse = 9.602418581632658e+29\nsamples = 7\nvalue = 1406957142857142.8", fillcolor="#ffffff"] ;
139 -> 140 ;
141 [label="max_unguided_dls <= 1.914\nmse = 4.026223999999995e+28\nsamples = 4\nvalue = 969800000000000.0", fillcolor="#ffffff"] ;
140 -> 141 ;
142 [label="mse = 0.0\nsamples = 1\nvalue = 777600000000000.0", fillcolor="#ffffff"] ;
141 -> 142 ;
143 [label="AVG_DIFFERENTIAL_PRESSURE <= -23.327\nmse = 1.9277222400000024e+28\nsamples = 3\nvalue = 1123560000000000.0", fillcolor="#ffffff"] ;
141 -> 143 ;
144 [label="mse = 0.0\nsamples = 1\nvalue = 1395000000000000.0", fillcolor="#ffffff"] ;
143 -> 144 ;
145 [label="StrokeLength <= 156.13\nmse = 1.0716300000001461e+27\nsamples = 2\nvalue = 1055700000000000.0", fillcolor="#ffffff"] ;
143 -> 145 ;
146 [label="mse = 0.0\nsamples = 1\nvalue = 1036800000000000.0", fillcolor="#ffffff"] ;
145 -> 146 ;
147 [label="mse = 0.0\nsamples = 1\nvalue = 1112400000000000.0", fillcolor="#ffffff"] ;
145 -> 147 ;
148 [label="ROUTE <= 885.5\nmse = 1.6530290784e+30\nsamples = 3\nvalue = 2193840000000000.0", fillcolor="#fffefe"] ;
140 -> 148 ;
149 [label="pump_bore <= 0.875\nmse = 4.14719999999999e+28\nsamples = 2\nvalue = 1152000000000000.0", fillcolor="#ffffff"] ;
148 -> 149 ;
150 [label="mse = 0.0\nsamples = 1\nvalue = 1296000000000000.0", fillcolor="#ffffff"] ;
149 -> 150 ;
151 [label="mse = -140737488355328.0\nsamples = 1\nvalue = 864000000000000.0", fillcolor="#ffffff"] ;
149 -> 151 ;
152 [label="mse = 0.0\nsamples = 1\nvalue = 3756600000000000.0", fillcolor="#fffefd"] ;
148 -> 152 ;
153 [label="mse = 0.0\nsamples = 1\nvalue = 7862400000000000.0", fillcolor="#fefcfb"] ;
139 -> 153 ;
154 [label="ROUTE <= 868.5\nmse = 7.413017361131871e+32\nsamples = 83\nvalue = 3.4473219930704e+16", fillcolor="#fcf2eb"] ;
96 -> 154 ;
155 [label="MAX_INCLINATION <= 1.19\nmse = 9.766737698188924e+32\nsamples = 36\nvalue = 4.840632117647059e+16", fillcolor="#fbede3"] ;
154 -> 155 ;
156 [label="overall_max_sideload <= 17.875\nmse = 4.3432185896099165e+31\nsamples = 2\nvalue = 1.0875368999999998e+17", fillcolor="#f7d6bf"] ;
155 -> 156 ;
157 [label="mse = 0.0\nsamples = 1\nvalue = 1.15344e+17", fillcolor="#f6d4bb"] ;
156 -> 157 ;
158 [label="mse = 0.0\nsamples = 1\nvalue = 1.0216338e+17", fillcolor="#f7d9c3"] ;
156 -> 158 ;
159 [label="max_unguided_dls <= 3.106\nmse = 8.600530172092633e+32\nsamples = 34\nvalue = 4.594316326530612e+16", fillcolor="#fbeee4"] ;
155 -> 159 ;
160 [label="AVG_LIQUID_VOLUME <= 31.669\nmse = 4.3059712007575396e+32\nsamples = 23\nvalue = 3.646561935483871e+16", fillcolor="#fcf2ea"] ;
159 -> 160 ;
161 [label="AVG_LIQUID_VOLUME <= 30.09\nmse = 3.432724265844002e+32\nsamples = 8\nvalue = 5.040846e+16", fillcolor="#fbece2"] ;
160 -> 161 ;
162 [label="NIPPLE_SET_DEPTH <= 8685.05\nmse = 4.131422697012247e+32\nsamples = 7\nvalue = 4.559451428571429e+16", fillcolor="#fceee4"] ;
161 -> 162 ;
163 [label="overall_max_sideload <= 56.68\nmse = 3.087573811199999e+32\nsamples = 3\nvalue = 6.20928e+16", fillcolor="#fae8db"] ;
162 -> 163 ;
164 [label="MAX_INCLINATION <= 1.955\nmse = 3.2517365760000048e+31\nsamples = 2\nvalue = 5.0112e+16", fillcolor="#fbece2"] ;
163 -> 164 ;
165 [label="mse = 0.0\nsamples = 1\nvalue = 5.58144e+16", fillcolor="#fbeade"] ;
164 -> 165 ;
166 [label="mse = 2.8823037615171174e+17\nsamples = 1\nvalue = 4.44096e+16", fillcolor="#fcefe5"] ;
164 -> 166 ;
167 [label="mse = 0.0\nsamples = 1\nvalue = 8.60544e+16", fillcolor="#f8dfcd"] ;
163 -> 167 ;
168 [label="manual_scale <= 0.5\nmse = 1.3417705728000101e+32\nsamples = 4\nvalue = 3.32208e+16", fillcolor="#fcf3ec"] ;
162 -> 168 ;
169 [label="NIPPLE_SET_DEPTH <= 9114.65\nmse = 3.502745855999999e+31\nsamples = 2\nvalue = 2.24208e+16", fillcolor="#fdf7f2"] ;
168 -> 169 ;
170 [label="mse = 0.0\nsamples = 1\nvalue = 1.65024e+16", fillcolor="#fef9f6"] ;
169 -> 170 ;
171 [label="mse = 0.0\nsamples = 1\nvalue = 2.83392e+16", fillcolor="#fdf5ef"] ;
169 -> 171 ;
172 [label="rod_apigrade <= 3.0\nmse = 4.665600000018798e+28\nsamples = 2\nvalue = 4.40208e+16", fillcolor="#fcefe5"] ;
168 -> 172 ;
173 [label="mse = 0.0\nsamples = 1\nvalue = 4.38048e+16", fillcolor="#fcefe6"] ;
172 -> 173 ;
174 [label="mse = -2.8823037615171174e+17\nsamples = 1\nvalue = 4.42368e+16", fillcolor="#fcefe5"] ;
172 -> 174 ;
175 [label="mse = 5.764607523034235e+17\nsamples = 1\nvalue = 6.1641e+16", fillcolor="#fae8db"] ;
161 -> 175 ;
176 [label="max_unguided_dls <= 2.448\nmse = 3.355252742791832e+32\nsamples = 15\nvalue = 2.9826171428571428e+16", fillcolor="#fdf4ee"] ;
160 -> 176 ;
177 [label="pump_bore <= 1.375\nmse = 4.4676283405633174e+32\nsamples = 10\nvalue = 3.529384615384615e+16", fillcolor="#fcf2eb"] ;
176 -> 177 ;
178 [label="gas_anchor_length <= 20.67\nmse = 3.276839577599996e+31\nsamples = 4\nvalue = 1.56456e+16", fillcolor="#fef9f6"] ;
177 -> 178 ;
179 [label="AVG_LIQUID_VOLUME <= 40.471\nmse = 1.1943935999999735e+29\nsamples = 2\nvalue = 8726400000000000.0", fillcolor="#fefcfa"] ;
178 -> 179 ;
180 [label="mse = 0.0\nsamples = 1\nvalue = 9072000000000000.0", fillcolor="#fefcfa"] ;
179 -> 180 ;
181 [label="mse = -9007199254740992.0\nsamples = 1\nvalue = 8380800000000000.0", fillcolor="#fefcfa"] ;
179 -> 181 ;
182 [label="gas_anchor_length <= 20.795\nmse = 1.3395571199999245e+30\nsamples = 2\nvalue = 2.02584e+16", fillcolor="#fdf8f3"] ;
178 -> 182 ;
183 [label="mse = 0.0\nsamples = 1\nvalue = 1.944e+16", fillcolor="#fef8f4"] ;
182 -> 183 ;
184 [label="mse = 0.0\nsamples = 1\nvalue = 2.18952e+16", fillcolor="#fdf7f2"] ;
182 -> 184 ;
185 [label="overall_max_sideload <= 24.135\nmse = 3.1342369392000043e+32\nsamples = 6\nvalue = 4.7574e+16", fillcolor="#fbede3"] ;
177 -> 185 ;
186 [label="wellbore_category <= 2.0\nmse = 6.075171072000008e+31\nsamples = 3\nvalue = 6.40656e+16", fillcolor="#fae7da"] ;
185 -> 186 ;
187 [label="mse = 0.0\nsamples = 1\nvalue = 7.74144e+16", fillcolor="#f9e2d2"] ;
186 -> 187 ;
188 [label="MAX_INCLINATION <= 2.45\nmse = 1.8065203199999228e+30\nsamples = 2\nvalue = 5.9616e+16", fillcolor="#fae9dc"] ;
186 -> 188 ;
189 [label="mse = 0.0\nsamples = 1\nvalue = 5.86656e+16", fillcolor="#fbe9dd"] ;
188 -> 189 ;
190 [label="mse = 5.764607523034235e+17\nsamples = 1\nvalue = 6.15168e+16", fillcolor="#fae8db"] ;
188 -> 190 ;
191 [label="AVG_LIQUID_VOLUME <= 62.475\nmse = 2.2149935999999963e+31\nsamples = 3\nvalue = 3.10824e+16", fillcolor="#fdf4ed"] ;
185 -> 191 ;
192 [label="mse = 0.0\nsamples = 1\nvalue = 3.42144e+16", fillcolor="#fcf2eb"] ;
191 -> 192 ;
193 [label="AVG_LIQUID_VOLUME <= 110.945\nmse = 2.4681024e+31\nsamples = 2\nvalue = 2.79504e+16", fillcolor="#fdf5ef"] ;
191 -> 193 ;
194 [label="mse = 0.0\nsamples = 1\nvalue = 2.29824e+16", fillcolor="#fdf7f2"] ;
193 -> 194 ;
195 [label="mse = 0.0\nsamples = 1\nvalue = 3.29184e+16", fillcolor="#fcf3ec"] ;
193 -> 195 ;
196 [label="manual_scale <= 0.5\nmse = 2.724138863999926e+31\nsamples = 5\nvalue = 2.09412e+16", fillcolor="#fdf7f3"] ;
176 -> 196 ;
197 [label="AVG_LIQUID_VOLUME <= 109.618\nmse = 3.1042350602449037e+31\nsamples = 4\nvalue = 2.0834742857142856e+16", fillcolor="#fdf7f3"] ;
196 -> 197 ;
198 [label="MAX_INCLINATION <= 1.765\nmse = 7.869934080000001e+30\nsamples = 3\nvalue = 1.63728e+16", fillcolor="#fef9f6"] ;
197 -> 198 ;
199 [label="DESANDDEGAS_TYP <= 2.0\nmse = 1.035307007999999e+31\nsamples = 2\nvalue = 1.61856e+16", fillcolor="#fef9f6"] ;
198 -> 199 ;
200 [label="mse = 0.0\nsamples = 1\nvalue = 2.0736e+16", fillcolor="#fdf7f3"] ;
199 -> 200 ;
201 [label="mse = 0.0\nsamples = 1\nvalue = 1.39104e+16", fillcolor="#fefaf7"] ;
199 -> 201 ;
202 [label="mse = 3.602879701896397e+16\nsamples = 1\nvalue = 1.69344e+16", fillcolor="#fef9f5"] ;
198 -> 202 ;
203 [label="mse = 0.0\nsamples = 1\nvalue = 2.6784e+16", fillcolor="#fdf5f0"] ;
197 -> 203 ;
204 [label="mse = -1.4411518807585587e+17\nsamples = 1\nvalue = 2.16864e+16", fillcolor="#fdf7f3"] ;
196 -> 204 ;
205 [label="AVG_DIFFERENTIAL_PRESSURE <= 0.073\nmse = 1.1785529548800013e+33\nsamples = 11\nvalue = 6.22656e+16", fillcolor="#fae8db"] ;
159 -> 205 ;
206 [label="wellbore_category <= 1.5\nmse = 1.012315608293878e+33\nsamples = 9\nvalue = 5.1938742857142856e+16", fillcolor="#fbece1"] ;
205 -> 206 ;
207 [label="mse = 0.0\nsamples = 1\nvalue = 1.017792e+17", fillcolor="#f7d9c3"] ;
206 -> 207 ;
208 [label="packer_vs_tac <= 2.0\nmse = 6.98021038080001e+32\nsamples = 8\nvalue = 4.3632e+16", fillcolor="#fcefe6"] ;
206 -> 208 ;
209 [label="DESANDDEGAS_TYP <= 3.5\nmse = 5.9235651993599986e+32\nsamples = 7\nvalue = 5.00256e+16", fillcolor="#fbece2"] ;
208 -> 209 ;
210 [label="mse = 0.0\nsamples = 1\nvalue = 1.17504e+16", fillcolor="#fefbf8"] ;
209 -> 210 ;
211 [label="AVG_LIQUID_VOLUME <= 133.317\nmse = 2.8263598272000047e+32\nsamples = 6\nvalue = 5.95944e+16", fillcolor="#fae9dc"] ;
209 -> 211 ;
212 [label="AVG_PRESSURE_CASING <= 34.588\nmse = 1.4866882560000018e+32\nsamples = 5\nvalue = 5.20416e+16", fillcolor="#fbece1"] ;
211 -> 212 ;
213 [label="AVG_PRESSURE_CASING <= 7.054\nmse = 1.572299735039999e+31\nsamples = 4\nvalue = 5.724864e+16", fillcolor="#fbeade"] ;
212 -> 213 ;
214 [label="NIPPLE_SET_DEPTH <= 8789.35\nmse = 5.988556799999686e+29\nsamples = 2\nvalue = 5.90688e+16", fillcolor="#fae9dc"] ;
213 -> 214 ;
215 [label="mse = 0.0\nsamples = 1\nvalue = 5.9616e+16", fillcolor="#fae9dc"] ;
214 -> 215 ;
216 [label="mse = 0.0\nsamples = 1\nvalue = 5.79744e+16", fillcolor="#fbe9dd"] ;
214 -> 216 ;
217 [label="pump_bore <= 1.375\nmse = 2.5985525759999964e+31\nsamples = 2\nvalue = 5.45184e+16", fillcolor="#fbebdf"] ;
213 -> 217 ;
218 [label="mse = 0.0\nsamples = 1\nvalue = 5.9616e+16", fillcolor="#fae9dc"] ;
217 -> 218 ;
219 [label="mse = -5.764607523034235e+17\nsamples = 1\nvalue = 4.94208e+16", fillcolor="#fbede2"] ;
217 -> 219 ;
220 [label="mse = -1.4411518807585587e+17\nsamples = 1\nvalue = 2.60064e+16", fillcolor="#fdf5f0"] ;
212 -> 220 ;
221 [label="mse = 1.152921504606847e+18\nsamples = 1\nvalue = 8.22528e+16", fillcolor="#f9e0cf"] ;
211 -> 221 ;
222 [label="mse = -1.8014398509481984e+18\nsamples = 1\nvalue = 1.1664e+16", fillcolor="#fefbf9"] ;
208 -> 222 ;
223 [label="MAX_INCLINATION <= 2.48\nmse = 8.074100735999875e+31\nsamples = 2\nvalue = 9.84096e+16", fillcolor="#f7dac5"] ;
205 -> 223 ;
224 [label="mse = 0.0\nsamples = 1\nvalue = 1.073952e+17", fillcolor="#f7d7c0"] ;
223 -> 224 ;
225 [label="mse = 0.0\nsamples = 1\nvalue = 8.9424e+16", fillcolor="#f8decb"] ;
223 -> 225 ;
226 [label="overall_max_sideload <= 23.93\nmse = 3.530838474123436e+32\nsamples = 47\nvalue = 2.487067718024324e+16", fillcolor="#fdf6f1"] ;
154 -> 226 ;
227 [label="gas_anchor_length <= 19.915\nmse = 3.9815857380604674e+32\nsamples = 17\nvalue = 3.0440568752838708e+16", fillcolor="#fdf4ed"] ;
226 -> 227 ;
228 [label="ROUTE <= 901.0\nmse = 2.7115205459306677e+32\nsamples = 10\nvalue = 2.1052090070421052e+16", fillcolor="#fdf7f3"] ;
227 -> 228 ;
229 [label="max_unguided_dls <= 1.835\nmse = 6.735987890108535e+31\nsamples = 8\nvalue = 1.2852900809857142e+16", fillcolor="#fefaf8"] ;
228 -> 229 ;
230 [label="chemgroup2_all <= 0.5\nmse = 1.216885580816327e+31\nsamples = 3\nvalue = 7310057142857143.0", fillcolor="#fefdfb"] ;
229 -> 230 ;
231 [label="AVG_PRESSURE_CASING <= 12.985\nmse = 3.622355280000012e+30\nsamples = 2\nvalue = 1.10724e+16", fillcolor="#fefbf9"] ;
230 -> 231 ;
232 [label="mse = 0.0\nsamples = 1\nvalue = 1.24182e+16", fillcolor="#fefbf8"] ;
231 -> 232 ;
233 [label="mse = 9007199254740992.0\nsamples = 1\nvalue = 8380800000000000.0", fillcolor="#fefcfa"] ;
231 -> 233 ;
234 [label="mse = 6755399441055744.0\nsamples = 1\nvalue = 4488300000000000.0", fillcolor="#fffefd"] ;
230 -> 234 ;
235 [label="AVG_PRESSURE_TUBING <= 48.584\nmse = 6.110467016040325e+31\nsamples = 5\nvalue = 1.8395744476857144e+16", fillcolor="#fef8f5"] ;
229 -> 235 ;
236 [label="gas_anchor_length <= 8.57\nmse = 5.81448792872e+31\nsamples = 3\nvalue = 1.145026e+16", fillcolor="#fefbf9"] ;
235 -> 236 ;
237 [label="mse = 0.0\nsamples = 1\nvalue = 2.09835e+16", fillcolor="#fdf7f3"] ;
236 -> 237 ;
238 [label="Fillage <= 96.88\nmse = 1.905532025760001e+31\nsamples = 2\nvalue = 6683640000000000.0", fillcolor="#fffdfb"] ;
236 -> 238 ;
239 [label="mse = 0.0\nsamples = 1\nvalue = 1.104888e+16", fillcolor="#fefbf9"] ;
238 -> 239 ;
240 [label="mse = -7881299347898368.0\nsamples = 1\nvalue = 2318400000000000.0", fillcolor="#fffefe"] ;
238 -> 240 ;
241 [label="rod_apigrade <= 2.0\nmse = 9.835378834956812e+27\nsamples = 2\nvalue = 2.36048578345e+16", fillcolor="#fdf6f1"] ;
235 -> 241 ;
242 [label="mse = 0.0\nsamples = 1\nvalue = 2.35476e+16", fillcolor="#fdf6f1"] ;
241 -> 242 ;
243 [label="mse = -7.205759403792794e+16\nsamples = 1\nvalue = 2.3776631338e+16", fillcolor="#fdf6f1"] ;
241 -> 243 ;
244 [label="AVG_PRESSURE_CASING <= 30.941\nmse = 1.2647801032559952e+32\nsamples = 2\nvalue = 4.400982e+16", fillcolor="#fcefe5"] ;
228 -> 244 ;
245 [label="mse = 0.0\nsamples = 1\nvalue = 5.77836e+16", fillcolor="#fbeadd"] ;
244 -> 245 ;
246 [label="mse = 0.0\nsamples = 1\nvalue = 3.48273e+16", fillcolor="#fcf2eb"] ;
244 -> 246 ;
247 [label="max_unguided_dls <= 3.545\nmse = 2.387206991539994e+32\nsamples = 7\nvalue = 4.530566e+16", fillcolor="#fceee5"] ;
227 -> 247 ;
248 [label="max_unguided_dls <= 2.649\nmse = 1.9504600104959967e+32\nsamples = 3\nvalue = 3.990528e+16", fillcolor="#fcf0e8"] ;
247 -> 248 ;
249 [label="manual_scale <= 0.5\nmse = 3.408076799998897e+29\nsamples = 2\nvalue = 5.13024e+16", fillcolor="#fbece1"] ;
248 -> 249 ;
250 [label="mse = 0.0\nsamples = 1\nvalue = 5.2128e+16", fillcolor="#fbece1"] ;
249 -> 250 ;
251 [label="mse = -2.8823037615171174e+17\nsamples = 1\nvalue = 5.08896e+16", fillcolor="#fbece1"] ;
249 -> 251 ;
252 [label="mse = -2.8823037615171174e+17\nsamples = 1\nvalue = 2.28096e+16", fillcolor="#fdf7f2"] ;
248 -> 252 ;
253 [label="max_unguided_dls <= 5.684\nmse = 2.342057641537964e+32\nsamples = 4\nvalue = 4.916307428571429e+16", fillcolor="#fbede2"] ;
247 -> 253 ;
254 [label="mse = 0.0\nsamples = 1\nvalue = 6.37632e+16", fillcolor="#fae7da"] ;
253 -> 254 ;
255 [label="rod_apigrade <= 4.5\nmse = 2.0851641412646398e+32\nsamples = 3\nvalue = 4.3323024e+16", fillcolor="#fcefe6"] ;
253 -> 255 ;
256 [label="mse = 0.0\nsamples = 1\nvalue = 4.938276e+16", fillcolor="#fbede2"] ;
255 -> 256 ;
257 [label="NIPPLE_SET_DEPTH <= 4871.5\nmse = 3.067269119999996e+32\nsamples = 2\nvalue = 3.92832e+16", fillcolor="#fcf0e8"] ;
255 -> 257 ;
258 [label="mse = 0.0\nsamples = 1\nvalue = 1.45152e+16", fillcolor="#fefaf7"] ;
257 -> 258 ;
259 [label="mse = 0.0\nsamples = 1\nvalue = 5.16672e+16", fillcolor="#fbece1"] ;
257 -> 259 ;
260 [label="FAILURETYPE <= 2.5\nmse = 2.8209793068432707e+32\nsamples = 30\nvalue = 2.0855173953488372e+16", fillcolor="#fdf7f3"] ;
226 -> 260 ;
261 [label="NIPPLE_SET_DEPTH <= 10318.4\nmse = 2.249071769811836e+32\nsamples = 29\nvalue = 1.9636068571428572e+16", fillcolor="#fef8f4"] ;
260 -> 261 ;
262 [label="AVG_PRESSURE_TUBING <= 80.072\nmse = 2.4203728048037023e+32\nsamples = 24\nvalue = 2.2455405454545456e+16", fillcolor="#fdf7f2"] ;
261 -> 262 ;
263 [label="Fillage <= 16.35\nmse = 1.2018415296489788e+32\nsamples = 16\nvalue = 1.5347528571428572e+16", fillcolor="#fef9f6"] ;
262 -> 263 ;
264 [label="StrokeLength <= 141.5\nmse = 2.505421547999999e+31\nsamples = 7\nvalue = 9908400000000000.0", fillcolor="#fefcfa"] ;
263 -> 264 ;
265 [label="mse = 0.0\nsamples = 1\nvalue = 1.44288e+16", fillcolor="#fefaf7"] ;
264 -> 265 ;
266 [label="ROUTE <= 879.0\nmse = 2.530535743338842e+31\nsamples = 6\nvalue = 9497454545454546.0", fillcolor="#fefcfa"] ;
264 -> 266 ;
267 [label="gas_anchor_length <= 20.665\nmse = 1.0100752447499998e+31\nsamples = 4\nvalue = 1.205325e+16", fillcolor="#fefbf8"] ;
266 -> 267 ;
268 [label="mse = 0.0\nsamples = 1\nvalue = 1.944e+16", fillcolor="#fef8f4"] ;
267 -> 268 ;
269 [label="AVG_PRESSURE_TUBING <= 21.242\nmse = 2.635296582857146e+30\nsamples = 3\nvalue = 1.0998e+16", fillcolor="#fefbf9"] ;
267 -> 269 ;
270 [label="pump_bore <= 1.5\nmse = 5.804752895999859e+29\nsamples = 2\nvalue = 1.194048e+16", fillcolor="#fefbf8"] ;
269 -> 270 ;
271 [label="mse = 0.0\nsamples = 1\nvalue = 1.28736e+16", fillcolor="#fefaf8"] ;
270 -> 271 ;
272 [label="mse = 0.0\nsamples = 1\nvalue = 1.13184e+16", fillcolor="#fefbf9"] ;
270 -> 272 ;
273 [label="mse = 9007199254740992.0\nsamples = 1\nvalue = 8641800000000000.0", fillcolor="#fefcfa"] ;
269 -> 273 ;
274 [label="FAILURETYPE <= 0.5\nmse = 1.9816423199999e+30\nsamples = 2\nvalue = 2682000000000000.0", fillcolor="#fffefe"] ;
266 -> 274 ;
275 [label="mse = 0.0\nsamples = 1\nvalue = 3677400000000000.0", fillcolor="#fffefd"] ;
274 -> 275 ;
276 [label="mse = -1548112371908608.0\nsamples = 1\nvalue = 691200000000000.0", fillcolor="#ffffff"] ;
274 -> 276 ;
277 [label="AVG_PRESSURE_CASING <= 32.32\nmse = 1.5498458635999987e+32\nsamples = 9\nvalue = 2.25997e+16", fillcolor="#fdf7f2"] ;
263 -> 277 ;
278 [label="AVG_DIFFERENTIAL_PRESSURE <= -5.309\nmse = 5.882022258750002e+31\nsamples = 4\nvalue = 1.128465e+16", fillcolor="#fefbf9"] ;
277 -> 278 ;
279 [label="pump_bore <= 1.875\nmse = 6.798013290000001e+30\nsamples = 2\nvalue = 4050900000000000.0", fillcolor="#fffefd"] ;
278 -> 279 ;
280 [label="mse = 0.0\nsamples = 1\nvalue = 1443600000000000.0", fillcolor="#ffffff"] ;
279 -> 280 ;
281 [label="mse = 0.0\nsamples = 1\nvalue = 6658200000000000.0", fillcolor="#fffdfb"] ;
279 -> 281 ;
282 [label="AVG_LIQUID_VOLUME <= 47.036\nmse = 6.188153760000059e+30\nsamples = 2\nvalue = 1.85184e+16", fillcolor="#fef8f4"] ;
278 -> 282 ;
283 [label="mse = 0.0\nsamples = 1\nvalue = 2.1006e+16", fillcolor="#fdf7f3"] ;
282 -> 283 ;
284 [label="mse = 7.205759403792794e+16\nsamples = 1\nvalue = 1.60308e+16", fillcolor="#fef9f6"] ;
282 -> 284 ;
285 [label="chemgroup1_any <= 0.5\nmse = 4.7552364014400055e+31\nsamples = 5\nvalue = 3.165174e+16", fillcolor="#fdf3ed"] ;
277 -> 285 ;
286 [label="gas_anchor_length <= 12.24\nmse = 1.369259012250006e+31\nsamples = 2\nvalue = 3.884355e+16", fillcolor="#fcf1e8"] ;
285 -> 286 ;
287 [label="mse = 0.0\nsamples = 1\nvalue = 4.25439e+16", fillcolor="#fcefe6"] ;
286 -> 287 ;
288 [label="mse = 1.4411518807585587e+17\nsamples = 1\nvalue = 3.51432e+16", fillcolor="#fcf2eb"] ;
286 -> 288 ;
289 [label="NIPPLE_SET_DEPTH <= 9927.6\nmse = 1.2656512079999684e+31\nsamples = 3\nvalue = 2.68572e+16", fillcolor="#fdf5f0"] ;
285 -> 289 ;
290 [label="wellbore_category <= 2.0\nmse = 1.2394368899999663e+30\nsamples = 2\nvalue = 2.44251e+16", fillcolor="#fdf6f1"] ;
289 -> 290 ;
291 [label="mse = 0.0\nsamples = 1\nvalue = 2.33118e+16", fillcolor="#fdf6f2"] ;
290 -> 291 ;
292 [label="mse = 0.0\nsamples = 1\nvalue = 2.55384e+16", fillcolor="#fdf6f0"] ;
290 -> 292 ;
293 [label="mse = -1.4411518807585587e+17\nsamples = 1\nvalue = 3.17214e+16", fillcolor="#fdf3ed"] ;
289 -> 293 ;
294 [label="AVG_LIQUID_VOLUME <= 67.484\nmse = 2.1214354353949982e+32\nsamples = 8\nvalue = 3.489419e+16", fillcolor="#fcf2eb"] ;
262 -> 294 ;
295 [label="AVG_PRESS_FLOWLINE <= 21.824\nmse = 4.0460667007499985e+31\nsamples = 2\nvalue = 1.747215e+16", fillcolor="#fef9f5"] ;
294 -> 295 ;
296 [label="mse = 0.0\nsamples = 1\nvalue = 6454800000000000.0", fillcolor="#fffdfc"] ;
295 -> 296 ;
297 [label="mse = -7.205759403792794e+16\nsamples = 1\nvalue = 2.11446e+16", fillcolor="#fdf7f3"] ;
295 -> 297 ;
298 [label="max_unguided_dls <= 2.24\nmse = 7.033937348430043e+31\nsamples = 6\nvalue = 4.360521e+16", fillcolor="#fcefe6"] ;
294 -> 298 ;
299 [label="AVG_PRESSURE_CASING <= 25.248\nmse = 4.772893455359998e+31\nsamples = 4\nvalue = 4.852332e+16", fillcolor="#fbede3"] ;
298 -> 299 ;
300 [label="mse = 0.0\nsamples = 1\nvalue = 3.52314e+16", fillcolor="#fcf2eb"] ;
299 -> 300 ;
301 [label="chemgroup2_any <= 0.5\nmse = 4.450187789999801e+30\nsamples = 3\nvalue = 5.18463e+16", fillcolor="#fbece1"] ;
299 -> 301 ;
302 [label="manual_scale <= 0.5\nmse = 8.305027200002346e+29\nsamples = 2\nvalue = 5.07168e+16", fillcolor="#fbece1"] ;
301 -> 302 ;
303 [label="mse = 0.0\nsamples = 1\nvalue = 5.00724e+16", fillcolor="#fbece2"] ;
302 -> 303 ;
304 [label="mse = 0.0\nsamples = 1\nvalue = 5.20056e+16", fillcolor="#fbece1"] ;
302 -> 304 ;
305 [label="mse = 5.764607523034235e+17\nsamples = 1\nvalue = 5.52348e+16", fillcolor="#fbeadf"] ;
301 -> 305 ;
306 [label="AVG_PRESSURE_CASING <= 28.748\nmse = 5.220784928000009e+29\nsamples = 2\nvalue = 3.540836e+16", fillcolor="#fcf2ea"] ;
298 -> 306 ;
307 [label="mse = 0.0\nsamples = 1\nvalue = 3.489744e+16", fillcolor="#fcf2eb"] ;
306 -> 307 ;
308 [label="mse = 2.8823037615171174e+17\nsamples = 1\nvalue = 3.64302e+16", fillcolor="#fcf2ea"] ;
306 -> 308 ;
309 [label="SecondarySetpoint <= 62.5\nmse = 2.608638516e+31\nsamples = 5\nvalue = 9298500000000000.0", fillcolor="#fefcfa"] ;
261 -> 309 ;
310 [label="gas_anchor_length <= 20.355\nmse = 1.112154158249999e+31\nsamples = 4\nvalue = 7875450000000000.0", fillcolor="#fefcfb"] ;
309 -> 310 ;
311 [label="mse = 0.0\nsamples = 1\nvalue = 4929300000000000.0", fillcolor="#fffdfc"] ;
310 -> 311 ;
312 [label="AVG_PRESSURE_CASING <= 37.667\nmse = 4.8834835199999945e+30\nsamples = 3\nvalue = 1.08216e+16", fillcolor="#fefbf9"] ;
310 -> 312 ;
313 [label="mse = 0.0\nsamples = 1\nvalue = 1.20096e+16", fillcolor="#fefbf8"] ;
312 -> 313 ;
314 [label="AVG_DIFFERENTIAL_PRESSURE <= -50.337\nmse = 6.944279040000001e+30\nsamples = 2\nvalue = 9633600000000000.0", fillcolor="#fefcfa"] ;
312 -> 314 ;
315 [label="mse = 0.0\nsamples = 1\nvalue = 1.22688e+16", fillcolor="#fefbf8"] ;
314 -> 315 ;
316 [label="mse = -9007199254740992.0\nsamples = 1\nvalue = 6998400000000000.0", fillcolor="#fffdfb"] ;
314 -> 316 ;
317 [label="mse = 7.205759403792794e+16\nsamples = 1\nvalue = 2.06829e+16", fillcolor="#fdf7f3"] ;
309 -> 317 ;
318 [label="mse = 5.764607523034235e+18\nsamples = 1\nvalue = 7.20576e+16", fillcolor="#f9e4d5"] ;
260 -> 318 ;
319 [label="chemgroup2_any <= 0.5\nmse = 6.502299287507387e+32\nsamples = 583\nvalue = 3.7385698669607864e+16", fillcolor="#fcf1e9"] ;
95 -> 319 ;
320 [label="AVG_PRESSURE_CASING <= 50.039\nmse = 4.69958921335023e+32\nsamples = 388\nvalue = 3.327881937349833e+16", fillcolor="#fcf3ec"] ;
319 -> 320 ;
321 [label="SecondarySetpoint <= 63.0\nmse = 8.321620305893752e+32\nsamples = 11\nvalue = 5.894487500000001e+16", fillcolor="#fae9dd"] ;
320 -> 321 ;
322 [label="ROUTE <= 884.5\nmse = 6.134690304423955e+32\nsamples = 10\nvalue = 6.3897518181818184e+16", fillcolor="#fae7da"] ;
321 -> 322 ;
323 [label="DESANDDEGAS_TYP <= 2.5\nmse = 5.1711658710750014e+32\nsamples = 5\nvalue = 4.863165e+16", fillcolor="#fbede3"] ;
322 -> 323 ;
324 [label="overall_max_sideload <= 48.645\nmse = 6.893639619200005e+32\nsamples = 4\nvalue = 4.8455e+16", fillcolor="#fbede3"] ;
323 -> 324 ;
325 [label="FAILURETYPE <= 1.5\nmse = 2.6437265250750064e+32\nsamples = 2\nvalue = 7.381575000000002e+16", fillcolor="#f9e3d4"] ;
324 -> 325 ;
326 [label="mse = 0.0\nsamples = 1\nvalue = 4.56534e+16", fillcolor="#fceee4"] ;
325 -> 326 ;
327 [label="mse = 0.0\nsamples = 1\nvalue = 8.32032e+16", fillcolor="#f9e0ce"] ;
325 -> 327 ;
328 [label="overall_max_sideload <= 132.23\nmse = 1.0319560704000033e+32\nsamples = 2\nvalue = 2.81664e+16", fillcolor="#fdf5ef"] ;
324 -> 328 ;
329 [label="mse = 0.0\nsamples = 1\nvalue = 4.0608e+16", fillcolor="#fcf0e7"] ;
328 -> 329 ;
330 [label="mse = 0.0\nsamples = 1\nvalue = 1.9872e+16", fillcolor="#fef8f4"] ;
328 -> 330 ;
331 [label="mse = 0.0\nsamples = 1\nvalue = 4.91616e+16", fillcolor="#fbede2"] ;
323 -> 331 ;
332 [label="AVG_DIFFERENTIAL_PRESSURE <= -9.986\nmse = 1.1384859169439895e+32\nsamples = 5\nvalue = 8.221656e+16", fillcolor="#f9e0cf"] ;
322 -> 332 ;
333 [label="chemgroup1_any <= 0.5\nmse = 3.932288999999791e+30\nsamples = 2\nvalue = 6.73296e+16", fillcolor="#fae6d8"] ;
332 -> 333 ;
334 [label="mse = 0.0\nsamples = 1\nvalue = 6.53466e+16", fillcolor="#fae7d9"] ;
333 -> 334 ;
335 [label="mse = -5.764607523034235e+17\nsamples = 1\nvalue = 6.93126e+16", fillcolor="#fae5d6"] ;
333 -> 335 ;
336 [label="AVG_PRESSURE_CASING <= 48.239\nmse = 7.20709242299996e+31\nsamples = 3\nvalue = 8.59383e+16", fillcolor="#f8dfcd"] ;
332 -> 336 ;
337 [label="mse = 0.0\nsamples = 1\nvalue = 1.005408e+17", fillcolor="#f7d9c4"] ;
336 -> 337 ;
338 [label="max_unguided_dls <= 1.27\nmse = 1.324340639998761e+30\nsamples = 2\nvalue = 8.10708e+16", fillcolor="#f9e1cf"] ;
336 -> 338 ;
339 [label="mse = 0.0\nsamples = 1\nvalue = 8.22216e+16", fillcolor="#f9e0cf"] ;
338 -> 339 ;
340 [label="mse = 0.0\nsamples = 1\nvalue = 7.992e+16", fillcolor="#f9e1d0"] ;
338 -> 340 ;
341 [label="mse = 9.727775195120271e+18\nsamples = 1\nvalue = 4465800000000000.0", fillcolor="#fffefd"] ;
321 -> 341 ;
342 [label="MAX_INCLINATION <= 14.485\nmse = 4.2611949591457636e+32\nsamples = 377\nvalue = 3.2205674190508716e+16", fillcolor="#fdf3ec"] ;
320 -> 342 ;
343 [label="Fillage <= 92.795\nmse = 4.2990171784123314e+32\nsamples = 361\nvalue = 3.2897917965970804e+16", fillcolor="#fdf3ec"] ;
342 -> 343 ;
344 [label="AVG_PRESSURE_CASING <= 138.803\nmse = 4.514499570444249e+32\nsamples = 270\nvalue = 3.4838602801004856e+16", fillcolor="#fcf2eb"] ;
343 -> 344 ;
345 [label="rod_make <= 3.5\nmse = 4.647734828750138e+32\nsamples = 196\nvalue = 3.682924521481209e+16", fillcolor="#fcf1ea"] ;
344 -> 345 ;
346 [label="wellbore_category <= 0.5\nmse = 4.368849626981558e+32\nsamples = 193\nvalue = 3.635251834134471e+16", fillcolor="#fcf2ea"] ;
345 -> 346 ;
347 [label="Fillage <= 90.283\nmse = 6.957112087199773e+32\nsamples = 10\nvalue = 5.0386976958625e+16", fillcolor="#fbece2"] ;
346 -> 347 ;
348 [label="ROUTE <= 884.5\nmse = 5.5279968389510775e+32\nsamples = 9\nvalue = 4.6947388755866664e+16", fillcolor="#fbeee4"] ;
347 -> 348 ;
349 [label="AVG_DIFFERENTIAL_PRESSURE <= 10.147\nmse = 6.079341692532532e+32\nsamples = 7\nvalue = 5.197013012163636e+16", fillcolor="#fbece1"] ;
348 -> 349 ;
350 [label="AVG_DIFFERENTIAL_PRESSURE <= 7.915\nmse = 5.7456432072000034e+32\nsamples = 2\nvalue = 7.4856e+16", fillcolor="#f9e3d3"] ;
349 -> 350 ;
351 [label="mse = 0.0\nsamples = 1\nvalue = 4.09572e+16", fillcolor="#fcf0e7"] ;
350 -> 351 ;
352 [label="mse = 0.0\nsamples = 1\nvalue = 9.18054e+16", fillcolor="#f8ddc9"] ;
350 -> 352 ;
353 [label="max_unguided_dls <= 1.954\nmse = 3.5038254490712956e+32\nsamples = 5\nvalue = 4.338792891725e+16", fillcolor="#fcefe6"] ;
349 -> 353 ;
354 [label="overall_max_sideload <= 289.035\nmse = 2.977841070000061e+30\nsamples = 2\nvalue = 2.75967e+16", fillcolor="#fdf5ef"] ;
353 -> 354 ;
355 [label="mse = 0.0\nsamples = 1\nvalue = 3.05856e+16", fillcolor="#fdf4ed"] ;
354 -> 355 ;
356 [label="mse = 0.0\nsamples = 1\nvalue = 2.66004e+16", fillcolor="#fdf5f0"] ;
354 -> 356 ;
357 [label="AVG_PRESSURE_CASING <= 122.796\nmse = 1.9906142731027456e+32\nsamples = 3\nvalue = 5.91791578345e+16", fillcolor="#fae9dc"] ;
353 -> 357 ;
358 [label="AVG_LIQUID_VOLUME <= 217.65\nmse = 4.453321680000303e+30\nsamples = 2\nvalue = 5.1102e+16", fillcolor="#fbece1"] ;
357 -> 358 ;
359 [label="mse = 0.0\nsamples = 1\nvalue = 4.96098e+16", fillcolor="#fbede2"] ;
358 -> 359 ;
360 [label="mse = 5.764607523034235e+17\nsamples = 1\nvalue = 5.40864e+16", fillcolor="#fbebdf"] ;
358 -> 360 ;
361 [label="mse = -1.152921504606847e+18\nsamples = 1\nvalue = 8.3410631338e+16", fillcolor="#f9e0ce"] ;
357 -> 361 ;
362 [label="pump_bore <= 1.875\nmse = 1.4101681250250074e+32\nsamples = 2\nvalue = 3.313485e+16", fillcolor="#fcf3ec"] ;
348 -> 362 ;
363 [label="mse = 0.0\nsamples = 1\nvalue = 2.12598e+16", fillcolor="#fdf7f3"] ;
362 -> 363 ;
364 [label="mse = 0.0\nsamples = 1\nvalue = 4.50099e+16", fillcolor="#fceee5"] ;
362 -> 364 ;
365 [label="mse = -4.611686018427388e+18\nsamples = 1\nvalue = 1.019808e+17", fillcolor="#f7d9c3"] ;
347 -> 365 ;
366 [label="rod_make <= 2.5\nmse = 4.099004501302707e+32\nsamples = 183\nvalue = 3.554186369197112e+16", fillcolor="#fcf2ea"] ;
346 -> 366 ;
367 [label="NIPPLE_SET_DEPTH <= 10251.0\nmse = 4.255984083802546e+32\nsamples = 103\nvalue = 3.769648184558537e+16", fillcolor="#fcf1e9"] ;
366 -> 367 ;
368 [label="ROUTE <= 872.5\nmse = 3.726340212394678e+32\nsamples = 81\nvalue = 3.558345941861654e+16", fillcolor="#fcf2ea"] ;
367 -> 368 ;
369 [label="gas_anchor_length <= 17.085\nmse = 7.6604966045594875e+31\nsamples = 11\nvalue = 2.2425495e+16", fillcolor="#fdf7f2"] ;
368 -> 369 ;
370 [label="wellbore_category <= 2.0\nmse = 2.3165540814799884e+31\nsamples = 3\nvalue = 3.054628e+16", fillcolor="#fdf4ed"] ;
369 -> 370 ;
371 [label="mse = 0.0\nsamples = 1\nvalue = 2.01906e+16", fillcolor="#fdf8f3"] ;
370 -> 371 ;
372 [label="MAX_INCLINATION <= 2.065\nmse = 2.0610229947839543e+30\nsamples = 2\nvalue = 3.2617416e+16", fillcolor="#fdf3ec"] ;
370 -> 372 ;
373 [label="mse = 0.0\nsamples = 1\nvalue = 3.085914e+16", fillcolor="#fdf4ed"] ;
372 -> 373 ;
374 [label="mse = 1.4411518807585587e+17\nsamples = 1\nvalue = 3.37896e+16", fillcolor="#fcf3eb"] ;
372 -> 374 ;
375 [label="NIPPLE_SET_DEPTH <= 8641.8\nmse = 5.913177133865495e+31\nsamples = 8\nvalue = 1.8945158571428572e+16", fillcolor="#fef8f4"] ;
369 -> 375 ;
376 [label="mse = 0.0\nsamples = 1\nvalue = 3.9312e+16", fillcolor="#fcf0e8"] ;
375 -> 376 ;
377 [label="bha_configuration <= 3.5\nmse = 2.9317557199782174e+31\nsamples = 7\nvalue = 1.7378478461538462e+16", fillcolor="#fef9f5"] ;
375 -> 377 ;
378 [label="rod_sinker_type <= 1.5\nmse = 2.6025386428653113e+31\nsamples = 5\nvalue = 2.0275174285714284e+16", fillcolor="#fdf8f3"] ;
377 -> 378 ;
379 [label="AVG_PRESS_FLOWLINE <= 50.758\nmse = 2.051930737440003e+31\nsamples = 4\nvalue = 2.240766e+16", fillcolor="#fdf7f2"] ;
378 -> 379 ;
380 [label="AVG_PRESS_FLOWLINE <= 24.373\nmse = 7.267787370000007e+30\nsamples = 3\nvalue = 2.04903e+16", fillcolor="#fdf8f3"] ;
379 -> 380 ;
381 [label="overall_max_sideload <= 231.335\nmse = 1.533634560000008e+30\nsamples = 2\nvalue = 2.304e+16", fillcolor="#fdf7f2"] ;
380 -> 381 ;
382 [label="mse = 0.0\nsamples = 1\nvalue = 2.42784e+16", fillcolor="#fdf6f1"] ;
381 -> 382 ;
383 [label="mse = 7.205759403792794e+16\nsamples = 1\nvalue = 2.18016e+16", fillcolor="#fdf7f3"] ;
381 -> 383 ;
384 [label="mse = -7.205759403792794e+16\nsamples = 1\nvalue = 1.79406e+16", fillcolor="#fef9f5"] ;
380 -> 384 ;
385 [label="mse = 0.0\nsamples = 1\nvalue = 3.00771e+16", fillcolor="#fdf4ee"] ;
379 -> 385 ;
386 [label="mse = 1.4411518807585587e+17\nsamples = 1\nvalue = 1.494396e+16", fillcolor="#fefaf7"] ;
378 -> 386 ;
387 [label="rod_sinker_type <= 2.0\nmse = 1.1948227279999922e+31\nsamples = 2\nvalue = 1.3999e+16", fillcolor="#fefaf7"] ;
377 -> 387 ;
388 [label="mse = 0.0\nsamples = 1\nvalue = 1.15548e+16", fillcolor="#fefbf9"] ;
387 -> 388 ;
389 [label="mse = -7.205759403792794e+16\nsamples = 1\nvalue = 1.88874e+16", fillcolor="#fef8f4"] ;
387 -> 389 ;
390 [label="AVG_PRESS_FLOWLINE <= 53.376\nmse = 3.889621966025781e+32\nsamples = 70\nvalue = 3.791230267854867e+16", fillcolor="#fcf1e9"] ;
368 -> 390 ;
391 [label="DESANDDEGAS_TYP <= 3.5\nmse = 3.499299231368936e+32\nsamples = 25\nvalue = 3.0810915e+16", fillcolor="#fdf4ed"] ;
390 -> 391 ;
392 [label="AVG_LIQUID_VOLUME <= 96.02\nmse = 1.6650130038836642e+32\nsamples = 19\nvalue = 2.3564874193548388e+16", fillcolor="#fdf6f1"] ;
391 -> 392 ;
393 [label="rod_sinker_type <= 0.5\nmse = 2.0661589192500004e+31\nsamples = 7\nvalue = 1.675785e+16", fillcolor="#fef9f6"] ;
392 -> 393 ;
394 [label="AVG_PRESS_FLOWLINE <= 41.374\nmse = 7.022700000004425e+28\nsamples = 2\nvalue = 2.14542e+16", fillcolor="#fdf7f3"] ;
393 -> 394 ;
395 [label="mse = 0.0\nsamples = 1\nvalue = 2.16072e+16", fillcolor="#fdf7f3"] ;
394 -> 395 ;
396 [label="mse = 7.205759403792794e+16\nsamples = 1\nvalue = 2.09952e+16", fillcolor="#fdf7f3"] ;
394 -> 396 ;
397 [label="gas_anchor_length <= 17.185\nmse = 1.4415492796874964e+31\nsamples = 5\nvalue = 1.4409675e+16", fillcolor="#fefaf7"] ;
393 -> 397 ;
398 [label="AVG_LIQUID_VOLUME <= 24.649\nmse = 2.6473685625000155e+30\nsamples = 3\nvalue = 1.095885e+16", fillcolor="#fefbf9"] ;
397 -> 398 ;
399 [label="mse = 0.0\nsamples = 1\nvalue = 1.37556e+16", fillcolor="#fefaf7"] ;
398 -> 399 ;
400 [label="ROUTE <= 885.5\nmse = 5.346450000000749e+28\nsamples = 2\nvalue = 1.00266e+16", fillcolor="#fefbf9"] ;
398 -> 400 ;
401 [label="mse = 0.0\nsamples = 1\nvalue = 1.03536e+16", fillcolor="#fefbf9"] ;
400 -> 401 ;
402 [label="mse = 0.0\nsamples = 1\nvalue = 9863100000000000.0", fillcolor="#fefcfa"] ;
400 -> 402 ;
403 [label="FAILURETYPE <= 1.5\nmse = 2.3672306699998957e+30\nsamples = 2\nvalue = 1.78605e+16", fillcolor="#fef9f5"] ;
397 -> 403 ;
404 [label="mse = 0.0\nsamples = 1\nvalue = 1.87488e+16", fillcolor="#fef8f4"] ;
403 -> 404 ;
405 [label="mse = -7.205759403792794e+16\nsamples = 1\nvalue = 1.51956e+16", fillcolor="#fefaf6"] ;
403 -> 405 ;
406 [label="NIPPLE_SET_DEPTH <= 9955.6\nmse = 2.1086312586880924e+32\nsamples = 12\nvalue = 2.7864047368421052e+16", fillcolor="#fdf5ef"] ;
392 -> 406 ;
407 [label="Fillage <= 87.716\nmse = 3.7153792186874935e+31\nsamples = 9\nvalue = 2.2822275e+16", fillcolor="#fdf7f2"] ;
406 -> 407 ;
408 [label="bha_configuration <= 3.5\nmse = 2.350162952000005e+31\nsamples = 7\nvalue = 2.06983e+16", fillcolor="#fdf7f3"] ;
407 -> 408 ;
409 [label="AVG_PRESSURE_CASING <= 71.71\nmse = 1.642718303999997e+31\nsamples = 5\nvalue = 2.21988e+16", fillcolor="#fdf7f2"] ;
408 -> 409 ;
410 [label="mse = 0.0\nsamples = 1\nvalue = 2.66112e+16", fillcolor="#fdf5f0"] ;
409 -> 410 ;
411 [label="NIPPLE_SET_DEPTH <= 9905.35\nmse = 1.0038819239999914e+31\nsamples = 4\nvalue = 1.99926e+16", fillcolor="#fef8f4"] ;
409 -> 411 ;
412 [label="AVG_DIFFERENTIAL_PRESSURE <= 29.24\nmse = 3.925776960000007e+30\nsamples = 3\nvalue = 2.15304e+16", fillcolor="#fdf7f3"] ;
411 -> 412 ;
413 [label="AVG_PRESS_FLOWLINE <= 26.623\nmse = 3.048515999998033e+28\nsamples = 2\nvalue = 2.0133e+16", fillcolor="#fdf8f4"] ;
412 -> 413 ;
414 [label="mse = 0.0\nsamples = 1\nvalue = 1.99584e+16", fillcolor="#fef8f4"] ;
413 -> 414 ;
415 [label="mse = 0.0\nsamples = 1\nvalue = 2.03076e+16", fillcolor="#fdf8f3"] ;
413 -> 415 ;
416 [label="mse = -7.205759403792794e+16\nsamples = 1\nvalue = 2.43252e+16", fillcolor="#fdf6f1"] ;
412 -> 416 ;
417 [label="mse = 3.602879701896397e+16\nsamples = 1\nvalue = 1.53792e+16", fillcolor="#fef9f6"] ;
411 -> 417 ;
418 [label="Fillage <= 80.912\nmse = 2.4141520980000114e+31\nsamples = 2\nvalue = 1.76973e+16", fillcolor="#fef9f5"] ;
408 -> 418 ;
419 [label="mse = 0.0\nsamples = 1\nvalue = 1.07487e+16", fillcolor="#fefbf9"] ;
418 -> 419 ;
420 [label="mse = 0.0\nsamples = 1\nvalue = 2.11716e+16", fillcolor="#fdf7f3"] ;
418 -> 420 ;
421 [label="manual_scale <= 0.5\nmse = 2.3975042579999823e+31\nsamples = 2\nvalue = 2.91942e+16", fillcolor="#fdf4ee"] ;
407 -> 421 ;
422 [label="mse = 0.0\nsamples = 1\nvalue = 3.26565e+16", fillcolor="#fdf3ec"] ;
421 -> 422 ;
423 [label="mse = 2.161727821137838e+17\nsamples = 1\nvalue = 2.22696e+16", fillcolor="#fdf7f2"] ;
421 -> 423 ;
424 [label="AVG_PRESSURE_TUBING <= 53.978\nmse = 3.903722112783674e+32\nsamples = 3\nvalue = 3.650708571428571e+16", fillcolor="#fcf2ea"] ;
406 -> 424 ;
425 [label="mse = 0.0\nsamples = 1\nvalue = 5.92068e+16", fillcolor="#fae9dc"] ;
424 -> 425 ;
426 [label="rod_sinker_type <= 0.5\nmse = 6.850269630000096e+30\nsamples = 2\nvalue = 1.94823e+16", fillcolor="#fef8f4"] ;
424 -> 426 ;
427 [label="mse = 0.0\nsamples = 1\nvalue = 2.40156e+16", fillcolor="#fdf6f1"] ;
426 -> 427 ;
428 [label="mse = 0.0\nsamples = 1\nvalue = 1.79712e+16", fillcolor="#fef9f5"] ;
426 -> 428 ;
429 [label="StrokeLength <= 144.02\nmse = 3.635676066674561e+32\nsamples = 6\nvalue = 4.8089935384615384e+16", fillcolor="#fbede3"] ;
391 -> 429 ;
430 [label="NIPPLE_SET_DEPTH <= 9979.4\nmse = 2.9325342240000008e+32\nsamples = 4\nvalue = 5.62164e+16", fillcolor="#fbeade"] ;
429 -> 430 ;
431 [label="NIPPLE_SET_DEPTH <= 9939.85\nmse = 2.906676264959974e+31\nsamples = 2\nvalue = 4.477248e+16", fillcolor="#fceee5"] ;
430 -> 431 ;
432 [label="mse = 0.0\nsamples = 1\nvalue = 5.55552e+16", fillcolor="#fbeadf"] ;
431 -> 432 ;
433 [label="mse = 0.0\nsamples = 1\nvalue = 4.20768e+16", fillcolor="#fcefe7"] ;
431 -> 433 ;
434 [label="FAILURETYPE <= 1.5\nmse = 2.551524518700004e+32\nsamples = 2\nvalue = 7.05213e+16", fillcolor="#fae5d6"] ;
430 -> 434 ;
435 [label="mse = 0.0\nsamples = 1\nvalue = 7.97436e+16", fillcolor="#f9e1d0"] ;
434 -> 435 ;
436 [label="mse = -5.764607523034235e+17\nsamples = 1\nvalue = 4.28544e+16", fillcolor="#fcefe6"] ;
434 -> 436 ;
437 [label="Fillage <= 82.701\nmse = 3.8861210270699683e+31\nsamples = 2\nvalue = 2.980539e+16", fillcolor="#fdf4ee"] ;
429 -> 437 ;
438 [label="mse = 0.0\nsamples = 1\nvalue = 1.9008e+16", fillcolor="#fef8f4"] ;
437 -> 438 ;
439 [label="mse = 0.0\nsamples = 1\nvalue = 3.340452e+16", fillcolor="#fcf3ec"] ;
437 -> 439 ;
440 [label="AVG_PRESSURE_CASING <= 117.669\nmse = 3.6118767008115764e+32\nsamples = 45\nvalue = 4.244072380689854e+16", fillcolor="#fcefe6"] ;
390 -> 440 ;
441 [label="AVG_PRESS_FLOWLINE <= 58.602\nmse = 3.613278123194888e+32\nsamples = 33\nvalue = 4.029260963407843e+16", fillcolor="#fcf0e8"] ;
440 -> 441 ;
442 [label="max_unguided_dls <= 2.241\nmse = 1.837360737896213e+32\nsamples = 8\nvalue = 5.188745625676923e+16", fillcolor="#fbece1"] ;
441 -> 442 ;
443 [label="gas_anchor_length <= 17.14\nmse = 1.2476185626814944e+32\nsamples = 7\nvalue = 5.4277910944833336e+16", fillcolor="#fbebdf"] ;
442 -> 443 ;
444 [label="StrokeLength <= 156.11\nmse = 8.721137419443713e+31\nsamples = 4\nvalue = 6.103523304828571e+16", fillcolor="#fae8db"] ;
443 -> 444 ;
445 [label="NIPPLE_SET_DEPTH <= 9961.2\nmse = 1.4402665079401992e+31\nsamples = 2\nvalue = 7.5286115669e+16", fillcolor="#f9e3d3"] ;
444 -> 445 ;
446 [label="mse = 0.0\nsamples = 1\nvalue = 7.90812e+16", fillcolor="#f9e2d1"] ;
445 -> 446 ;
447 [label="mse = 5.764607523034235e+17\nsamples = 1\nvalue = 7.1491031338e+16", fillcolor="#fae4d5"] ;
445 -> 447 ;
448 [label="AVG_DIFFERENTIAL_PRESSURE <= -30.884\nmse = 2.6057707775999657e+30\nsamples = 2\nvalue = 5.533488e+16", fillcolor="#fbeadf"] ;
444 -> 448 ;
449 [label="mse = 0.0\nsamples = 1\nvalue = 5.6142e+16", fillcolor="#fbeade"] ;
448 -> 449 ;
450 [label="mse = -1.152921504606847e+18\nsamples = 1\nvalue = 5.21064e+16", fillcolor="#fbece1"] ;
448 -> 450 ;
451 [label="NIPPLE_SET_DEPTH <= 9732.75\nmse = 2.3910220418399726e+31\nsamples = 3\nvalue = 4.481766e+16", fillcolor="#fceee5"] ;
443 -> 451 ;
452 [label="mse = 0.0\nsamples = 1\nvalue = 4.88097e+16", fillcolor="#fbede3"] ;
451 -> 452 ;
453 [label="DESANDDEGAS_TYP <= 2.5\nmse = 1.4113440000120994e+28\nsamples = 2\nvalue = 3.88296e+16", fillcolor="#fcf1e8"] ;
451 -> 453 ;
454 [label="mse = 0.0\nsamples = 1\nvalue = 3.87108e+16", fillcolor="#fcf1e9"] ;
453 -> 454 ;
455 [label="mse = 2.8823037615171174e+17\nsamples = 1\nvalue = 3.89484e+16", fillcolor="#fcf1e8"] ;
453 -> 455 ;
456 [label="mse = 6.196953087261802e+18\nsamples = 1\nvalue = 2.3202e+16", fillcolor="#fdf7f2"] ;
442 -> 456 ;
457 [label="gas_anchor_length <= 17.07\nmse = 3.603557128836753e+32\nsamples = 25\nvalue = 3.632595157894737e+16", fillcolor="#fcf2ea"] ;
441 -> 457 ;
458 [label="Fillage <= 77.392\nmse = 1.9578506400000014e+31\nsamples = 3\nvalue = 1.62132e+16", fillcolor="#fef9f6"] ;
457 -> 458 ;
459 [label="bha_configuration <= 2.5\nmse = 2.397757593600028e+30\nsamples = 2\nvalue = 1.433808e+16", fillcolor="#fefaf7"] ;
458 -> 459 ;
460 [label="mse = 3.602879701896397e+16\nsamples = 1\nvalue = 1.56024e+16", fillcolor="#fef9f6"] ;
459 -> 460 ;
461 [label="mse = 3.602879701896397e+16\nsamples = 1\nvalue = 1.24416e+16", fillcolor="#fefbf8"] ;
459 -> 461 ;
462 [label="mse = 0.0\nsamples = 1\nvalue = 2.55888e+16", fillcolor="#fdf6f0"] ;
458 -> 462 ;
463 [label="MAX_INCLINATION <= 5.34\nmse = 3.3418191473859356e+32\nsamples = 22\nvalue = 4.00970925e+16", fillcolor="#fcf0e8"] ;
457 -> 463 ;
464 [label="FAILURETYPE <= 1.5\nmse = 1.0618761002482208e+32\nsamples = 13\nvalue = 3.1749261176470588e+16", fillcolor="#fdf3ed"] ;
463 -> 464 ;
465 [label="bha_configuration <= 3.5\nmse = 8.307894438000004e+31\nsamples = 3\nvalue = 4.43772e+16", fillcolor="#fcefe5"] ;
464 -> 465 ;
466 [label="mse = 0.0\nsamples = 1\nvalue = 3.00816e+16", fillcolor="#fdf4ee"] ;
465 -> 466 ;
467 [label="AVG_PRESSURE_TUBING <= 74.626\nmse = 1.9943401680000407e+31\nsamples = 2\nvalue = 4.91424e+16", fillcolor="#fbede2"] ;
465 -> 467 ;
468 [label="mse = 0.0\nsamples = 1\nvalue = 4.59846e+16", fillcolor="#fbeee4"] ;
467 -> 468 ;
469 [label="mse = 5.764607523034235e+17\nsamples = 1\nvalue = 5.5458e+16", fillcolor="#fbeadf"] ;
467 -> 469 ;
470 [label="NIPPLE_SET_DEPTH <= 10032.25\nmse = 4.913460154101273e+31\nsamples = 10\nvalue = 2.786374153846154e+16", fillcolor="#fdf5ef"] ;
464 -> 470 ;
471 [label="AVG_LIQUID_VOLUME <= 146.367\nmse = 4.904175252302225e+31\nsamples = 7\nvalue = 3.0128626666666668e+16", fillcolor="#fdf4ee"] ;
470 -> 471 ;
472 [label="max_unguided_dls <= 2.582\nmse = 1.3723808410800021e+31\nsamples = 3\nvalue = 3.581286e+16", fillcolor="#fcf2ea"] ;
471 -> 472 ;
473 [label="overall_max_sideload <= 132.765\nmse = 1.0598290704001117e+30\nsamples = 2\nvalue = 3.218052e+16", fillcolor="#fdf3ec"] ;
472 -> 473 ;
474 [label="mse = 0.0\nsamples = 1\nvalue = 3.321e+16", fillcolor="#fcf3ec"] ;
473 -> 474 ;
475 [label="mse = 1.4411518807585587e+17\nsamples = 1\nvalue = 3.115104e+16", fillcolor="#fdf4ed"] ;
473 -> 475 ;
476 [label="mse = 0.0\nsamples = 1\nvalue = 3.94452e+16", fillcolor="#fcf0e8"] ;
472 -> 476 ;
477 [label="rod_has_guides <= 0.5\nmse = 3.0768975446399834e+31\nsamples = 4\nvalue = 2.558124e+16", fillcolor="#fdf6f0"] ;
471 -> 477 ;
478 [label="gas_anchor_length <= 19.315\nmse = 1.0082308747499961e+31\nsamples = 3\nvalue = 2.319885e+16", fillcolor="#fdf7f2"] ;
477 -> 478 ;
479 [label="mse = 0.0\nsamples = 1\nvalue = 1.80972e+16", fillcolor="#fef8f5"] ;
478 -> 479 ;
480 [label="MAX_INCLINATION <= 1.78\nmse = 1.8755971200000066e+30\nsamples = 2\nvalue = 2.48994e+16", fillcolor="#fdf6f1"] ;
478 -> 480 ;
481 [label="mse = 0.0\nsamples = 1\nvalue = 2.3931e+16", fillcolor="#fdf6f1"] ;
480 -> 481 ;
482 [label="mse = 1.4411518807585587e+17\nsamples = 1\nvalue = 2.68362e+16", fillcolor="#fdf5f0"] ;
480 -> 482 ;
483 [label="mse = 2.8823037615171174e+17\nsamples = 1\nvalue = 3.51108e+16", fillcolor="#fcf2eb"] ;
477 -> 483 ;
484 [label="AVG_DIFFERENTIAL_PRESSURE <= 18.958\nmse = 1.1832546622500027e+31\nsamples = 3\nvalue = 2.276775e+16", fillcolor="#fdf7f2"] ;
470 -> 484 ;
485 [label="mse = 0.0\nsamples = 1\nvalue = 2.57076e+16", fillcolor="#fdf6f0"] ;
484 -> 485 ;
486 [label="ROUTE <= 882.5\nmse = 1.1935520820000028e+31\nsamples = 2\nvalue = 2.17878e+16", fillcolor="#fdf7f3"] ;
484 -> 486 ;
487 [label="mse = 0.0\nsamples = 1\nvalue = 1.6902e+16", fillcolor="#fef9f5"] ;
486 -> 487 ;
488 [label="mse = 0.0\nsamples = 1\nvalue = 2.42307e+16", fillcolor="#fdf6f1"] ;
486 -> 488 ;
489 [label="NIPPLE_SET_DEPTH <= 9500.95\nmse = 4.240895020074562e+32\nsamples = 9\nvalue = 4.9557968e+16", fillcolor="#fbede2"] ;
463 -> 489 ;
490 [label="AVG_DIFFERENTIAL_PRESSURE <= 13.125\nmse = 5.3191999311679965e+32\nsamples = 2\nvalue = 7.473184e+16", fillcolor="#f9e3d3"] ;
489 -> 490 ;
491 [label="mse = 0.0\nsamples = 1\nvalue = 1.073484e+17", fillcolor="#f7d7c0"] ;
490 -> 491 ;
492 [label="mse = -5.764607523034235e+17\nsamples = 1\nvalue = 5.842356e+16", fillcolor="#fbe9dd"] ;
490 -> 492 ;
493 [label="AVG_PRESSURE_CASING <= 85.643\nmse = 1.9909318189499993e+32\nsamples = 7\nvalue = 4.32645e+16", fillcolor="#fcefe6"] ;
489 -> 493 ;
494 [label="AVG_PRESS_FLOWLINE <= 59.129\nmse = 2.1240910057499988e+32\nsamples = 5\nvalue = 4.749885e+16", fillcolor="#fbede3"] ;
493 -> 494 ;
495 [label="mse = 0.0\nsamples = 1\nvalue = 1.0944e+16", fillcolor="#fefbf9"] ;
494 -> 495 ;
496 [label="NIPPLE_SET_DEPTH <= 9832.45\nmse = 2.4588840082040422e+31\nsamples = 4\nvalue = 5.272097142857143e+16", fillcolor="#fbebe0"] ;
494 -> 496 ;
497 [label="mse = 0.0\nsamples = 1\nvalue = 6.04296e+16", fillcolor="#fae9dc"] ;
496 -> 497 ;
498 [label="AVG_PRESS_FLOWLINE <= 67.202\nmse = 1.147521621599715e+30\nsamples = 3\nvalue = 4.963752e+16", fillcolor="#fbede2"] ;
496 -> 498 ;
499 [label="rod_sinker_type <= 0.5\nmse = 2.080799999963948e+28\nsamples = 2\nvalue = 5.05074e+16", fillcolor="#fbece2"] ;
498 -> 499 ;
500 [label="mse = 0.0\nsamples = 1\nvalue = 5.04054e+16", fillcolor="#fbece2"] ;
499 -> 500 ;
501 [label="mse = -5.764607523034235e+17\nsamples = 1\nvalue = 5.07114e+16", fillcolor="#fbece1"] ;
499 -> 501 ;
502 [label="mse = 0.0\nsamples = 1\nvalue = 4.83327e+16", fillcolor="#fbede3"] ;
498 -> 502 ;
503 [label="chemgroup1_any <= 0.5\nmse = 6.488302499999996e+31\nsamples = 2\nvalue = 3.47958e+16", fillcolor="#fcf2eb"] ;
493 -> 503 ;
504 [label="mse = 0.0\nsamples = 1\nvalue = 2.67408e+16", fillcolor="#fdf5f0"] ;
503 -> 504 ;
505 [label="mse = 0.0\nsamples = 1\nvalue = 4.28508e+16", fillcolor="#fcefe6"] ;
503 -> 505 ;
506 [label="max_unguided_dls <= 2.721\nmse = 3.106731490366289e+32\nsamples = 12\nvalue = 4.852704729655555e+16", fillcolor="#fbede3"] ;
440 -> 506 ;
507 [label="NIPPLE_SET_DEPTH <= 10004.45\nmse = 2.6576939445479636e+32\nsamples = 11\nvalue = 4.4303336755866664e+16", fillcolor="#fcefe5"] ;
506 -> 507 ;
508 [label="AVG_PRESSURE_CASING <= 119.53\nmse = 1.6369970035989106e+32\nsamples = 9\nvalue = 4.8585942410615384e+16", fillcolor="#fbede3"] ;
507 -> 508 ;
509 [label="StrokeLength <= 136.34\nmse = 3.2107807232000977e+30\nsamples = 2\nvalue = 6.589874e+16", fillcolor="#fae6d8"] ;
508 -> 509 ;
510 [label="mse = 0.0\nsamples = 1\nvalue = 6.843282e+16", fillcolor="#fae6d7"] ;
509 -> 510 ;
511 [label="mse = 0.0\nsamples = 1\nvalue = 6.46317e+16", fillcolor="#fae7d9"] ;
509 -> 511 ;
512 [label="max_unguided_dls <= 1.6\nmse = 9.495052170620776e+31\nsamples = 7\nvalue = 4.33921031338e+16", fillcolor="#fcefe6"] ;
508 -> 512 ;
513 [label="StrokeLength <= 144.12\nmse = 2.524501678408197e+31\nsamples = 4\nvalue = 3.927818571428571e+16", fillcolor="#fcf0e8"] ;
512 -> 513 ;
514 [label="SecondarySetpoint <= 62.5\nmse = 4.019617889999793e+30\nsamples = 3\nvalue = 4.11843e+16", fillcolor="#fcf0e7"] ;
513 -> 514 ;
515 [label="ROUTE <= 885.5\nmse = 4.121155584001321e+29\nsamples = 2\nvalue = 4.032684e+16", fillcolor="#fcf0e8"] ;
514 -> 515 ;
516 [label="mse = 0.0\nsamples = 1\nvalue = 4.0851e+16", fillcolor="#fcf0e7"] ;
515 -> 516 ;
517 [label="mse = 2.8823037615171174e+17\nsamples = 1\nvalue = 3.95406e+16", fillcolor="#fcf0e8"] ;
515 -> 517 ;
518 [label="mse = -5.764607523034235e+17\nsamples = 1\nvalue = 4.54716e+16", fillcolor="#fceee5"] ;
514 -> 518 ;
519 [label="mse = 5.764607523034235e+17\nsamples = 1\nvalue = 2.78415e+16", fillcolor="#fdf5ef"] ;
513 -> 519 ;
520 [label="rod_has_guides <= 0.5\nmse = 1.2596312681107767e+32\nsamples = 3\nvalue = 5.2991243779333336e+16", fillcolor="#fbebe0"] ;
512 -> 520 ;
521 [label="mse = 0.0\nsamples = 1\nvalue = 3.7422e+16", fillcolor="#fcf1e9"] ;
520 -> 521 ;
522 [label="rod_sinker_type <= 1.0\nmse = 7.143676321384886e+30\nsamples = 2\nvalue = 6.0775865669e+16", fillcolor="#fae8db"] ;
520 -> 522 ;
523 [label="mse = 0.0\nsamples = 1\nvalue = 5.81031e+16", fillcolor="#fbe9dd"] ;
522 -> 523 ;
524 [label="mse = -5.764607523034235e+17\nsamples = 1\nvalue = 6.3448631338e+16", fillcolor="#fae7da"] ;
522 -> 524 ;
525 [label="ROUTE <= 891.5\nmse = 3.511273536000057e+31\nsamples = 2\nvalue = 1.64664e+16", fillcolor="#fef9f6"] ;
507 -> 525 ;
526 [label="mse = 0.0\nsamples = 1\nvalue = 2.2392e+16", fillcolor="#fdf7f2"] ;
525 -> 526 ;
527 [label="mse = 1.8014398509481984e+16\nsamples = 1\nvalue = 1.05408e+16", fillcolor="#fefbf9"] ;
525 -> 527 ;
528 [label="mse = 2.305843009213694e+18\nsamples = 1\nvalue = 6.96456e+16", fillcolor="#fae5d6"] ;
506 -> 528 ;
529 [label="rod_has_guides <= 0.5\nmse = 5.514928511277112e+32\nsamples = 22\nvalue = 4.676202967741934e+16", fillcolor="#fbeee4"] ;
367 -> 529 ;
530 [label="AVG_DIFFERENTIAL_PRESSURE <= 7.877\nmse = 5.890511617282879e+32\nsamples = 16\nvalue = 5.0805122608695656e+16", fillcolor="#fbece1"] ;
529 -> 530 ;
531 [label="MAX_INCLINATION <= 3.97\nmse = 4.2716770441742195e+32\nsamples = 7\nvalue = 3.6113713333333336e+16", fillcolor="#fcf2ea"] ;
530 -> 531 ;
532 [label="ROUTE <= 881.0\nmse = 1.426599531147937e+32\nsamples = 6\nvalue = 2.9986327500000004e+16", fillcolor="#fdf4ee"] ;
531 -> 532 ;
533 [label="AVG_LIQUID_VOLUME <= 45.65\nmse = 6.444967499998529e+29\nsamples = 2\nvalue = 4.15269e+16", fillcolor="#fcf0e7"] ;
532 -> 533 ;
534 [label="mse = 0.0\nsamples = 1\nvalue = 4.19904e+16", fillcolor="#fcefe7"] ;
533 -> 534 ;
535 [label="mse = 0.0\nsamples = 1\nvalue = 4.01364e+16", fillcolor="#fcf0e8"] ;
533 -> 535 ;
536 [label="bha_configuration <= 2.5\nmse = 1.8305782224074956e+31\nsamples = 4\nvalue = 1.8445755e+16", fillcolor="#fef8f5"] ;
532 -> 536 ;
537 [label="MAX_INCLINATION <= 1.845\nmse = 3.6578304000000016e+31\nsamples = 2\nvalue = 1.84896e+16", fillcolor="#fef8f4"] ;
536 -> 537 ;
538 [label="mse = 0.0\nsamples = 1\nvalue = 1.24416e+16", fillcolor="#fefbf8"] ;
537 -> 538 ;
539 [label="mse = 0.0\nsamples = 1\nvalue = 2.45376e+16", fillcolor="#fdf6f1"] ;
537 -> 539 ;
540 [label="AVG_PRESSURE_TUBING <= 67.733\nmse = 2.9415680099902698e+28\nsamples = 2\nvalue = 1.840191e+16", fillcolor="#fef8f5"] ;
536 -> 540 ;
541 [label="mse = 0.0\nsamples = 1\nvalue = 1.82304e+16", fillcolor="#fef8f5"] ;
540 -> 541 ;
542 [label="mse = 0.0\nsamples = 1\nvalue = 1.857342e+16", fillcolor="#fef8f4"] ;
540 -> 542 ;
543 [label="mse = 1.152921504606847e+18\nsamples = 1\nvalue = 8.51328e+16", fillcolor="#f8dfcd"] ;
531 -> 543 ;
544 [label="DESANDDEGAS_TYP <= 0.5\nmse = 4.65168262628571e+32\nsamples = 9\nvalue = 6.02496e+16", fillcolor="#fae9dc"] ;
530 -> 544 ;
545 [label="mse = 0.0\nsamples = 1\nvalue = 1.143072e+17", fillcolor="#f6d4bc"] ;
544 -> 545 ;
546 [label="AVG_DIFFERENTIAL_PRESSURE <= 21.409\nmse = 2.5887269911100575e+32\nsamples = 8\nvalue = 5.609132307692308e+16", fillcolor="#fbeade"] ;
544 -> 546 ;
547 [label="overall_max_sideload <= 184.55\nmse = 1.503753486336007e+32\nsamples = 3\nvalue = 7.255872e+16", fillcolor="#f9e4d5"] ;
546 -> 547 ;
548 [label="gas_anchor_length <= 30.325\nmse = 8.851949568000025e+31\nsamples = 2\nvalue = 8.06112e+16", fillcolor="#f9e1d0"] ;
547 -> 548 ;
549 [label="mse = 0.0\nsamples = 1\nvalue = 9.39168e+16", fillcolor="#f8dcc8"] ;
548 -> 549 ;
550 [label="mse = 0.0\nsamples = 1\nvalue = 7.39584e+16", fillcolor="#f9e3d4"] ;
548 -> 550 ;
551 [label="mse = 5.764607523034235e+17\nsamples = 1\nvalue = 6.048e+16", fillcolor="#fae9dc"] ;
547 -> 551 ;
552 [label="AVG_LIQUID_VOLUME <= 106.753\nmse = 5.1271269839999625e+31\nsamples = 5\nvalue = 4.57992e+16", fillcolor="#fbeee4"] ;
546 -> 552 ;
553 [label="manual_scale <= 0.5\nmse = 1.307949408000019e+31\nsamples = 3\nvalue = 4.95168e+16", fillcolor="#fbede2"] ;
552 -> 553 ;
554 [label="AVG_PRESSURE_CASING <= 123.544\nmse = 2.930259240000313e+30\nsamples = 2\nvalue = 4.71582e+16", fillcolor="#fbeee4"] ;
553 -> 554 ;
555 [label="mse = 0.0\nsamples = 1\nvalue = 4.54464e+16", fillcolor="#fceee5"] ;
554 -> 555 ;
556 [label="mse = 2.8823037615171174e+17\nsamples = 1\nvalue = 4.887e+16", fillcolor="#fbede3"] ;
554 -> 556 ;
557 [label="mse = 0.0\nsamples = 1\nvalue = 5.4234e+16", fillcolor="#fbebdf"] ;
553 -> 557 ;
558 [label="mse = -1.0088063165309911e+18\nsamples = 2\nvalue = 3.46464e+16", fillcolor="#fcf2eb"] ;
552 -> 558 ;
559 [label="AVG_LIQUID_VOLUME <= 141.529\nmse = 2.614013625023428e+32\nsamples = 6\nvalue = 3.5138137500000004e+16", fillcolor="#fcf2eb"] ;
529 -> 559 ;
560 [label="Fillage <= 27.75\nmse = 1.0954172873249978e+32\nsamples = 4\nvalue = 4.284645e+16", fillcolor="#fcefe6"] ;
559 -> 560 ;
561 [label="mse = 0.0\nsamples = 1\nvalue = 5.55552e+16", fillcolor="#fbeadf"] ;
560 -> 561 ;
562 [label="FAILURETYPE <= 1.5\nmse = 4.317834817687504e+31\nsamples = 3\nvalue = 3.6492075e+16", fillcolor="#fcf2ea"] ;
560 -> 562 ;
563 [label="ROUTE <= 887.0\nmse = 1.0149314579999892e+31\nsamples = 2\nvalue = 3.30489e+16", fillcolor="#fcf3ec"] ;
562 -> 563 ;
564 [label="mse = 0.0\nsamples = 1\nvalue = 3.07962e+16", fillcolor="#fdf4ed"] ;
563 -> 564 ;
565 [label="mse = 0.0\nsamples = 1\nvalue = 3.75543e+16", fillcolor="#fcf1e9"] ;
563 -> 565 ;
566 [label="mse = -5.764607523034235e+17\nsamples = 1\nvalue = 4.68216e+16", fillcolor="#fbeee4"] ;
562 -> 566 ;
567 [label="packer_vs_tac <= 1.5\nmse = 3.9632846400009145e+30\nsamples = 2\nvalue = 1.20132e+16", fillcolor="#fefbf8"] ;
559 -> 567 ;
568 [label="mse = 0.0\nsamples = 1\nvalue = 1.00224e+16", fillcolor="#fefbf9"] ;
567 -> 568 ;
569 [label="mse = 0.0\nsamples = 1\nvalue = 1.4004e+16", fillcolor="#fefaf7"] ;
567 -> 569 ;
570 [label="manual_scale <= 0.5\nmse = 3.706014781574088e+32\nsamples = 80\nvalue = 3.241480725663717e+16", fillcolor="#fdf3ec"] ;
366 -> 570 ;
571 [label="AVG_PRESSURE_TUBING <= 71.529\nmse = 3.656112388520707e+32\nsamples = 75\nvalue = 3.3663935428571428e+16", fillcolor="#fcf3ec"] ;
570 -> 571 ;
572 [label="max_unguided_dls <= 1.817\nmse = 2.3791536243602476e+32\nsamples = 37\nvalue = 2.522235529411765e+16", fillcolor="#fdf6f1"] ;
571 -> 572 ;
573 [label="FAILURETYPE <= 0.5\nmse = 4.008015118952986e+32\nsamples = 20\nvalue = 2.79168288e+16", fillcolor="#fdf5ef"] ;
572 -> 573 ;
574 [label="max_unguided_dls <= 1.677\nmse = 1.7434450069818753e+33\nsamples = 4\nvalue = 4.421857500000001e+16", fillcolor="#fcefe5"] ;
573 -> 574 ;
575 [label="chemgroup1_any <= 0.5\nmse = 1.4667711821999988e+32\nsamples = 3\nvalue = 2.08845e+16", fillcolor="#fdf7f3"] ;
574 -> 575 ;
576 [label="rod_sinker_type <= 0.5\nmse = 9.030626009999992e+30\nsamples = 2\nvalue = 2.92707e+16", fillcolor="#fdf4ee"] ;
575 -> 576 ;
577 [label="mse = 0.0\nsamples = 1\nvalue = 2.62656e+16", fillcolor="#fdf5f0"] ;
576 -> 577 ;
578 [label="mse = -1.4411518807585587e+17\nsamples = 1\nvalue = 3.22758e+16", fillcolor="#fdf3ec"] ;
576 -> 578 ;
579 [label="mse = -9.457559217478042e+16\nsamples = 1\nvalue = 4112100000000000.0", fillcolor="#fffefd"] ;
575 -> 579 ;
580 [label="mse = 0.0\nsamples = 1\nvalue = 1.142208e+17", fillcolor="#f6d4bc"] ;
574 -> 580 ;
581 [label="gas_anchor_length <= 21.0\nmse = 8.479981914202446e+31\nsamples = 16\nvalue = 2.4811734285714284e+16", fillcolor="#fdf6f1"] ;
573 -> 581 ;
582 [label="AVG_DIFFERENTIAL_PRESSURE <= 19.005\nmse = 7.5880708542685275e+31\nsamples = 14\nvalue = 2.3161048235294116e+16", fillcolor="#fdf7f2"] ;
581 -> 582 ;
583 [label="MAX_INCLINATION <= 1.765\nmse = 9.98377546040815e+31\nsamples = 6\nvalue = 1.8046345714285716e+16", fillcolor="#fef8f5"] ;
582 -> 583 ;
584 [label="mse = 0.0\nsamples = 1\nvalue = 3.087e+16", fillcolor="#fdf4ed"] ;
583 -> 584 ;
585 [label="AVG_PRESS_FLOWLINE <= 57.396\nmse = 8.450174801929997e+31\nsamples = 5\nvalue = 1.590907e+16", fillcolor="#fef9f6"] ;
583 -> 585 ;
586 [label="max_unguided_dls <= 1.319\nmse = 2.9729147760000002e+31\nsamples = 3\nvalue = 7800600000000000.0", fillcolor="#fefcfb"] ;
585 -> 586 ;
587 [label="ROUTE <= 874.5\nmse = 1.558252890000001e+30\nsamples = 2\nvalue = 4013100000000000.0", fillcolor="#fffefd"] ;
586 -> 587 ;
588 [label="mse = 0.0\nsamples = 1\nvalue = 5261400000000000.0", fillcolor="#fffdfc"] ;
587 -> 588 ;
589 [label="mse = 2251799813685248.0\nsamples = 1\nvalue = 2764800000000000.0", fillcolor="#fffefe"] ;
587 -> 589 ;
590 [label="mse = 0.0\nsamples = 1\nvalue = 1.53756e+16", fillcolor="#fef9f6"] ;
586 -> 590 ;
591 [label="gas_anchor_length <= 17.165\nmse = 7.779776796800083e+30\nsamples = 2\nvalue = 2.401754e+16", fillcolor="#fdf6f1"] ;
585 -> 591 ;
592 [label="mse = 0.0\nsamples = 1\nvalue = 2.204526e+16", fillcolor="#fdf7f2"] ;
591 -> 592 ;
593 [label="mse = 0.0\nsamples = 1\nvalue = 2.79621e+16", fillcolor="#fdf5ef"] ;
591 -> 593 ;
594 [label="MAX_INCLINATION <= 1.725\nmse = 2.798015986440002e+31\nsamples = 8\nvalue = 2.674134e+16", fillcolor="#fdf5f0"] ;
582 -> 594 ;
595 [label="AVG_LIQUID_VOLUME <= 57.854\nmse = 2.4681024e+31\nsamples = 2\nvalue = 1.78416e+16", fillcolor="#fef9f5"] ;
594 -> 595 ;
596 [label="mse = 0.0\nsamples = 1\nvalue = 2.28096e+16", fillcolor="#fdf7f2"] ;
595 -> 596 ;
597 [label="mse = 3.602879701896397e+16\nsamples = 1\nvalue = 1.28736e+16", fillcolor="#fefaf8"] ;
595 -> 597 ;
598 [label="AVG_PRESSURE_TUBING <= 69.72\nmse = 4.0532650593749485e+30\nsamples = 6\nvalue = 2.8966275e+16", fillcolor="#fdf4ee"] ;
594 -> 598 ;
599 [label="AVG_PRESSURE_TUBING <= 51.197\nmse = 2.722783410000038e+30\nsamples = 5\nvalue = 2.81475e+16", fillcolor="#fdf5ef"] ;
598 -> 599 ;
600 [label="mse = 0.0\nsamples = 1\nvalue = 2.55744e+16", fillcolor="#fdf6f0"] ;
599 -> 600 ;
601 [label="DESANDDEGAS_TYP <= 2.5\nmse = 1.678337625600004e+30\nsamples = 4\nvalue = 2.866212e+16", fillcolor="#fdf4ee"] ;
599 -> 601 ;
602 [label="AVG_PRESSURE_TUBING <= 68.223\nmse = 4.380479999972973e+27\nsamples = 2\nvalue = 2.7774e+16", fillcolor="#fdf5ef"] ;
601 -> 602 ;
603 [label="mse = 0.0\nsamples = 1\nvalue = 2.76804e+16", fillcolor="#fdf5ef"] ;
602 -> 603 ;
604 [label="mse = 0.0\nsamples = 1\nvalue = 2.78208e+16", fillcolor="#fdf5ef"] ;
602 -> 604 ;
605 [label="ROUTE <= 877.0\nmse = 1.2314340899999214e+30\nsamples = 2\nvalue = 2.99943e+16", fillcolor="#fdf4ee"] ;
601 -> 605 ;
606 [label="mse = 0.0\nsamples = 1\nvalue = 3.1104e+16", fillcolor="#fdf4ed"] ;
605 -> 606 ;
607 [label="mse = 0.0\nsamples = 1\nvalue = 2.88846e+16", fillcolor="#fdf4ee"] ;
605 -> 607 ;
608 [label="mse = 1.4411518807585587e+17\nsamples = 1\nvalue = 3.14226e+16", fillcolor="#fdf3ed"] ;
598 -> 608 ;
609 [label="ROUTE <= 894.5\nmse = 6.1909732687500035e+31\nsamples = 2\nvalue = 3.182715e+16", fillcolor="#fdf3ed"] ;
581 -> 609 ;
610 [label="mse = 0.0\nsamples = 1\nvalue = 2.72844e+16", fillcolor="#fdf5ef"] ;
609 -> 610 ;
611 [label="mse = 0.0\nsamples = 1\nvalue = 4.54554e+16", fillcolor="#fceee5"] ;
609 -> 611 ;
612 [label="gas_anchor_length <= 20.735\nmse = 6.760066394822484e+31\nsamples = 17\nvalue = 2.2631515384615384e+16", fillcolor="#fdf7f2"] ;
572 -> 612 ;
613 [label="ROUTE <= 877.5\nmse = 3.9914602804710853e+31\nsamples = 14\nvalue = 2.483582727272727e+16", fillcolor="#fdf6f1"] ;
612 -> 613 ;
614 [label="StrokeLength <= 122.0\nmse = 3.5377063502400034e+31\nsamples = 6\nvalue = 2.066724e+16", fillcolor="#fdf7f3"] ;
613 -> 614 ;
615 [label="mse = 0.0\nsamples = 1\nvalue = 9676800000000000.0", fillcolor="#fefcfa"] ;
614 -> 615 ;
616 [label="FAILURETYPE <= 1.5\nmse = 2.4395530879999994e+31\nsamples = 5\nvalue = 2.18884e+16", fillcolor="#fdf7f2"] ;
614 -> 616 ;
617 [label="NIPPLE_SET_DEPTH <= 9517.3\nmse = 4.4305851743998697e+30\nsamples = 2\nvalue = 2.547756e+16", fillcolor="#fdf6f0"] ;
616 -> 617 ;
618 [label="mse = 0.0\nsamples = 1\nvalue = 2.28996e+16", fillcolor="#fdf7f2"] ;
617 -> 618 ;
619 [label="mse = -1.4411518807585587e+17\nsamples = 1\nvalue = 2.71962e+16", fillcolor="#fdf5ef"] ;
617 -> 619 ;
620 [label="AVG_DIFFERENTIAL_PRESSURE <= 60.745\nmse = 1.3120892527499942e+31\nsamples = 3\nvalue = 1.740195e+16", fillcolor="#fef9f5"] ;
616 -> 620 ;
621 [label="AVG_PRESSURE_CASING <= 103.622\nmse = 4.8372940800000685e+30\nsamples = 2\nvalue = 1.91808e+16", fillcolor="#fef8f4"] ;
620 -> 621 ;
622 [label="mse = 0.0\nsamples = 1\nvalue = 2.22912e+16", fillcolor="#fdf7f2"] ;
621 -> 622 ;
623 [label="mse = 3.602879701896397e+16\nsamples = 1\nvalue = 1.76256e+16", fillcolor="#fef9f5"] ;
621 -> 623 ;
624 [label="mse = -1.080863910568919e+17\nsamples = 1\nvalue = 1.20654e+16", fillcolor="#fefbf8"] ;
620 -> 624 ;
625 [label="ROUTE <= 882.0\nmse = 1.7147508007500127e+31\nsamples = 8\nvalue = 2.830965e+16", fillcolor="#fdf5ef"] ;
613 -> 625 ;
626 [label="mse = 0.0\nsamples = 1\nvalue = 3.47328e+16", fillcolor="#fcf2eb"] ;
625 -> 626 ;
627 [label="max_unguided_dls <= 2.32\nmse = 1.067536418759983e+31\nsamples = 7\nvalue = 2.702502e+16", fillcolor="#fdf5ef"] ;
625 -> 627 ;
628 [label="overall_max_sideload <= 156.695\nmse = 2.7433727999992933e+29\nsamples = 2\nvalue = 2.49264e+16", fillcolor="#fdf6f1"] ;
627 -> 628 ;
629 [label="mse = 0.0\nsamples = 1\nvalue = 2.4624e+16", fillcolor="#fdf6f1"] ;
628 -> 629 ;
630 [label="mse = -1.4411518807585587e+17\nsamples = 1\nvalue = 2.58336e+16", fillcolor="#fdf6f0"] ;
628 -> 630 ;
631 [label="AVG_PRESS_FLOWLINE <= 42.219\nmse = 1.2715820010000067e+31\nsamples = 5\nvalue = 2.84241e+16", fillcolor="#fdf5ef"] ;
627 -> 631 ;
632 [label="overall_max_sideload <= 200.13\nmse = 8.59229369999993e+29\nsamples = 3\nvalue = 2.60181e+16", fillcolor="#fdf5f0"] ;
631 -> 632 ;
633 [label="mse = 0.0\nsamples = 1\nvalue = 2.44512e+16", fillcolor="#fdf6f1"] ;
632 -> 633 ;
634 [label="max_unguided_dls <= 3.888\nmse = 5.445000000003623e+28\nsamples = 2\nvalue = 2.65404e+16", fillcolor="#fdf5f0"] ;
632 -> 634 ;
635 [label="mse = 0.0\nsamples = 1\nvalue = 2.68704e+16", fillcolor="#fdf5f0"] ;
634 -> 635 ;
636 [label="mse = 0.0\nsamples = 1\nvalue = 2.63754e+16", fillcolor="#fdf5f0"] ;
634 -> 636 ;
637 [label="rod_apigrade <= 3.5\nmse = 1.695985289999808e+30\nsamples = 2\nvalue = 3.32361e+16", fillcolor="#fcf3ec"] ;
631 -> 637 ;
638 [label="mse = 0.0\nsamples = 1\nvalue = 3.45384e+16", fillcolor="#fcf2eb"] ;
637 -> 638 ;
639 [label="mse = 0.0\nsamples = 1\nvalue = 3.19338e+16", fillcolor="#fdf3ed"] ;
637 -> 639 ;
640 [label="AVG_LIQUID_VOLUME <= 142.633\nmse = 4.616507555999977e+31\nsamples = 3\nvalue = 1.05078e+16", fillcolor="#fefbf9"] ;
612 -> 640 ;
641 [label="AVG_PRESS_FLOWLINE <= 24.678\nmse = 5.153334079999992e+30\nsamples = 2\nvalue = 6752800000000000.0", fillcolor="#fffdfb"] ;
640 -> 641 ;
642 [label="mse = 0.0\nsamples = 1\nvalue = 3542400000000000.0", fillcolor="#fffefd"] ;
641 -> 642 ;
643 [label="mse = 0.0\nsamples = 1\nvalue = 8358000000000000.0", fillcolor="#fefcfa"] ;
641 -> 643 ;
644 [label="mse = 0.0\nsamples = 1\nvalue = 2.17728e+16", fillcolor="#fdf7f3"] ;
640 -> 644 ;
645 [label="AVG_DIFFERENTIAL_PRESSURE <= 21.952\nmse = 3.553491229857101e+32\nsamples = 38\nvalue = 4.163653888888889e+16", fillcolor="#fcf0e7"] ;
571 -> 645 ;
646 [label="Fillage <= 91.702\nmse = 3.411641288747931e+32\nsamples = 26\nvalue = 4.538854615384615e+16", fillcolor="#fceee5"] ;
645 -> 646 ;
647 [label="pump_bore <= 1.375\nmse = 2.9990542526283202e+32\nsamples = 25\nvalue = 4.425359210526316e+16", fillcolor="#fcefe5"] ;
646 -> 647 ;
648 [label="mse = 0.0\nsamples = 1\nvalue = 6.63678e+16", fillcolor="#fae6d8"] ;
647 -> 648 ;
649 [label="overall_max_sideload <= 126.03\nmse = 2.8788867226687487e+32\nsamples = 24\nvalue = 4.302502499999999e+16", fillcolor="#fcefe6"] ;
647 -> 649 ;
650 [label="gas_anchor_length <= 20.72\nmse = 1.433342521062049e+32\nsamples = 13\nvalue = 3.4010810526315788e+16", fillcolor="#fcf2eb"] ;
649 -> 650 ;
651 [label="gas_anchor_length <= 19.63\nmse = 9.036420831479298e+31\nsamples = 10\nvalue = 2.842144615384615e+16", fillcolor="#fdf5ef"] ;
650 -> 651 ;
652 [label="max_unguided_dls <= 1.337\nmse = 4.364988776000004e+31\nsamples = 7\nvalue = 3.32108e+16", fillcolor="#fcf3ec"] ;
651 -> 652 ;
653 [label="AVG_LIQUID_VOLUME <= 57.522\nmse = 2.497013783999954e+31\nsamples = 3\nvalue = 4.14486e+16", fillcolor="#fcf0e7"] ;
652 -> 653 ;
654 [label="mse = 0.0\nsamples = 1\nvalue = 4.79862e+16", fillcolor="#fbede3"] ;
653 -> 654 ;
655 [label="Fillage <= 44.237\nmse = 5.400046439999722e+30\nsamples = 2\nvalue = 3.81798e+16", fillcolor="#fcf1e9"] ;
653 -> 655 ;
656 [label="mse = 0.0\nsamples = 1\nvalue = 3.5856e+16", fillcolor="#fcf2ea"] ;
655 -> 656 ;
657 [label="mse = 0.0\nsamples = 1\nvalue = 4.05036e+16", fillcolor="#fcf0e7"] ;
655 -> 657 ;
658 [label="NIPPLE_SET_DEPTH <= 9611.25\nmse = 2.0937510900002717e+30\nsamples = 4\nvalue = 2.90919e+16", fillcolor="#fdf4ee"] ;
652 -> 658 ;
659 [label="mse = 0.0\nsamples = 1\nvalue = 2.77884e+16", fillcolor="#fdf5ef"] ;
658 -> 659 ;
660 [label="rod_sinker_type <= 0.5\nmse = 7.892776799999942e+29\nsamples = 3\nvalue = 3.03954e+16", fillcolor="#fdf4ed"] ;
658 -> 660 ;
661 [label="mse = 0.0\nsamples = 1\nvalue = 3.16098e+16", fillcolor="#fdf3ed"] ;
660 -> 661 ;
662 [label="FAILURETYPE <= 1.5\nmse = 7.784099999999387e+28\nsamples = 2\nvalue = 2.97882e+16", fillcolor="#fdf4ee"] ;
660 -> 662 ;
663 [label="mse = 0.0\nsamples = 1\nvalue = 2.95092e+16", fillcolor="#fdf4ee"] ;
662 -> 663 ;
664 [label="mse = -1.4411518807585587e+17\nsamples = 1\nvalue = 3.00672e+16", fillcolor="#fdf4ee"] ;
662 -> 664 ;
665 [label="gas_anchor_length <= 20.695\nmse = 2.7737960759999725e+31\nsamples = 3\nvalue = 1.76454e+16", fillcolor="#fef9f5"] ;
651 -> 665 ;
666 [label="wellbore_category <= 2.0\nmse = 7.157160000000193e+29\nsamples = 2\nvalue = 2.2878e+16", fillcolor="#fdf7f2"] ;
665 -> 666 ;
667 [label="mse = 0.0\nsamples = 1\nvalue = 2.3724e+16", fillcolor="#fdf6f1"] ;
666 -> 667 ;
668 [label="mse = 0.0\nsamples = 1\nvalue = 2.2032e+16", fillcolor="#fdf7f2"] ;
666 -> 668 ;
669 [label="mse = 0.0\nsamples = 1\nvalue = 1.24128e+16", fillcolor="#fefbf8"] ;
665 -> 669 ;
670 [label="AVG_LIQUID_VOLUME <= 114.579\nmse = 4.375474865999986e+31\nsamples = 3\nvalue = 4.61211e+16", fillcolor="#fbeee4"] ;
650 -> 670 ;
671 [label="mse = 0.0\nsamples = 1\nvalue = 5.53824e+16", fillcolor="#fbeadf"] ;
670 -> 671 ;
672 [label="NIPPLE_SET_DEPTH <= 10087.35\nmse = 1.303364722500146e+30\nsamples = 2\nvalue = 4.149045e+16", fillcolor="#fcf0e7"] ;
670 -> 672 ;
673 [label="mse = 0.0\nsamples = 1\nvalue = 4.03488e+16", fillcolor="#fcf0e8"] ;
672 -> 673 ;
674 [label="mse = 2.8823037615171174e+17\nsamples = 1\nvalue = 4.26321e+16", fillcolor="#fcefe6"] ;
672 -> 674 ;
675 [label="AVG_LIQUID_VOLUME <= 97.081\nmse = 2.5713410793757926e+32\nsamples = 11\nvalue = 5.309973529411765e+16", fillcolor="#fbebe0"] ;
649 -> 675 ;
676 [label="AVG_DIFFERENTIAL_PRESSURE <= -26.778\nmse = 4.0790684700001174e+30\nsamples = 4\nvalue = 6.40872e+16", fillcolor="#fae7da"] ;
675 -> 676 ;
677 [label="mse = 0.0\nsamples = 1\nvalue = 6.1695e+16", fillcolor="#fae8db"] ;
676 -> 677 ;
678 [label="DESANDDEGAS_TYP <= 2.5\nmse = 2.89537092000025e+30\nsamples = 3\nvalue = 6.48846e+16", fillcolor="#fae7d9"] ;
676 -> 678 ;
679 [label="mse = 0.0\nsamples = 1\nvalue = 6.27768e+16", fillcolor="#fae8da"] ;
678 -> 679 ;
680 [label="wellbore_category <= 2.0\nmse = 1.0109407500002304e+30\nsamples = 2\nvalue = 6.59385e+16", fillcolor="#fae6d8"] ;
678 -> 680 ;
681 [label="mse = -5.764607523034235e+17\nsamples = 1\nvalue = 6.5358e+16", fillcolor="#fae7d9"] ;
680 -> 681 ;
682 [label="mse = -5.764607523034235e+17\nsamples = 1\nvalue = 6.768e+16", fillcolor="#fae6d7"] ;
680 -> 682 ;
683 [label="ROUTE <= 879.0\nmse = 2.7937419524000006e+32\nsamples = 7\nvalue = 4.33331e+16", fillcolor="#fcefe6"] ;
675 -> 683 ;
684 [label="AVG_PRESS_FLOWLINE <= 57.274\nmse = 7.786475745187509e+31\nsamples = 3\nvalue = 2.8783575e+16", fillcolor="#fdf4ee"] ;
683 -> 684 ;
685 [label="Fillage <= 84.422\nmse = 1.1296657102499994e+31\nsamples = 2\nvalue = 2.028555e+16", fillcolor="#fdf8f3"] ;
684 -> 685 ;
686 [label="mse = 0.0\nsamples = 1\nvalue = 2.36466e+16", fillcolor="#fdf6f1"] ;
685 -> 686 ;
687 [label="mse = 0.0\nsamples = 1\nvalue = 1.69245e+16", fillcolor="#fef9f5"] ;
685 -> 687 ;
688 [label="mse = 2.8823037615171174e+17\nsamples = 1\nvalue = 3.72816e+16", fillcolor="#fcf1e9"] ;
684 -> 688 ;
689 [label="MAX_INCLINATION <= 3.75\nmse = 1.357500495456e+32\nsamples = 4\nvalue = 5.497272e+16", fillcolor="#fbebdf"] ;
683 -> 689 ;
690 [label="rod_sinker_type <= 0.5\nmse = 3.9489638399999885e+30\nsamples = 2\nvalue = 4.12128e+16", fillcolor="#fcf0e7"] ;
689 -> 690 ;
691 [label="mse = 0.0\nsamples = 1\nvalue = 3.92256e+16", fillcolor="#fcf1e8"] ;
690 -> 691 ;
692 [label="mse = 0.0\nsamples = 1\nvalue = 4.32e+16", fillcolor="#fcefe6"] ;
690 -> 692 ;
693 [label="AVG_PRESSURE_CASING <= 85.005\nmse = 1.324477512000027e+31\nsamples = 2\nvalue = 6.4146e+16", fillcolor="#fae7d9"] ;
689 -> 693 ;
694 [label="mse = 0.0\nsamples = 1\nvalue = 6.92928e+16", fillcolor="#fae5d6"] ;
693 -> 694 ;
695 [label="mse = -5.764607523034235e+17\nsamples = 1\nvalue = 6.15726e+16", fillcolor="#fae8db"] ;
693 -> 695 ;
696 [label="mse = 3.458764513820541e+18\nsamples = 1\nvalue = 8.85168e+16", fillcolor="#f8decb"] ;
646 -> 696 ;
697 [label="AVG_DIFFERENTIAL_PRESSURE <= 51.837\nmse = 2.6046415996159792e+32\nsamples = 12\nvalue = 3.188132e+16", fillcolor="#fdf3ed"] ;
645 -> 697 ;
698 [label="DESANDDEGAS_TYP <= 3.5\nmse = 1.4021351961979585e+32\nsamples = 11\nvalue = 2.8838785714285716e+16", fillcolor="#fdf4ee"] ;
697 -> 698 ;
699 [label="rod_sinker_type <= 0.5\nmse = 5.440414364639998e+31\nsamples = 7\nvalue = 2.307384e+16", fillcolor="#fdf7f2"] ;
698 -> 699 ;
700 [label="max_unguided_dls <= 1.9\nmse = 2.059910922240007e+31\nsamples = 3\nvalue = 2.914776e+16", fillcolor="#fdf4ee"] ;
699 -> 700 ;
701 [label="mse = 0.0\nsamples = 1\nvalue = 2.02356e+16", fillcolor="#fdf8f3"] ;
700 -> 701 ;
702 [label="bha_configuration <= 2.5\nmse = 9.28075320000036e+29\nsamples = 2\nvalue = 3.13758e+16", fillcolor="#fdf3ed"] ;
700 -> 702 ;
703 [label="mse = 0.0\nsamples = 1\nvalue = 2.97072e+16", fillcolor="#fdf4ee"] ;
702 -> 703 ;
704 [label="mse = 2.8823037615171174e+17\nsamples = 1\nvalue = 3.1932e+16", fillcolor="#fdf3ed"] ;
702 -> 704 ;
705 [label="AVG_DIFFERENTIAL_PRESSURE <= 25.309\nmse = 1.4424169737599926e+31\nsamples = 4\nvalue = 1.699992e+16", fillcolor="#fef9f5"] ;
699 -> 705 ;
706 [label="mse = 0.0\nsamples = 1\nvalue = 1.01952e+16", fillcolor="#fefbf9"] ;
705 -> 706 ;
707 [label="max_unguided_dls <= 1.23\nmse = 3.560145209999925e+30\nsamples = 3\nvalue = 1.87011e+16", fillcolor="#fef8f4"] ;
705 -> 707 ;
708 [label="mse = 0.0\nsamples = 1\nvalue = 1.58112e+16", fillcolor="#fef9f6"] ;
707 -> 708 ;
709 [label="packer_vs_tac <= 1.0\nmse = 1.035072719999975e+30\nsamples = 2\nvalue = 1.96644e+16", fillcolor="#fef8f4"] ;
707 -> 709 ;
710 [label="mse = 0.0\nsamples = 1\nvalue = 1.8945e+16", fillcolor="#fef8f4"] ;
709 -> 710 ;
711 [label="mse = 7.205759403792794e+16\nsamples = 1\nvalue = 2.11032e+16", fillcolor="#fdf7f3"] ;
709 -> 711 ;
712 [label="AVG_PRESS_FLOWLINE <= 22.717\nmse = 6.393421752749994e+31\nsamples = 4\nvalue = 4.325115e+16", fillcolor="#fcefe6"] ;
698 -> 712 ;
713 [label="rod_has_guides <= 0.5\nmse = 1.6718683760000176e+31\nsamples = 3\nvalue = 4.73902e+16", fillcolor="#fbede3"] ;
712 -> 713 ;
714 [label="AVG_DIFFERENTIAL_PRESSURE <= 30.696\nmse = 4.5868788900000354e+30\nsamples = 2\nvalue = 5.00037e+16", fillcolor="#fbece2"] ;
713 -> 714 ;
715 [label="mse = 0.0\nsamples = 1\nvalue = 5.21454e+16", fillcolor="#fbece1"] ;
714 -> 715 ;
716 [label="mse = -2.8823037615171174e+17\nsamples = 1\nvalue = 4.7862e+16", fillcolor="#fbede3"] ;
714 -> 716 ;
717 [label="mse = 2.8823037615171174e+17\nsamples = 1\nvalue = 4.21632e+16", fillcolor="#fcefe6"] ;
713 -> 717 ;
718 [label="mse = -1.4411518807585587e+17\nsamples = 1\nvalue = 3.0834e+16", fillcolor="#fdf4ed"] ;
712 -> 718 ;
719 [label="mse = -2.305843009213694e+18\nsamples = 1\nvalue = 7.44768e+16", fillcolor="#f9e3d3"] ;
697 -> 719 ;
720 [label="overall_max_sideload <= 140.495\nmse = 1.468294484400044e+32\nsamples = 5\nvalue = 1.602e+16", fillcolor="#fef9f6"] ;
570 -> 720 ;
721 [label="StrokeLength <= 144.12\nmse = 3.888194255999998e+31\nsamples = 4\nvalue = 9757200000000000.0", fillcolor="#fefcfa"] ;
720 -> 721 ;
722 [label="AVG_LIQUID_VOLUME <= 69.249\nmse = 1.4205072384000036e+30\nsamples = 3\nvalue = 7011360000000000.0", fillcolor="#fffdfb"] ;
721 -> 722 ;
723 [label="mse = 0.0\nsamples = 1\nvalue = 5961600000000000.0", fillcolor="#fffdfc"] ;
722 -> 723 ;
724 [label="packer_vs_tac <= 1.0\nmse = 1.1430719999999938e+30\nsamples = 2\nvalue = 7711200000000000.0", fillcolor="#fefcfb"] ;
722 -> 724 ;
725 [label="mse = 0.0\nsamples = 1\nvalue = 6199200000000000.0", fillcolor="#fffdfc"] ;
724 -> 725 ;
726 [label="mse = -9007199254740992.0\nsamples = 1\nvalue = 8467200000000000.0", fillcolor="#fefcfa"] ;
724 -> 726 ;
727 [label="mse = -1.4411518807585587e+17\nsamples = 1\nvalue = 2.34864e+16", fillcolor="#fdf6f2"] ;
721 -> 727 ;
728 [label="mse = 1.4411518807585587e+17\nsamples = 1\nvalue = 3.48084e+16", fillcolor="#fcf2eb"] ;
720 -> 728 ;
729 [label="AVG_PRESSURE_CASING <= 57.158\nmse = 1.3052918513664483e+33\nsamples = 3\nvalue = 6.476544e+16", fillcolor="#fae7d9"] ;
345 -> 729 ;
730 [label="mse = 0.0\nsamples = 1\nvalue = 9.35712e+16", fillcolor="#f8dcc8"] ;
729 -> 730 ;
731 [label="gas_anchor_length <= 20.835\nmse = 1.5158534399999998e+32\nsamples = 2\nvalue = 2.15568e+16", fillcolor="#fdf7f3"] ;
729 -> 731 ;
732 [label="mse = 0.0\nsamples = 1\nvalue = 3.38688e+16", fillcolor="#fcf3eb"] ;
731 -> 732 ;
733 [label="mse = -7.205759403792794e+16\nsamples = 1\nvalue = 9244800000000000.0", fillcolor="#fefcfa"] ;
731 -> 733 ;
734 [label="AVG_PRESSURE_TUBING <= 110.938\nmse = 3.791857201779799e+32\nsamples = 74\nvalue = 2.963499368421053e+16", fillcolor="#fdf4ee"] ;
344 -> 734 ;
735 [label="rod_make <= 2.5\nmse = 4.958883901188993e+32\nsamples = 46\nvalue = 3.3961035833333336e+16", fillcolor="#fcf2eb"] ;
734 -> 735 ;
736 [label="AVG_PRESSURE_TUBING <= 84.429\nmse = 3.0616797056076197e+32\nsamples = 27\nvalue = 2.8488231219512196e+16", fillcolor="#fdf5ef"] ;
735 -> 736 ;
737 [label="AVG_PRESSURE_TUBING <= 76.844\nmse = 8.361205730975064e+31\nsamples = 12\nvalue = 1.9238684210526316e+16", fillcolor="#fef8f4"] ;
736 -> 737 ;
738 [label="gas_anchor_length <= 20.255\nmse = 7.097012645355364e+31\nsamples = 7\nvalue = 1.554349090909091e+16", fillcolor="#fef9f6"] ;
737 -> 738 ;
739 [label="max_unguided_dls <= 0.34\nmse = 1.9665606667500004e+31\nsamples = 5\nvalue = 1.174815e+16", fillcolor="#fefbf8"] ;
738 -> 739 ;
740 [label="mse = 0.0\nsamples = 1\nvalue = 2826000000000000.0", fillcolor="#fffefe"] ;
739 -> 740 ;
741 [label="max_unguided_dls <= 0.853\nmse = 9.478283436734662e+30\nsamples = 4\nvalue = 1.3022742857142858e+16", fillcolor="#fefaf8"] ;
739 -> 741 ;
742 [label="gas_anchor_length <= 19.58\nmse = 1.478412000000012e+30\nsamples = 2\nvalue = 1.10268e+16", fillcolor="#fefbf9"] ;
741 -> 742 ;
743 [label="mse = 0.0\nsamples = 1\nvalue = 1.03248e+16", fillcolor="#fefbf9"] ;
742 -> 743 ;
744 [label="mse = 3.602879701896397e+16\nsamples = 1\nvalue = 1.31328e+16", fillcolor="#fefaf8"] ;
742 -> 744 ;
745 [label="AVG_PRESSURE_CASING <= 197.037\nmse = 7.750771919999953e+30\nsamples = 2\nvalue = 1.5684e+16", fillcolor="#fef9f6"] ;
741 -> 745 ;
746 [label="mse = 0.0\nsamples = 1\nvalue = 1.17468e+16", fillcolor="#fefbf8"] ;
745 -> 746 ;
747 [label="mse = 3.602879701896397e+16\nsamples = 1\nvalue = 1.76526e+16", fillcolor="#fef9f5"] ;
745 -> 747 ;
748 [label="chemgroup1_any <= 0.5\nmse = 6.693707807999983e+31\nsamples = 2\nvalue = 2.56644e+16", fillcolor="#fdf6f0"] ;
738 -> 748 ;
749 [label="mse = 0.0\nsamples = 1\nvalue = 3.14496e+16", fillcolor="#fdf3ed"] ;
748 -> 749 ;
750 [label="mse = 7.205759403792794e+16\nsamples = 1\nvalue = 1.4094e+16", fillcolor="#fefaf7"] ;
748 -> 750 ;
751 [label="max_unguided_dls <= 2.754\nmse = 5.640438741187499e+31\nsamples = 5\nvalue = 2.4319575e+16", fillcolor="#fdf6f1"] ;
737 -> 751 ;
752 [label="rod_has_guides <= 0.5\nmse = 2.313291235959177e+31\nsamples = 4\nvalue = 2.2046657142857144e+16", fillcolor="#fdf7f2"] ;
751 -> 752 ;
753 [label="overall_max_sideload <= 135.04\nmse = 2.0109948213599988e+31\nsamples = 3\nvalue = 2.391948e+16", fillcolor="#fdf6f1"] ;
752 -> 753 ;
754 [label="gas_anchor_length <= 17.255\nmse = 4.794465780000171e+30\nsamples = 2\nvalue = 2.7309e+16", fillcolor="#fdf5ef"] ;
753 -> 754 ;
755 [label="mse = 0.0\nsamples = 1\nvalue = 3.04056e+16", fillcolor="#fdf4ed"] ;
754 -> 755 ;
756 [label="mse = 0.0\nsamples = 1\nvalue = 2.57607e+16", fillcolor="#fdf6f0"] ;
754 -> 756 ;
757 [label="mse = -1.4411518807585587e+17\nsamples = 1\nvalue = 1.88352e+16", fillcolor="#fef8f4"] ;
753 -> 757 ;
758 [label="mse = 3.602879701896397e+16\nsamples = 1\nvalue = 1.73646e+16", fillcolor="#fef9f5"] ;
752 -> 758 ;
759 [label="mse = 0.0\nsamples = 1\nvalue = 4.023e+16", fillcolor="#fcf0e8"] ;
751 -> 759 ;
760 [label="overall_max_sideload <= 278.825\nmse = 3.606756407241327e+32\nsamples = 15\nvalue = 3.647647636363636e+16", fillcolor="#fcf2ea"] ;
736 -> 760 ;
761 [label="DESANDDEGAS_TYP <= 0.5\nmse = 3.074176924536553e+32\nsamples = 12\nvalue = 4.1292323333333336e+16", fillcolor="#fcf0e7"] ;
760 -> 761 ;
762 [label="mse = 0.0\nsamples = 1\nvalue = 7.261902e+16", fillcolor="#f9e4d4"] ;
761 -> 762 ;
763 [label="max_unguided_dls <= 1.858\nmse = 2.6437819812457602e+32\nsamples = 11\nvalue = 3.944957647058823e+16", fillcolor="#fcf0e8"] ;
761 -> 763 ;
764 [label="AVG_PRESSURE_CASING <= 250.1\nmse = 9.337693972195035e+31\nsamples = 6\nvalue = 3.2573296363636364e+16", fillcolor="#fdf3ec"] ;
763 -> 764 ;
765 [label="DESANDDEGAS_TYP <= 2.5\nmse = 1.1869210597688817e+31\nsamples = 5\nvalue = 2.8261406666666668e+16", fillcolor="#fdf5ef"] ;
764 -> 765 ;
766 [label="AVG_PRESSURE_CASING <= 234.941\nmse = 1.6501770000000118e+30\nsamples = 3\nvalue = 3.04842e+16", fillcolor="#fdf4ed"] ;
765 -> 766 ;
767 [label="AVG_PRESSURE_TUBING <= 88.95\nmse = 1.2566327040005683e+29\nsamples = 2\nvalue = 2.992824e+16", fillcolor="#fdf4ee"] ;
766 -> 767 ;
768 [label="mse = 0.0\nsamples = 1\nvalue = 3.03624e+16", fillcolor="#fdf4ed"] ;
767 -> 768 ;
769 [label="mse = 0.0\nsamples = 1\nvalue = 2.96388e+16", fillcolor="#fdf4ee"] ;
767 -> 769 ;
770 [label="mse = 2.8823037615171174e+17\nsamples = 1\nvalue = 3.3264e+16", fillcolor="#fcf3ec"] ;
766 -> 770 ;
771 [label="gas_anchor_length <= 10.055\nmse = 2.6624165767999177e+30\nsamples = 2\nvalue = 2.381582e+16", fillcolor="#fdf6f1"] ;
765 -> 771 ;
772 [label="mse = 0.0\nsamples = 1\nvalue = 2.150826e+16", fillcolor="#fdf7f3"] ;
771 -> 772 ;
773 [label="mse = 0.0\nsamples = 1\nvalue = 2.49696e+16", fillcolor="#fdf6f1"] ;
771 -> 773 ;
774 [label="mse = 0.0\nsamples = 1\nvalue = 5.19768e+16", fillcolor="#fbece1"] ;
764 -> 774 ;
775 [label="DESANDDEGAS_TYP <= 2.5\nmse = 3.322704036284999e+32\nsamples = 5\nvalue = 5.205609e+16", fillcolor="#fbece1"] ;
763 -> 775 ;
776 [label="MAX_INCLINATION <= 4.495\nmse = 1.8183920262749957e+32\nsamples = 3\nvalue = 6.156855e+16", fillcolor="#fae8db"] ;
775 -> 776 ;
777 [label="mse = 0.0\nsamples = 1\nvalue = 8.26308e+16", fillcolor="#f9e0cf"] ;
776 -> 777 ;
778 [label="max_unguided_dls <= 3.396\nmse = 4.528854791999966e+31\nsamples = 2\nvalue = 5.45478e+16", fillcolor="#fbebdf"] ;
776 -> 778 ;
779 [label="mse = 0.0\nsamples = 1\nvalue = 5.93064e+16", fillcolor="#fae9dc"] ;
778 -> 779 ;
780 [label="mse = -2.8823037615171174e+17\nsamples = 1\nvalue = 4.50306e+16", fillcolor="#fceee5"] ;
778 -> 780 ;
781 [label="AVG_PRESSURE_TUBING <= 101.124\nmse = 9.021143412090136e+31\nsamples = 2\nvalue = 3.303117e+16", fillcolor="#fcf3ec"] ;
775 -> 781 ;
782 [label="mse = 0.0\nsamples = 1\nvalue = 4.252914e+16", fillcolor="#fcefe6"] ;
781 -> 782 ;
783 [label="mse = -7.205759403792794e+16\nsamples = 1\nvalue = 2.35332e+16", fillcolor="#fdf6f1"] ;
781 -> 783 ;
784 [label="AVG_PRESS_FLOWLINE <= 75.139\nmse = 2.6324952561675593e+31\nsamples = 3\nvalue = 1.4805165e+16", fillcolor="#fefaf7"] ;
760 -> 784 ;
785 [label="max_unguided_dls <= 5.619\nmse = 9.697608000000797e+28\nsamples = 2\nvalue = 1.1847e+16", fillcolor="#fefbf8"] ;
784 -> 785 ;
786 [label="mse = 0.0\nsamples = 1\nvalue = 1.20672e+16", fillcolor="#fefbf8"] ;
785 -> 786 ;
787 [label="mse = 1.8014398509481984e+16\nsamples = 1\nvalue = 1.14066e+16", fillcolor="#fefbf9"] ;
785 -> 787 ;
788 [label="mse = 7.205759403792794e+16\nsamples = 1\nvalue = 2.367966e+16", fillcolor="#fdf6f1"] ;
784 -> 788 ;
789 [label="AVG_LIQUID_VOLUME <= 229.979\nmse = 6.548036435752757e+32\nsamples = 19\nvalue = 4.1199261290322584e+16", fillcolor="#fcf0e7"] ;
735 -> 789 ;
790 [label="AVG_PRESS_FLOWLINE <= 49.978\nmse = 3.348068081671595e+32\nsamples = 17\nvalue = 3.676377692307692e+16", fillcolor="#fcf1ea"] ;
789 -> 790 ;
791 [label="AVG_PRESSURE_TUBING <= 108.623\nmse = 3.2446572157439982e+32\nsamples = 16\nvalue = 3.580836e+16", fillcolor="#fcf2ea"] ;
790 -> 791 ;
792 [label="NIPPLE_SET_DEPTH <= 9505.85\nmse = 2.9229275794253295e+32\nsamples = 15\nvalue = 3.3610408695652172e+16", fillcolor="#fcf3ec"] ;
791 -> 792 ;
793 [label="mse = 0.0\nsamples = 1\nvalue = 7.94016e+16", fillcolor="#f9e1d0"] ;
792 -> 793 ;
794 [label="AVG_PRESSURE_TUBING <= 106.752\nmse = 1.0141286811102023e+32\nsamples = 14\nvalue = 2.9249342857142856e+16", fillcolor="#fdf4ee"] ;
792 -> 794 ;
795 [label="FAILURETYPE <= 1.5\nmse = 8.028630154222218e+31\nsamples = 13\nvalue = 2.6918533333333332e+16", fillcolor="#fdf5ef"] ;
794 -> 795 ;
796 [label="bha_configuration <= 2.0\nmse = 1.1144057918693903e+32\nsamples = 4\nvalue = 3.0388114285714284e+16", fillcolor="#fdf4ed"] ;
795 -> 796 ;
797 [label="DESANDDEGAS_TYP <= 2.0\nmse = 1.0045036800000004e+32\nsamples = 3\nvalue = 3.24432e+16", fillcolor="#fdf3ec"] ;
796 -> 797 ;
798 [label="AVG_DIFFERENTIAL_PRESSURE <= 135.268\nmse = 7.598722751999992e+31\nsamples = 2\nvalue = 2.74536e+16", fillcolor="#fdf5ef"] ;
797 -> 798 ;
799 [label="mse = 0.0\nsamples = 1\nvalue = 1.23552e+16", fillcolor="#fefbf8"] ;
798 -> 799 ;
800 [label="mse = 0.0\nsamples = 1\nvalue = 3.24864e+16", fillcolor="#fdf3ec"] ;
798 -> 800 ;
801 [label="mse = 0.0\nsamples = 1\nvalue = 4.24224e+16", fillcolor="#fcefe6"] ;
797 -> 801 ;
802 [label="mse = 7.926335344172073e+17\nsamples = 1\nvalue = 1.80576e+16", fillcolor="#fef8f5"] ;
796 -> 802 ;
803 [label="rod_has_guides <= 0.5\nmse = 4.792542246148748e+31\nsamples = 9\nvalue = 2.471061818181818e+16", fillcolor="#fdf6f1"] ;
795 -> 803 ;
804 [label="AVG_DIFFERENTIAL_PRESSURE <= 91.502\nmse = 4.995587144160001e+31\nsamples = 8\nvalue = 2.420952e+16", fillcolor="#fdf6f1"] ;
803 -> 804 ;
805 [label="AVG_LIQUID_VOLUME <= 101.78\nmse = 4.017680893440005e+31\nsamples = 5\nvalue = 1.920036e+16", fillcolor="#fef8f4"] ;
804 -> 805 ;
806 [label="gas_anchor_length <= 19.45\nmse = 5.550101000999999e+31\nsamples = 2\nvalue = 2.32041e+16", fillcolor="#fdf7f2"] ;
805 -> 806 ;
807 [label="mse = 0.0\nsamples = 1\nvalue = 3.0654e+16", fillcolor="#fdf4ed"] ;
806 -> 807 ;
808 [label="mse = -3.602879701896397e+16\nsamples = 1\nvalue = 1.57542e+16", fillcolor="#fef9f6"] ;
806 -> 808 ;
809 [label="gas_anchor_length <= 11.84\nmse = 1.214963712000004e+31\nsamples = 3\nvalue = 1.65312e+16", fillcolor="#fef9f6"] ;
805 -> 809 ;
810 [label="mse = 0.0\nsamples = 1\nvalue = 2.10816e+16", fillcolor="#fdf7f3"] ;
809 -> 810 ;
811 [label="AVG_LIQUID_VOLUME <= 124.98\nmse = 2.694850560000003e+30\nsamples = 2\nvalue = 1.4256e+16", fillcolor="#fefaf7"] ;
809 -> 811 ;
812 [label="mse = 0.0\nsamples = 1\nvalue = 1.58976e+16", fillcolor="#fef9f6"] ;
811 -> 812 ;
813 [label="mse = 1.8014398509481984e+16\nsamples = 1\nvalue = 1.26144e+16", fillcolor="#fefbf8"] ;
811 -> 813 ;
814 [label="AVG_PRESSURE_TUBING <= 70.175\nmse = 9.551566137599949e+30\nsamples = 3\nvalue = 2.921868e+16", fillcolor="#fdf4ee"] ;
804 -> 814 ;
815 [label="MAX_INCLINATION <= 1.775\nmse = 3.769586707499932e+30\nsamples = 2\nvalue = 3.049695e+16", fillcolor="#fdf4ed"] ;
814 -> 815 ;
816 [label="mse = 0.0\nsamples = 1\nvalue = 2.9376e+16", fillcolor="#fdf4ee"] ;
815 -> 816 ;
817 [label="mse = -1.4411518807585587e+17\nsamples = 1\nvalue = 3.38598e+16", fillcolor="#fcf3eb"] ;
815 -> 817 ;
818 [label="mse = -1.4411518807585587e+17\nsamples = 1\nvalue = 2.41056e+16", fillcolor="#fdf6f1"] ;
814 -> 818 ;
819 [label="mse = 0.0\nsamples = 1\nvalue = 2.97216e+16", fillcolor="#fdf4ee"] ;
803 -> 819 ;
